/*!
 * The following copyright notice may not be removed under any circumstances.
 * 
 * Copyright:
 * © 1992, 1994, 1997, 2000, 2004 Adobe Systems Incorporated. All rights reserved.
 * 
 * Trademark:
 * Myriad is either a registered trademark or a trademark of Adobe Systems
 * Incorporated in the United States and/or other countries.
 * 
 * Full name:
 * MyriadPro-Semibold
 * 
 * Manufacturer:
 * Adobe Systems Incorporated
 * 
 * Designer:
 * Robert Slimbach and Carol Twombly
 * 
 * Vendor URL:
 * http://www.adobe.com/type
 * 
 * License information:
 * http://www.adobe.com/type/legal.html
 */
Cufon.registerFont({"w":300,"face":{"font-family":"Myriad Pro","font-weight":600,"font-stretch":"normal","units-per-em":"1000","panose-1":"2 11 6 3 3 4 3 2 2 4","ascent":"750","descent":"-250","x-height":"11","bbox":"-161 -973 1198 250","underline-thickness":"50","underline-position":"-50","stemh":"92","stemv":"123","unicode-range":"U+0020-U+FB04"},"glyphs":{" ":{"w":207},"\ufb00":{"d":"503,0r-123,0r0,-395r-177,0r0,395r-123,0r0,-395r-66,0r0,-92r66,0r0,-10v0,-63,16,-121,55,-161v30,-31,75,-50,137,-50v26,0,52,7,67,14r-20,92v-12,-6,-28,-10,-45,-10v-56,0,-72,47,-72,108r0,17r178,0r0,-21v0,-63,17,-126,59,-166v36,-34,85,-47,128,-47v32,0,59,6,78,12r-9,95v-13,-5,-29,-9,-52,-9v-61,0,-82,51,-82,111r0,25r107,0r0,92r-106,0r0,395","w":620},"\ufb03":{"d":"747,-693r-29,93v-23,-12,-59,-23,-100,-23v-85,0,-113,52,-113,116r0,20r290,0r0,487r-123,0r0,-395r-166,0r0,395r-123,0r0,-395r-180,0r0,395r-123,0r0,-395r-66,0r0,-92r66,0r0,-12v0,-59,17,-118,61,-160v30,-29,75,-49,136,-49v34,0,67,10,86,19r-30,89v-13,-7,-32,-13,-51,-13v-24,0,-41,8,-53,21v-21,21,-27,56,-27,89r0,16r181,0r0,-23v0,-131,91,-211,235,-211v46,0,100,12,129,28","w":861},"\ue003":{"d":"747,-693r-29,93v-23,-12,-59,-23,-100,-23v-85,0,-113,52,-113,116r0,20r290,0r0,435v0,101,-20,164,-64,208v-42,40,-110,57,-171,57r-12,-96v40,-3,72,-13,92,-35v23,-25,32,-63,32,-169r0,-308r-166,0r0,395r-123,0r0,-395r-180,0r0,395r-123,0r0,-395r-66,0r0,-92r66,0r0,-12v0,-59,17,-118,61,-160v30,-29,75,-49,136,-49v34,0,67,10,86,19r-30,89v-13,-7,-32,-13,-51,-13v-24,0,-41,8,-53,21v-21,21,-27,56,-27,89r0,16r181,0r0,-23v0,-131,91,-211,235,-211v46,0,100,12,129,28","w":852},"\ufb04":{"d":"364,-692r-28,90v-16,-7,-34,-11,-52,-11v-25,0,-43,8,-55,22v-20,20,-27,53,-27,88r0,16r181,0r0,-21v0,-61,25,-122,72,-161v43,-35,98,-52,171,-52v66,0,126,14,169,37r0,684r-123,0r0,-617v-13,-7,-33,-11,-64,-11v-75,0,-103,54,-103,119r0,22r100,0r0,92r-99,0r0,395r-123,0r0,-395r-180,0r0,395r-123,0r0,-395r-66,0r0,-92r66,0r0,-9v0,-63,18,-121,59,-160v35,-34,86,-52,146,-52v31,0,63,9,79,16","w":861},"\ue004":{"d":"203,0r-123,0r0,-395r-66,0r0,-92r66,0r0,-23v0,-131,91,-211,235,-211v49,0,107,13,135,31r-28,93v-22,-13,-61,-26,-107,-26v-85,0,-113,52,-113,116r0,20r290,0r0,435v0,101,-20,164,-64,208v-42,40,-110,57,-171,57r-12,-96v40,-3,72,-13,92,-35v23,-25,32,-63,32,-169r0,-308r-166,0r0,395","w":557},"!":{"d":"172,-208r-93,0r-19,-466r130,0xm124,11v-44,0,-75,-34,-75,-78v0,-46,31,-78,76,-78v46,0,75,32,76,78v0,44,-30,78,-77,78","w":251},"\"":{"d":"42,-692r113,0r-20,257r-73,0xm215,-692r113,0r-20,257r-73,0","w":370},"#":{"d":"208,-264r96,0r17,-127r-96,0xm170,0r-77,0r26,-187r-82,0r0,-77r95,0r17,-127r-85,0r0,-77r97,0r25,-182r75,0r-25,182r97,0r26,-182r75,0r-25,182r81,0r0,77r-93,0r-17,127r84,0r0,77r-96,0r-26,187r-76,0r26,-187r-97,0","w":526},"$":{"d":"305,86r-83,0r0,-97v-63,-2,-126,-20,-162,-43r27,-95v40,24,95,44,156,44v64,0,107,-31,107,-78v0,-46,-35,-74,-110,-101v-104,-38,-173,-87,-173,-179v0,-86,60,-153,161,-171r0,-97r82,0r0,92v63,2,106,18,138,34r-27,92v-24,-12,-68,-35,-136,-35v-70,0,-95,36,-95,70v0,41,36,65,122,98v112,42,161,96,161,186v0,85,-59,159,-168,177r0,103","w":536},"%":{"d":"200,-661v101,0,163,76,163,193v0,137,-80,207,-169,207v-91,0,-165,-70,-166,-196v0,-123,71,-204,172,-204xm195,-592v-49,0,-73,58,-73,131v-1,75,26,131,74,131v50,0,73,-53,73,-132v0,-72,-20,-130,-74,-130xm265,11r-70,0r377,-672r71,0xm648,-391v102,0,164,76,164,193v0,136,-80,206,-170,206v-91,0,-165,-70,-166,-196v0,-122,71,-203,172,-203xm644,-322v-49,0,-74,58,-74,131v-1,74,26,130,75,130v50,0,73,-52,73,-131v0,-72,-20,-130,-74,-130","w":840},"&":{"d":"640,0r-144,0v-17,-17,-32,-34,-53,-56v-50,43,-113,67,-190,67v-148,0,-222,-93,-222,-191v0,-90,53,-154,130,-195r0,-3v-32,-38,-54,-87,-54,-135v0,-84,64,-173,188,-173v95,0,168,59,168,151v0,70,-41,127,-139,177r-1,3r136,154v29,-44,50,-108,61,-179r110,0v-18,104,-49,190,-105,253xm272,-80v48,0,87,-20,113,-46v-41,-42,-105,-114,-169,-187v-31,22,-68,57,-68,114v0,66,49,119,124,119xm289,-607v-46,0,-71,39,-71,82v0,41,19,74,49,108v57,-36,90,-67,90,-114v0,-36,-21,-76,-68,-76","w":645},"\u2019":{"d":"94,-683r119,-10v-27,92,-71,194,-108,256r-76,8v26,-74,53,-173,65,-254","w":236},"(":{"d":"184,-693r89,0v-64,95,-112,227,-112,407v0,177,49,308,112,404r-89,0v-58,-80,-122,-211,-122,-404v1,-196,64,-326,122,-407","w":301},")":{"d":"117,118r-89,0v63,-95,112,-228,112,-406v0,-178,-49,-309,-112,-405r89,0v58,79,122,209,122,405v-1,195,-64,325,-122,406","w":301},"*":{"d":"278,-686r75,44r-102,126r0,2r156,-26r0,86r-157,-24r0,3r103,122r-77,44r-59,-148r-2,1r-60,148r-73,-45r101,-123r0,-3r-153,25r0,-86r152,26r0,-2r-100,-125r76,-44r59,147r2,0","w":437},"+":{"d":"257,-532r83,0r0,226r217,0r0,78r-217,0r0,228r-83,0r0,-228r-217,0r0,-78r217,0r0,-226","w":596},",":{"d":"92,113r-84,8v27,-76,54,-181,67,-264r129,-10v-29,94,-73,202,-112,266","w":236},"-":{"d":"30,-309r255,0r0,85r-255,0r0,-85","w":315},".":{"d":"126,11v-44,0,-75,-34,-75,-79v0,-46,32,-79,76,-79v45,0,76,32,76,79v0,45,-30,79,-77,79","w":236},"\/":{"d":"94,39r-85,0r243,-725r86,0","w":337},"0":{"d":"272,-661v157,0,230,140,230,331v0,210,-82,341,-238,341v-149,0,-229,-136,-230,-334v0,-203,86,-338,238,-338xm269,-567v-65,0,-111,81,-111,243v0,159,43,241,110,241v73,0,110,-88,110,-244v0,-151,-35,-240,-109,-240","w":536},"1":{"d":"236,0r0,-539r-2,0r-119,60r-21,-93r159,-78r102,0r0,650r-119,0","w":536},"2":{"d":"483,0r-440,0r0,-75r77,-71v153,-142,225,-220,226,-306v0,-58,-31,-109,-116,-109v-58,0,-106,29,-139,54r-36,-87v47,-38,118,-67,200,-67v144,0,214,91,214,197v0,114,-82,206,-196,311r-56,49r0,2r266,0r0,102","w":536},"3":{"d":"40,-34r28,-93v25,15,86,40,148,40v94,0,131,-53,131,-104v0,-77,-73,-110,-148,-110r-56,0r0,-90r56,0v56,0,128,-26,128,-90v0,-45,-32,-82,-104,-82v-53,0,-106,23,-133,41r-28,-89v37,-25,110,-50,187,-50v135,0,203,74,203,159v0,68,-40,124,-120,152r0,2v79,15,142,74,143,162v0,110,-92,197,-253,197v-79,0,-147,-22,-182,-45","w":536},"4":{"d":"430,0r-116,0r0,-165r-295,0r0,-80r266,-405r145,0r0,392r84,0r0,93r-84,0r0,165xm137,-258r177,0r0,-177v0,-37,2,-74,4,-113r-4,0v-20,41,-37,74,-57,110r-120,178r0,2","w":536},"5":{"d":"457,-650r0,102r-250,0r-19,130v14,-2,27,-3,46,-3v57,0,115,13,158,42v49,31,85,86,85,165v0,124,-103,225,-262,225v-76,0,-139,-19,-173,-38r25,-93v28,15,84,34,143,34v72,0,141,-41,141,-118v0,-75,-55,-124,-184,-124v-37,0,-64,3,-89,6r42,-328r337,0","w":536},"6":{"d":"438,-659r0,97v-18,-1,-38,0,-62,3v-137,16,-202,99,-218,189r3,0v32,-37,81,-63,146,-63v112,0,199,80,199,212v0,124,-91,232,-229,232v-158,0,-245,-120,-245,-281v0,-125,45,-226,113,-290v59,-57,138,-89,231,-96v27,-4,47,-4,62,-3xm277,-81v63,0,104,-55,104,-133v0,-76,-41,-129,-113,-129v-46,0,-87,28,-106,67v-5,10,-8,22,-8,39v2,86,42,156,123,156","w":536},"7":{"d":"53,-650r437,0r0,79r-275,571r-129,0r274,-546r0,-2r-307,0r0,-102","w":536},"8":{"d":"156,-336r0,-3v-68,-33,-99,-87,-99,-144v0,-106,94,-178,217,-178v141,0,204,84,204,164v0,55,-29,112,-100,147r0,3v71,27,124,83,124,164v0,116,-98,194,-237,194v-152,0,-231,-88,-231,-179v0,-80,47,-135,122,-168xm269,-76v65,0,108,-41,108,-97v0,-66,-48,-102,-121,-122v-61,17,-96,60,-96,113v-2,56,40,106,109,106xm268,-576v-62,0,-94,41,-94,88v0,53,44,85,106,102v45,-13,81,-49,81,-98v0,-45,-27,-92,-93,-92","w":536},"9":{"d":"92,10r0,-98v20,2,39,1,68,-2v49,-4,96,-21,132,-50v43,-34,72,-83,84,-145r-2,0v-33,36,-80,57,-142,57v-113,0,-197,-81,-197,-201v0,-125,96,-232,234,-232v152,0,232,118,232,277v0,139,-45,238,-113,303v-56,52,-134,83,-222,89v-28,3,-55,3,-74,2xm263,-570v-62,0,-106,55,-106,134v0,67,39,119,107,119v50,0,86,-24,105,-54v4,-9,7,-19,7,-36v0,-88,-33,-163,-113,-163","w":536},":":{"d":"125,-326v-43,0,-74,-34,-74,-78v0,-46,31,-79,76,-79v45,0,75,32,75,79v0,44,-30,78,-77,78xm125,11v-43,0,-74,-34,-74,-78v0,-46,31,-79,76,-79v45,0,75,32,75,79v0,44,-30,78,-77,78","w":236},";":{"d":"92,113r-83,8v27,-76,54,-181,67,-264r128,-10v-29,94,-73,202,-112,266xm132,-326v-43,0,-74,-34,-74,-78v0,-46,31,-79,76,-79v45,0,75,32,75,79v0,44,-30,78,-77,78","w":236},"<":{"d":"61,-230r0,-72r473,-230r0,90r-376,175r0,2r376,175r0,90","w":596},"=":{"d":"556,-330r-516,0r0,-78r516,0r0,78xm556,-128r-516,0r0,-78r516,0r0,78","w":596},">":{"d":"535,-304r0,76r-474,228r0,-89r382,-176r0,-2r-382,-176r0,-89","w":596},"?":{"d":"248,-206r-109,0r-1,-26v-5,-53,13,-108,60,-164v38,-46,64,-81,64,-120v0,-42,-27,-70,-83,-71v-35,0,-75,11,-100,30r-30,-88v36,-23,93,-41,157,-41v124,0,181,72,181,152v0,73,-43,122,-86,171v-40,46,-55,87,-53,135r0,22xm190,11v-44,0,-75,-34,-75,-78v0,-46,32,-78,76,-78v45,0,75,32,76,78v0,44,-30,78,-77,78","w":428},"@":{"d":"445,-252r17,-103v-9,-3,-22,-6,-39,-6v-76,0,-137,73,-137,159v0,41,19,68,58,68v46,0,91,-59,101,-118xm519,16r17,51v-58,28,-112,38,-181,38v-165,0,-308,-120,-308,-315v0,-205,146,-383,370,-383v175,0,297,122,297,290v0,147,-83,238,-184,238v-44,0,-79,-26,-81,-82r-3,0v-33,54,-78,82,-135,82v-62,0,-110,-48,-110,-129v0,-123,94,-234,235,-234v44,0,89,10,114,23r-31,183v-12,66,-3,97,27,98v47,2,102,-59,102,-175v0,-137,-85,-239,-241,-239v-158,0,-292,124,-292,320v0,168,107,267,255,267v54,0,108,-12,149,-33","w":755},"A":{"d":"419,-191r-213,0r-58,191r-127,0r216,-674r157,0r219,674r-133,0xm226,-284r173,0r-53,-166v-13,-41,-24,-87,-34,-126r-2,0v-10,39,-21,86,-32,126","w":636},"B":{"d":"71,-2r0,-662v39,-8,110,-15,180,-15v90,0,147,12,192,43v42,25,70,69,70,127v0,62,-39,118,-112,145r0,3v71,18,136,74,136,166v0,60,-26,107,-64,140v-48,41,-127,62,-251,62v-68,0,-119,-5,-151,-9xm193,-583r0,185r63,0v86,0,133,-40,133,-97v0,-64,-48,-93,-126,-93v-36,0,-57,2,-70,5xm193,-309r0,220v16,3,37,3,65,3v79,0,150,-29,150,-112v0,-79,-69,-111,-154,-111r-61,0","w":576},"C":{"d":"534,-116r20,97v-29,14,-93,30,-175,30v-214,0,-344,-134,-344,-340v0,-222,155,-356,361,-356v81,0,138,17,163,30r-26,98v-32,-14,-77,-26,-132,-26v-137,0,-236,86,-236,248v0,149,86,243,235,243v49,0,101,-10,134,-24","w":588},"D":{"d":"71,-2r0,-663v55,-8,123,-14,196,-14v126,0,212,26,274,78v66,53,106,134,106,248v0,121,-41,210,-105,268v-67,61,-174,92,-305,92v-71,0,-125,-4,-166,-9xm194,-576r0,483v17,3,43,3,68,3v160,1,255,-88,255,-259v1,-148,-85,-234,-239,-234v-39,0,-66,3,-84,7","w":683},"E":{"d":"448,-399r0,100r-254,0r0,198r284,0r0,101r-407,0r0,-674r392,0r0,101r-269,0r0,174r254,0","w":515},"F":{"d":"71,0r0,-674r390,0r0,101r-267,0r0,186r248,0r0,100r-248,0r0,287r-123,0","w":509},"G":{"d":"611,-372r0,341v-43,16,-127,38,-216,38v-114,0,-201,-29,-265,-90v-60,-57,-94,-146,-94,-248v1,-214,152,-350,375,-350v83,0,148,17,179,32r-27,99v-37,-17,-82,-29,-153,-29v-144,0,-245,85,-245,242v0,153,94,244,234,244v45,0,77,-6,93,-13r0,-169r-119,0r0,-97r238,0","w":666},"H":{"d":"71,-674r123,0r0,270r285,0r0,-270r123,0r0,674r-123,0r0,-297r-285,0r0,297r-123,0r0,-674","w":672},"I":{"d":"71,-674r123,0r0,674r-123,0r0,-674","w":264},"J":{"d":"205,-241r0,-433r123,0r0,437v0,186,-90,248,-223,248v-35,0,-77,-6,-104,-16r15,-99v20,7,47,12,76,12v70,0,113,-32,113,-149","w":392},"K":{"d":"71,0r0,-674r122,0r0,310r3,0v16,-26,33,-50,49,-73r177,-237r151,0r-232,287r247,387r-144,0r-190,-309r-61,72r0,237r-122,0","w":582},"L":{"d":"71,0r0,-674r123,0r0,571r277,0r0,103r-400,0","w":493},"M":{"d":"653,0r-13,-275v-4,-87,-9,-192,-8,-283r-3,0v-22,82,-50,173,-80,258r-99,292r-94,0r-90,-288v-26,-86,-50,-178,-68,-262r-2,0v-3,88,-7,195,-12,287r-15,271r-115,0r45,-674r162,0r88,271v24,79,45,159,62,234r3,0v18,-73,41,-156,67,-235r93,-270r160,0r39,674r-120,0","w":827},"N":{"d":"184,0r-114,0r0,-674r141,0r174,289v44,75,84,153,115,226r2,0v-9,-90,-11,-177,-11,-280r0,-235r114,0r0,674r-128,0r-176,-297v-43,-74,-87,-156,-120,-232r-4,1v5,87,7,176,7,287r0,241","w":676},"O":{"d":"357,-686v196,0,312,149,312,342v0,226,-137,355,-322,355v-191,0,-311,-146,-311,-343v0,-208,131,-354,321,-354xm353,-587v-122,0,-187,113,-187,252v0,138,69,247,187,247v119,0,186,-111,186,-252v0,-127,-63,-247,-186,-247","w":704},"P":{"d":"71,0r0,-665v45,-8,106,-14,188,-14v90,0,155,19,198,55v40,33,66,86,66,149v0,64,-20,116,-57,152v-50,49,-126,73,-213,73v-23,0,-43,-1,-60,-5r0,255r-122,0xm193,-578r0,226v16,5,35,6,60,6v92,0,148,-46,148,-124v0,-75,-52,-114,-137,-114v-34,0,-58,3,-71,6","w":559},"Q":{"d":"673,10r-35,98v-94,-26,-178,-54,-263,-87v-14,-6,-29,-9,-44,-10v-156,-8,-295,-123,-295,-342v0,-209,129,-355,322,-355v195,0,311,150,311,341v0,162,-75,271,-174,311r0,4v58,16,123,30,178,40xm353,-88v118,0,186,-110,186,-252v0,-128,-63,-247,-185,-247v-123,0,-188,117,-188,252v0,135,69,247,187,247","w":704},"R":{"d":"71,0r0,-664v47,-9,115,-15,186,-15v97,0,162,16,208,54v37,31,58,78,58,136v0,87,-59,146,-123,168r0,3v49,18,78,65,94,130v22,84,40,162,53,188r-126,0v-10,-20,-27,-75,-45,-159v-20,-88,-51,-116,-121,-118r-62,0r0,277r-122,0xm193,-580r0,213r73,0v83,0,134,-44,134,-111v0,-73,-51,-108,-131,-108v-39,0,-64,3,-76,6","w":569},"S":{"d":"41,-32r28,-102v39,23,100,43,163,43v78,0,122,-37,122,-92v0,-51,-34,-81,-119,-112v-112,-40,-183,-99,-183,-196v0,-111,92,-194,239,-194v73,0,126,16,161,34r-29,99v-25,-13,-72,-32,-135,-32v-78,0,-111,41,-111,81v0,52,39,76,129,111v117,44,173,103,173,200v0,109,-82,203,-255,203v-72,0,-146,-20,-183,-43","w":519},"T":{"d":"200,0r0,-571r-192,0r0,-103r509,0r0,103r-194,0r0,571r-123,0","w":525},"U":{"d":"70,-674r123,0r0,393v0,132,55,193,138,193v89,0,142,-61,142,-193r0,-393r123,0r0,385v0,208,-107,300,-269,300v-156,0,-257,-87,-257,-299r0,-386","w":666},"V":{"d":"366,0r-141,0r-218,-674r134,0r92,307v26,85,49,163,66,245r2,0v18,-80,43,-162,69,-244r98,-308r131,0","w":601},"W":{"d":"313,0r-133,0r-165,-674r131,0r64,306v17,82,33,168,44,235r2,0v11,-71,30,-151,49,-236r73,-305r129,0r67,310v16,80,31,155,41,228r2,0v12,-74,28,-151,46,-234r70,-304r125,0r-182,674r-131,0r-70,-317v-17,-77,-29,-141,-38,-214r-2,0v-11,72,-24,137,-44,214","w":869},"X":{"d":"574,0r-143,0r-72,-134r-68,-127r-2,0v-16,39,-34,75,-61,127r-67,134r-141,0r200,-341r-193,-333r142,0r73,139v22,42,38,75,55,113r3,0v18,-42,32,-72,53,-113r72,-139r141,0r-197,329","w":594},"Y":{"d":"347,0r-123,0r0,-281r-213,-393r141,0r80,173v23,50,40,88,59,134r2,0v16,-43,35,-85,58,-134r81,-173r139,0r-224,390r0,284","w":575},"Z":{"d":"26,0r0,-68r344,-501r0,-3r-314,0r0,-102r474,0r0,72r-340,497r0,3r345,0r0,102r-509,0","w":566},"[":{"d":"269,112r-195,0r0,-798r195,0r0,71r-104,0r0,656r104,0r0,71","w":301},"\\":{"d":"327,39r-86,0r-234,-725r86,0","w":335},"]":{"d":"31,-686r195,0r0,798r-195,0r0,-71r104,0r0,-656r-104,0r0,-71","w":301},"^":{"d":"546,-182r-91,0r-156,-371r-2,0r-156,371r-90,0r208,-468r79,0","w":596},"_":{"d":"0,75r500,0r0,50r-500,0r0,-50","w":500},"\u2018":{"d":"149,-438r-119,9v27,-91,71,-194,108,-256r76,-7v-26,73,-53,173,-65,254","w":236},"a":{"d":"444,-292r0,175v0,44,2,87,8,117r-111,0r-9,-54r-3,0v-29,38,-80,65,-144,65v-98,0,-153,-71,-153,-145v0,-122,109,-185,289,-184r0,-8v0,-32,-13,-85,-99,-85v-48,0,-98,15,-131,36r-24,-80v36,-22,99,-43,176,-43v156,0,201,99,201,206xm324,-171r0,-67v-87,-1,-170,17,-170,91v0,48,31,70,70,70v50,0,85,-32,97,-67v3,-9,3,-18,3,-27","w":508},"b":{"d":"66,-137r0,-573r123,0r0,290r2,0v30,-47,83,-78,156,-78v119,0,204,99,203,247v0,175,-111,262,-221,262v-63,0,-119,-24,-154,-84r-2,0r-6,73r-105,0v2,-33,4,-87,4,-137xm189,-280r0,79v0,10,1,20,3,29v13,50,56,86,109,86v77,0,124,-61,124,-160v0,-86,-41,-156,-123,-156v-50,0,-96,36,-109,90v-2,9,-4,20,-4,32","w":585},"c":{"d":"407,-106r17,91v-26,12,-77,25,-138,25v-152,0,-251,-98,-251,-249v0,-146,100,-259,271,-259v45,0,91,10,119,22r-22,93v-20,-10,-49,-19,-93,-19v-94,0,-150,69,-149,158v0,100,65,157,149,157v42,0,73,-9,97,-19","w":449},"d":{"d":"392,-710r123,0r0,573v0,50,2,104,4,137r-109,0r-6,-77r-2,0v-29,54,-88,88,-158,88v-117,0,-209,-99,-209,-249v-1,-163,101,-260,218,-260v67,0,115,27,137,63r2,0r0,-275xm392,-211r0,-73v0,-10,-1,-23,-3,-33v-11,-47,-50,-86,-106,-86v-79,0,-123,70,-123,160v0,90,44,155,122,155v50,0,94,-34,106,-87v3,-11,4,-23,4,-36","w":581},"e":{"d":"479,-209r-326,0v3,88,71,126,150,126v57,0,97,-9,135,-22r18,84v-42,18,-100,31,-170,31v-158,0,-251,-97,-251,-246v0,-135,82,-262,238,-262v158,0,210,130,210,237v0,23,-2,41,-4,52xm153,-295r214,0v1,-45,-19,-119,-101,-119v-76,0,-108,69,-113,119","w":516},"f":{"d":"203,0r-123,0r0,-395r-66,0r0,-92r66,0r0,-21v0,-63,17,-126,59,-166v36,-34,84,-47,127,-47v33,0,59,6,78,12r-8,95v-14,-5,-30,-9,-53,-9v-61,0,-81,51,-81,111r0,25r106,0r0,92r-105,0r0,395","w":319},"g":{"d":"507,-347r0,276v0,102,-21,175,-72,221v-50,45,-121,59,-188,59v-62,0,-128,-14,-170,-39r27,-93v31,18,83,37,142,37v80,0,140,-42,140,-147r0,-42r-2,0v-28,43,-77,72,-142,72v-121,0,-207,-100,-207,-238v0,-160,104,-257,221,-257v75,0,118,36,141,76r2,0r5,-65r107,0v-2,33,-4,73,-4,140xm384,-213r0,-79v0,-12,-1,-23,-4,-33v-13,-45,-48,-79,-100,-79v-69,0,-120,60,-120,159v0,83,42,150,119,150v46,0,86,-30,100,-75v4,-12,5,-29,5,-43","w":573},"h":{"d":"66,0r0,-710r123,0r0,289r2,0v15,-23,36,-42,61,-55v25,-14,54,-22,85,-22v83,0,170,55,170,211r0,287r-123,0r0,-274v0,-70,-26,-124,-94,-124v-48,0,-82,32,-96,69v-4,11,-5,24,-5,37r0,292r-123,0","w":572},"i":{"d":"189,0r-123,0r0,-487r123,0r0,487xm128,-690v42,0,68,29,69,67v0,36,-27,66,-70,66v-41,0,-68,-30,-68,-66v0,-38,28,-67,69,-67","w":256},"j":{"d":"-30,213r-12,-96v40,-3,72,-14,92,-35v23,-25,32,-63,32,-169r0,-400r123,0r0,435v0,101,-20,164,-64,208v-42,40,-110,57,-171,57xm145,-690v41,0,67,29,68,67v0,36,-26,66,-70,66v-42,0,-68,-30,-68,-66v0,-38,28,-67,70,-67","w":270},"k":{"d":"189,-710r0,437r2,0v12,-19,26,-40,38,-57r119,-157r148,0r-181,199r206,288r-151,0r-140,-215r-41,49r0,166r-123,0r0,-710r123,0","w":509},"l":{"d":"66,0r0,-710r123,0r0,710r-123,0","w":257},"m":{"d":"66,0r0,-342v0,-56,-2,-103,-4,-145r105,0r6,72r3,0v23,-38,67,-83,150,-83v64,0,114,36,135,90r2,0v17,-27,37,-47,59,-61v28,-19,59,-29,100,-29v80,0,162,55,162,211r0,287r-120,0r0,-269v0,-81,-28,-129,-87,-129v-42,0,-73,30,-86,65v-4,11,-6,27,-6,41r0,292r-120,0r0,-282v0,-68,-27,-116,-84,-116v-46,0,-77,36,-89,69v-4,13,-6,27,-6,41r0,288r-120,0","w":848},"n":{"d":"66,0r0,-342v0,-56,-2,-103,-4,-145r107,0r6,73r3,0v22,-38,75,-84,156,-84v85,0,173,55,173,209r0,289r-123,0r0,-275v0,-70,-26,-123,-93,-123v-49,0,-83,35,-96,72v-4,10,-6,25,-6,39r0,287r-123,0","w":572},"o":{"d":"287,-498v145,0,242,102,242,250v0,179,-126,259,-250,259v-137,0,-244,-94,-244,-251v0,-160,105,-258,252,-258xm284,-409v-87,0,-122,85,-122,166v0,94,47,165,121,165v70,0,119,-68,119,-167v0,-76,-34,-164,-118,-164","w":564},"p":{"d":"66,198r0,-523v0,-64,-2,-116,-4,-162r108,0r6,75r2,0v36,-55,93,-86,167,-86v112,0,205,96,205,248v0,176,-111,261,-222,261v-61,0,-112,-26,-137,-65r-2,0r0,252r-123,0xm189,-279r0,75v0,12,1,23,3,34v13,50,56,86,109,86v78,0,124,-65,124,-161v0,-86,-42,-156,-121,-156v-51,0,-98,37,-111,91v-2,10,-4,21,-4,31","w":585},"q":{"d":"392,198r0,-265r-2,0v-29,47,-80,78,-151,78v-110,0,-204,-95,-204,-247v0,-178,114,-262,218,-262v68,0,116,30,142,75r2,1r3,-65r119,0v-2,44,-4,90,-4,141r0,544r-123,0xm392,-205r0,-81v0,-10,-1,-21,-3,-30v-11,-46,-50,-85,-105,-85v-80,0,-124,67,-124,159v0,89,43,156,121,156v50,0,91,-32,105,-81v4,-11,6,-26,6,-38","w":581},"r":{"d":"66,0r0,-330v0,-66,-1,-114,-4,-157r106,0r5,92r3,0v24,-68,81,-103,134,-103v12,0,19,1,29,3r0,115v-11,-2,-22,-3,-37,-3v-58,0,-99,37,-110,93v-2,11,-3,24,-3,37r0,253r-123,0","w":356},"s":{"d":"36,-24r25,-90v27,17,80,36,124,36v54,0,78,-23,78,-55v0,-33,-20,-49,-80,-71v-95,-32,-134,-84,-134,-142v0,-86,71,-152,184,-152v54,0,101,13,130,29r-25,86v-20,-12,-60,-28,-103,-28v-44,0,-68,22,-68,52v0,31,23,45,85,68v89,31,129,76,130,148v0,89,-69,153,-198,153v-59,0,-112,-14,-148,-34","w":417},"t":{"d":"86,-578r121,-34r0,125r117,0r0,92r-117,0r0,215v0,60,16,90,63,90v22,0,34,-1,48,-5r2,93v-18,7,-51,13,-89,13v-46,0,-83,-15,-106,-40v-27,-28,-39,-73,-39,-137r0,-229r-69,0r0,-92r69,0r0,-91","w":351},"u":{"d":"502,-487r0,341v0,58,2,106,4,146r-107,0r-6,-73r-3,0v-21,34,-69,84,-157,84v-88,0,-169,-53,-169,-212r0,-286r123,0r0,265v0,81,26,133,91,133v50,0,82,-34,94,-66v5,-10,7,-24,7,-38r0,-294r123,0","w":569},"v":{"d":"11,-487r133,0r79,247v14,43,24,82,33,122r3,0v9,-40,20,-78,33,-122r78,-247r129,0r-186,487r-121,0","w":508},"w":{"d":"14,-487r126,0r50,221v12,52,23,105,32,158r2,0v10,-53,26,-107,39,-157r64,-222r100,0r61,216v15,57,28,110,39,163r2,0v7,-53,19,-106,32,-163r54,-216r121,0r-153,487r-114,0r-58,-198v-15,-51,-26,-97,-37,-156r-2,0v-11,60,-23,108,-37,156r-62,198r-115,0","w":749},"x":{"d":"11,-487r137,0r58,92r44,75r2,0v14,-27,28,-52,43,-77r54,-90r134,0r-163,234r166,253r-140,0r-59,-97v-16,-26,-30,-52,-44,-79r-2,0v-14,28,-29,52,-44,79r-56,97r-136,0r169,-248","w":494},"y":{"d":"8,-487r136,0r87,261v10,30,21,67,28,94r3,0v7,-27,16,-64,26,-95r76,-260r131,0r-122,332v-67,182,-112,263,-169,313v-49,42,-99,58,-129,62r-28,-103v21,-5,46,-16,71,-34v24,-15,51,-44,68,-77v5,-9,7,-16,7,-22v0,-5,-1,-12,-6,-24","w":500},"z":{"d":"20,0r0,-71r183,-234r71,-82r0,-2r-236,0r0,-98r386,0r0,75r-178,229v-24,29,-47,57,-72,83r0,2r256,0r0,98r-410,0","w":450},"{":{"d":"29,-255r0,-65v69,-1,78,-39,78,-71v0,-26,-3,-54,-6,-81v-4,-27,-7,-55,-7,-81v0,-93,59,-133,149,-133r28,0r0,71r-18,0v-51,1,-69,29,-69,78v0,20,3,41,6,64v3,22,6,45,6,71v1,71,-28,101,-79,113r0,2v51,12,80,43,79,113v0,27,-3,51,-6,73v-3,22,-6,43,-6,63v0,50,19,78,70,79r17,0r0,71r-29,0v-86,0,-148,-36,-148,-137v0,-25,3,-53,7,-80v3,-27,6,-53,6,-79v0,-29,-8,-70,-78,-71","w":301},"|":{"d":"87,-750r89,0r0,1000r-89,0r0,-1000","w":263},"}":{"d":"271,-320r0,65v-69,1,-78,42,-78,71v0,26,3,52,7,79v3,27,6,55,6,80v0,101,-62,137,-148,137r-29,0r0,-71r17,0v51,-1,70,-29,70,-79v0,-20,-3,-41,-6,-63v-3,-22,-6,-46,-6,-73v-1,-70,28,-101,79,-113r0,-2v-51,-12,-80,-42,-79,-113v0,-26,3,-49,6,-71v3,-23,6,-44,6,-64v0,-49,-18,-77,-69,-78r-18,0r0,-71r28,0v90,0,149,40,149,133v0,26,-3,54,-6,81v-4,27,-7,55,-7,81v0,32,8,70,78,71","w":301},"~":{"d":"125,-201r-79,0v-2,-118,54,-170,130,-170v46,0,79,15,141,46v47,25,78,41,108,41v29,0,45,-25,47,-83r79,0v5,129,-55,172,-125,172v-44,0,-81,-15,-142,-46v-46,-25,-77,-43,-106,-43v-30,0,-50,21,-53,83","w":596},"\u00a1":{"d":"191,193r-130,0r19,-463r93,0xm127,-491v44,0,74,33,74,78v0,45,-30,78,-76,78v-44,0,-75,-33,-75,-78v0,-45,31,-78,77,-78","w":251},"\u00a2":{"d":"356,13r-82,0r0,-100v-64,-8,-111,-34,-147,-73v-35,-40,-56,-98,-56,-167v0,-124,75,-226,203,-248r0,-98r82,0r0,94v38,1,76,11,101,22r-22,92v-21,-11,-52,-21,-96,-21v-88,0,-143,66,-143,154v0,99,64,153,142,153v47,0,81,-10,106,-21r17,89v-22,11,-61,23,-105,26r0,98","w":536},"\u00a3":{"d":"491,0r-438,0r0,-67v59,-28,112,-88,112,-160v0,-18,0,-34,-4,-53r-99,0r0,-85r85,0v-4,-27,-9,-60,-9,-93v0,-123,87,-203,211,-203v53,0,92,12,113,24r-22,93v-19,-10,-47,-19,-86,-19v-75,0,-101,50,-101,109v0,33,4,61,11,89r140,0r0,85r-129,0v1,30,1,60,-7,89v-10,34,-30,63,-58,88r0,2r281,0r0,101","w":536},"\u2044":{"d":"-90,11r-71,0r374,-672r71,0","w":124},"\u00a5":{"d":"321,0r-116,0r0,-167r-155,0r0,-61r155,0r0,-68r-155,0r0,-61r124,0r-165,-293r132,0r85,181v17,37,29,68,41,101r2,0v12,-30,25,-66,42,-103r88,-179r129,0r-174,293r124,0r0,61r-157,0r0,68r157,0r0,61r-157,0r0,167","w":536},"\u0192":{"d":"113,-320r0,-87r94,0r5,-39v9,-81,49,-215,205,-215v32,1,60,7,76,16r-20,87v-14,-5,-30,-9,-50,-9v-58,0,-84,49,-91,112r-6,48r110,0r0,87r-121,0r-23,190v-15,126,-56,218,-187,218v-38,-1,-69,-8,-85,-16r19,-87v16,7,32,10,51,10v55,-1,75,-41,88,-149r19,-166r-84,0","w":536},"\u00a7":{"d":"148,-346v0,34,27,61,95,85v49,17,94,32,117,45v20,-14,33,-38,33,-63v0,-33,-22,-61,-78,-82v-41,-15,-96,-33,-127,-49v-26,16,-40,37,-40,64xm443,-653r-23,77v-27,-15,-69,-30,-126,-30v-59,0,-96,24,-96,60v0,40,42,58,115,81v101,32,178,71,178,168v0,52,-27,92,-69,121v18,15,42,48,42,91v0,114,-115,155,-208,155v-61,0,-127,-12,-174,-43r27,-76v27,17,83,41,143,41v58,0,100,-22,100,-65v0,-39,-30,-60,-113,-88v-105,-34,-188,-73,-188,-166v0,-41,24,-89,79,-120v-21,-16,-39,-52,-39,-88v0,-95,89,-149,203,-149v58,0,109,11,149,31","w":542},"\u00a4":{"d":"269,-543v46,0,86,14,115,38r74,-80r57,58r-83,75v17,26,33,65,33,117v0,55,-17,96,-35,122r80,77r-56,57r-71,-83v-31,27,-77,41,-117,41v-40,0,-87,-14,-114,-39r-70,81r-56,-57r79,-74v-20,-27,-37,-69,-37,-121v0,-55,18,-94,37,-121r-82,-75r57,-58r73,81v29,-25,71,-39,116,-39xm266,-459v-61,0,-103,54,-103,127v0,87,57,127,103,127v50,0,104,-38,104,-129v0,-68,-39,-125,-104,-125","w":536},"'":{"d":"42,-692r113,0r-20,257r-73,0","w":198},"\u201c":{"d":"149,-438r-119,9v27,-91,71,-194,108,-256r76,-7v-27,73,-53,173,-65,254xm323,-438r-119,9v28,-91,71,-194,108,-256r76,-7v-26,73,-53,173,-65,254","w":409},"\u00ab":{"d":"240,-440r-125,188r126,187r-91,0r-123,-187r123,-188r90,0xm421,-440r-126,188r126,187r-90,0r-123,-187r123,-188r90,0","w":444},"\u2039":{"d":"241,-440r-125,188r125,187r-90,0r-123,-187r123,-188r90,0","w":264},"\u203a":{"d":"148,-252r-125,-188r89,0r124,188r-124,187r-89,0","w":264},"\ufb01":{"d":"203,0r-123,0r0,-395r-66,0r0,-92r66,0r0,-23v0,-131,91,-211,235,-211v49,0,107,13,135,31r-28,93v-22,-13,-61,-26,-107,-26v-85,0,-113,52,-113,116r0,20r290,0r0,487r-123,0r0,-395r-166,0r0,395","w":559},"\ufb02":{"d":"203,0r-123,0r0,-395r-66,0r0,-92r66,0r0,-21v0,-61,25,-122,72,-161v42,-35,98,-52,172,-52v66,0,126,14,169,37r0,684r-123,0r0,-617v-13,-7,-34,-11,-65,-11v-75,0,-103,54,-103,119r0,22r100,0r0,92r-99,0r0,395","w":559},"\u2013":{"d":"30,-293r440,0r0,78r-440,0r0,-78","w":500},"\u2020":{"d":"201,-674r112,0r-11,206r173,-10r0,97r-173,-10r11,441r-112,0r11,-441r-173,10r0,-97r173,10","w":513},"\u2021":{"d":"201,-674r111,0r-9,193r172,-10r0,97r-172,-10r0,178r172,-10r0,97r-172,-10r9,199r-111,0r8,-199r-171,10r0,-97r172,10r0,-178r-172,10r0,-97r172,10","w":513},"\u00b7":{"d":"117,-182v-44,0,-75,-34,-75,-79v0,-46,32,-79,76,-79v45,0,76,32,76,79v0,45,-30,79,-77,79","w":236},"\u00b6":{"d":"298,48r-81,0r0,-312r-7,0v-67,0,-175,-60,-177,-189v-2,-105,54,-224,286,-224v57,0,102,3,131,10r0,715r-81,0r0,-646r-71,0r0,646","w":529},"\u2022":{"d":"156,-142v-65,0,-118,-51,-118,-119v-1,-66,53,-119,119,-119v66,0,119,52,119,119v0,67,-53,119,-120,119","w":313},"\u201a":{"d":"94,102r-76,8v26,-73,53,-173,65,-253r119,-10v-27,91,-71,194,-108,255","w":236},"\u201e":{"d":"93,102r-76,8v26,-73,53,-173,65,-253r119,-10v-28,91,-71,194,-108,255xm267,102r-76,8v27,-73,53,-173,65,-253r119,-10v-27,91,-71,194,-108,255","w":412},"\u201d":{"d":"94,-683r119,-10v-28,92,-71,194,-108,256r-76,8v26,-74,53,-173,65,-254xm268,-683r119,-10v-27,92,-71,194,-108,256r-76,8v27,-74,53,-173,65,-254","w":409},"\u00bb":{"d":"149,-252r-126,-188r89,0r124,188r-124,187r-89,0xm327,-252r-126,-188r90,0r124,188r-124,187r-89,0","w":444},"\u2026":{"d":"166,11v-44,0,-75,-34,-75,-79v0,-46,32,-79,76,-79v45,0,76,32,76,79v0,45,-30,79,-77,79xm500,11v-44,0,-75,-34,-75,-79v0,-46,32,-79,76,-79v45,0,76,32,76,79v0,45,-30,79,-77,79xm834,11v-44,0,-75,-34,-75,-79v0,-46,32,-79,76,-79v45,0,76,32,76,79v0,45,-30,79,-77,79","w":1000},"\u2030":{"d":"200,-661v101,0,163,76,163,193v0,137,-80,207,-169,207v-91,0,-165,-70,-166,-196v0,-123,71,-204,172,-204xm195,-592v-49,0,-73,58,-73,131v-1,75,26,131,74,131v50,0,73,-53,73,-132v0,-72,-20,-130,-74,-130xm265,11r-70,0r377,-672r71,0xm648,-391v102,0,164,76,164,193v0,136,-80,206,-170,206v-91,0,-165,-70,-166,-196v0,-122,71,-203,172,-203xm644,-322v-49,0,-74,58,-74,131v-1,74,26,130,75,130v50,0,73,-52,73,-131v0,-72,-20,-130,-74,-130xm1035,-391v101,0,163,76,163,193v0,136,-80,206,-169,206v-91,0,-165,-70,-166,-196v0,-122,71,-203,172,-203xm1030,-322v-49,0,-73,58,-73,131v-1,74,26,130,74,130v50,0,73,-52,73,-131v0,-72,-20,-130,-74,-130","w":1227},"\u00bf":{"d":"244,-491v44,0,75,33,75,78v0,45,-30,78,-76,78v-45,0,-76,-33,-76,-78v0,-45,31,-78,77,-78xm187,-274r108,0r2,26v4,52,-14,108,-61,164v-38,45,-63,81,-63,120v0,42,27,70,83,71v34,0,74,-12,100,-30r29,88v-35,22,-93,41,-156,41v-124,0,-181,-72,-181,-152v0,-73,43,-122,86,-171v40,-46,55,-88,53,-136r0,-21","w":428},"`":{"d":"12,-698r120,0r87,148r-85,0"},"\u00b4":{"d":"174,-698r120,0r-122,148r-85,0"},"\u02c6":{"d":"108,-698r83,0r98,148r-85,0r-53,-90r-2,0r-54,90r-84,0"},"\u02dc":{"d":"77,-562r-61,0v-3,-76,28,-119,76,-119v23,0,42,10,64,21v16,9,30,18,42,18v16,0,25,-9,27,-43r60,0v2,80,-26,116,-76,116v-25,0,-45,-10,-66,-21v-19,-11,-28,-17,-41,-17v-15,0,-23,16,-25,45"},"\u00af":{"d":"31,-655r239,0r0,71r-239,0r0,-71"},"\u02d8":{"d":"18,-688r67,0v5,38,27,65,64,65v44,0,64,-32,66,-65r67,0v-1,80,-49,135,-132,135v-91,0,-131,-62,-132,-135"},"\u02d9":{"d":"129,-562v-34,0,-61,-28,-61,-62v0,-35,27,-62,63,-62v33,0,59,27,59,62v0,34,-25,62,-61,62"},"\u00a8":{"d":"50,-563v-35,0,-61,-28,-61,-61v0,-35,27,-62,63,-62v33,0,59,26,59,62v0,33,-25,61,-61,61xm250,-563r-2,0v-34,0,-60,-28,-60,-61v0,-35,27,-62,62,-62v34,0,60,26,60,62v0,33,-25,61,-60,61"},"\u02da":{"d":"142,-538v-66,0,-109,-41,-109,-94v0,-55,40,-98,110,-98v67,0,107,41,107,97v0,55,-44,95,-108,95xm141,-582v31,0,49,-24,49,-52v0,-28,-18,-52,-49,-52v-30,0,-47,26,-47,53v0,25,18,51,47,51"},"\u00b8":{"d":"128,-3r69,0r-29,50v37,5,71,31,71,71v0,62,-54,84,-114,84v-28,0,-56,-7,-75,-19r18,-49v17,9,38,15,54,15v20,0,39,-7,39,-28v0,-22,-26,-35,-78,-39"},"\u02dd":{"d":"88,-697r105,0r-103,143r-72,0xm249,-697r104,0r-103,143r-72,0"},"\u02db":{"d":"100,-3r70,0v-12,18,-37,53,-37,85v0,31,20,52,52,52v18,0,34,-4,45,-9r18,60v-24,19,-63,28,-92,28v-63,0,-104,-33,-104,-98v0,-48,30,-96,48,-118"},"\u02c7":{"d":"193,-550r-85,0r-98,-148r85,0r54,91r2,0r55,-91r84,0"},"\u2014":{"d":"30,-293r940,0r0,78r-940,0r0,-78","w":1000},"\u00c6":{"d":"128,0r-127,0r296,-674r472,0r0,101r-280,0r21,176r253,0r0,100r-238,0r25,196r252,0r0,101r-358,0r-26,-208r-201,0xm255,-307r149,0r-21,-177v-4,-31,-9,-70,-12,-103r-4,0v-11,33,-25,70,-38,102","w":832},"\u00aa":{"d":"324,-266r-78,0r-6,-37r-2,0v-22,23,-56,42,-100,42v-66,0,-105,-43,-105,-97v0,-75,75,-117,199,-115r0,-8v0,-12,-8,-49,-67,-49v-35,0,-67,10,-90,26r-18,-55v27,-17,72,-32,124,-32v105,0,138,66,138,140r0,107v0,29,2,57,5,78xm234,-377r0,-44v-58,-1,-115,12,-115,57v0,27,23,44,50,44v25,0,48,-15,58,-33v5,-9,7,-18,7,-24","w":363},"\u0141":{"d":"476,0r-400,0r0,-251r-79,56r0,-88r79,-56r0,-335r123,0r0,253r129,-91r0,89r-129,91r0,229r277,0r0,103","w":499},"\u00d8":{"d":"136,56r-68,-54r59,-86v-58,-62,-91,-151,-91,-252v0,-204,132,-350,319,-350v58,0,112,14,157,45r57,-81r71,48r-58,85v57,62,87,151,87,247v0,227,-140,353,-316,353v-57,0,-111,-15,-156,-43xm198,-189r256,-365v-28,-22,-61,-35,-100,-35v-126,0,-194,114,-194,251v0,59,13,104,36,149r2,0xm509,-482r-254,361v26,23,57,35,98,35v121,0,192,-110,192,-254v0,-46,-9,-95,-33,-142r-3,0","w":704},"\u0152":{"d":"879,-102r0,102r-364,0v-19,0,-40,3,-64,5v-24,3,-50,6,-82,6v-221,0,-333,-156,-333,-343v0,-219,137,-354,336,-354v36,0,65,3,89,7v25,2,46,5,64,5r339,0r0,101r-269,0r0,174r254,0r0,100r-254,0r0,197r284,0xm472,-100r0,-473v-22,-9,-52,-14,-91,-14v-126,0,-215,95,-215,250v0,147,81,249,224,249v30,0,62,-4,82,-12","w":917},"\u00ba":{"d":"188,-591v100,0,163,69,163,162v-1,115,-83,168,-166,168v-92,0,-164,-63,-164,-162v0,-102,72,-168,167,-168xm184,-528v-52,0,-74,57,-74,103v0,57,32,101,76,101v45,0,75,-42,75,-103v0,-45,-23,-101,-77,-101","w":372},"\u00e6":{"d":"754,-216r-316,0v0,86,59,135,142,135v63,0,101,-13,134,-27r19,84v-47,24,-108,35,-170,35v-82,0,-155,-34,-185,-96r-3,0v-35,59,-97,96,-182,96v-104,0,-161,-69,-161,-146v0,-116,110,-179,291,-178r0,-17v0,-18,-15,-81,-103,-81v-48,0,-98,18,-128,37r-25,-79v39,-23,101,-45,163,-45v83,0,134,34,159,89r3,0v35,-55,93,-89,167,-89v147,0,198,133,198,234v0,18,-2,37,-3,48xm326,-175r0,-60v-87,-1,-173,18,-173,91v0,43,33,67,72,67v51,0,83,-30,96,-65v4,-10,5,-21,5,-33xm437,-301r205,0v1,-39,-18,-114,-97,-114v-74,0,-106,69,-108,114","w":790},"\u0131":{"d":"189,0r-123,0r0,-487r123,0r0,487","w":256},"\u0142":{"d":"195,0r-123,0r0,-256r-66,55r0,-91r66,-55r0,-363r123,0r0,271r71,-59r0,92r-71,58r0,348","w":267},"\u00f8":{"d":"284,-498v43,0,84,10,120,30r44,-65r47,33r-44,64v50,45,78,111,78,190v0,176,-125,257,-246,257v-44,0,-85,-9,-120,-29r-46,66r-45,-36r43,-62v-50,-43,-80,-108,-80,-192v0,-157,105,-256,249,-256xm182,-145r168,-241v-18,-15,-41,-23,-69,-23v-92,0,-127,89,-127,166v0,34,7,69,25,98r3,0xm384,-339r-168,238v18,17,41,23,65,23v79,0,129,-68,129,-165v0,-27,-6,-65,-24,-95","w":564},"\u0153":{"d":"830,-211r-318,0v2,82,65,129,146,129v59,0,96,-12,133,-26r18,84v-47,26,-118,35,-168,35v-77,0,-144,-28,-185,-99r-3,0v-39,68,-111,99,-185,99v-130,0,-233,-96,-233,-252v0,-157,103,-257,241,-257v76,0,145,35,177,100r2,0v38,-67,101,-100,174,-100v155,0,204,132,204,237v0,20,-2,41,-3,50xm280,-409v-89,0,-118,92,-118,167v0,92,46,164,118,164v72,0,117,-66,117,-165v0,-84,-35,-166,-117,-166xm510,-296r208,0v1,-44,-16,-118,-100,-118v-73,0,-104,69,-108,118","w":866},"\u00df":{"d":"189,0r-123,0r0,-440v0,-114,28,-180,74,-223v41,-38,96,-58,166,-58v109,0,198,66,198,178v0,32,-10,64,-23,82v-42,19,-64,45,-64,74v0,28,15,48,41,76v37,38,80,81,80,155v0,99,-71,167,-191,167v-37,0,-78,-6,-107,-18r18,-92v21,10,48,16,76,16v52,0,81,-29,81,-66v0,-32,-15,-54,-44,-84v-36,-36,-77,-77,-77,-138v0,-50,29,-95,84,-123v5,-11,8,-24,8,-39v0,-56,-35,-93,-90,-93v-65,0,-107,46,-107,177r0,449","w":576},"\u00b9":{"d":"209,-443r-96,0r0,-310r-1,0r-76,35r-14,-69r103,-46r84,0r0,390","w":275},"\u00ac":{"d":"40,-412r516,0r0,299r-82,0r0,-221r-434,0r0,-78","w":596},"\u00b5":{"d":"397,-71r-4,0v-17,37,-62,79,-129,79v-34,0,-67,-13,-86,-40r0,50v0,53,2,141,11,180r-109,0v-10,-27,-14,-103,-14,-178r0,-507r123,0r0,280v0,69,27,119,90,119v48,0,83,-35,96,-66v4,-11,6,-25,6,-39r0,-294r123,0r0,340v0,47,12,63,43,65r-8,86v-11,5,-24,7,-43,7v-51,0,-88,-26,-99,-82","w":570},"\u2122":{"d":"29,-674r233,0r0,57r-82,0r0,216r-70,0r0,-216r-81,0r0,-57xm624,-401r-68,0r-8,-138v0,-26,0,-57,-1,-93r-4,0v-7,31,-16,67,-23,95r-38,131r-68,0r-35,-133v-5,-24,-12,-62,-19,-93r-4,0v0,32,-1,65,-2,93r-8,138r-66,0r18,-273r107,0r31,97v6,21,10,42,17,79r1,0v7,-29,13,-55,19,-78r33,-98r101,0","w":636},"\u00d0":{"d":"1,-294r0,-97r76,0r0,-277v55,-8,123,-14,196,-14v127,0,213,25,275,77v66,53,106,136,106,252v0,122,-41,211,-105,270v-68,61,-174,92,-306,92v-71,0,-125,-4,-166,-9r0,-294r-76,0xm355,-391r0,97r-155,0r0,203v17,3,43,3,69,3v161,0,255,-88,255,-262v1,-154,-85,-236,-240,-236v-39,0,-66,3,-84,7r0,188r155,0","w":689},"\u00bd":{"d":"213,-266r-96,0r0,-310r-1,0r-76,35r-14,-69r103,-46r84,0r0,390xm207,11r-71,0r373,-672r70,0xm464,0r0,-48r63,-56v78,-72,120,-111,120,-158v0,-33,-22,-58,-66,-58v-34,0,-65,15,-85,29r-26,-62v30,-23,79,-42,135,-42v97,0,143,55,143,117v0,73,-56,123,-123,180r-27,24r0,2r157,0r0,72r-291,0","w":799},"\u00b1":{"d":"257,-575r83,0r0,182r217,0r0,78r-217,0r0,187r-83,0r0,-187r-217,0r0,-78r217,0r0,-182xm40,-78r517,0r0,78r-517,0r0,-78","w":596},"\u00de":{"d":"71,0r0,-674r121,0r0,126v22,-4,49,-6,89,-6v79,0,138,17,181,55v39,33,61,83,61,139v0,155,-114,222,-259,222v-30,0,-55,-2,-72,-5r0,143r-121,0xm192,-453r0,213v18,4,43,6,68,6v94,0,141,-46,141,-116v0,-73,-51,-109,-133,-109v-36,0,-62,3,-76,6","w":558},"\u00bc":{"d":"226,-266r-96,0r0,-310r-1,0r-76,35r-14,-69r103,-46r84,0r0,390xm228,11r-71,0r374,-672r71,0xm707,0r-89,0r0,-96r-198,0r0,-52r181,-246r106,0r0,235r56,0r0,63r-56,0r0,96xm618,-159r0,-93v0,-25,2,-48,4,-69r-3,0v-12,23,-23,43,-35,60r-74,101r2,1r106,0","w":799},"\u00f7":{"d":"297,-376v-37,0,-63,-28,-63,-66v0,-39,26,-66,64,-66v39,0,63,27,64,66v0,38,-25,66,-65,66xm556,-228r-516,0r0,-78r516,0r0,78xm297,-26v-37,0,-63,-28,-63,-66v0,-39,26,-66,64,-66v39,0,63,27,64,66v0,38,-25,66,-65,66","w":596},"\u00a6":{"d":"87,-174r89,0r0,350r-89,0r0,-350xm87,-674r89,0r0,350r-89,0r0,-350","w":263},"\u00b0":{"d":"172,-686v86,0,142,65,142,139v0,84,-69,142,-144,142v-84,0,-143,-62,-143,-138v0,-81,64,-143,145,-143xm169,-627v-46,0,-73,41,-73,84v0,44,32,79,74,79v44,0,75,-35,75,-82v0,-38,-24,-81,-76,-81","w":339},"\u00fe":{"d":"66,-674r123,0r0,254r2,0v31,-47,82,-78,154,-78v110,-2,205,92,205,249v0,180,-116,260,-220,260v-63,0,-111,-26,-139,-65r-2,0r0,252r-123,0r0,-872xm189,-282r0,86v0,14,5,33,12,46v17,40,56,66,101,66v74,0,123,-62,123,-163v0,-85,-44,-154,-119,-154v-47,0,-89,28,-107,74v-5,12,-10,30,-10,45","w":585},"\u00be":{"d":"66,-569r-20,-60v26,-17,74,-32,128,-32v92,0,135,45,135,96v0,42,-32,75,-80,90r0,2v55,7,95,43,95,94v0,67,-64,118,-170,118v-52,0,-100,-12,-126,-28r21,-65v18,11,59,26,95,26v51,0,79,-27,79,-55v0,-42,-47,-59,-95,-60r-29,0r0,-58r28,0v36,0,84,-13,84,-51v0,-22,-17,-42,-58,-42v-35,0,-70,15,-87,25xm263,11r-71,0r373,-672r71,0xm717,0r-89,0r0,-96r-198,0r0,-52r181,-246r106,0r0,235r56,0r0,63r-56,0r0,96xm628,-159r0,-93v0,-25,2,-48,4,-69r-3,0v-12,23,-23,43,-34,60r-75,101r2,1r106,0","w":799},"\u00b2":{"d":"13,-443r0,-47r62,-57v79,-71,121,-111,121,-157v0,-33,-22,-58,-66,-58v-34,0,-65,15,-85,29r-27,-62v30,-23,80,-42,136,-42v97,0,143,55,143,117v0,73,-56,123,-123,180r-27,23r0,2r157,0r0,72r-291,0","w":333},"\u00ae":{"d":"197,-493r0,61r-44,0r0,-161v13,-3,36,-6,67,-6v34,0,49,5,60,13v10,6,17,18,17,34v0,18,-15,32,-35,38r0,2v17,6,26,19,31,41v5,23,8,33,11,39r-48,0v-5,-6,-8,-20,-12,-37v-3,-17,-12,-24,-30,-24r-17,0xm198,-567r0,43r16,0v20,0,34,-7,34,-22v0,-14,-11,-22,-31,-22v-8,0,-15,1,-19,1xm222,-684v96,0,172,75,172,168v0,95,-76,170,-173,170v-96,0,-174,-75,-174,-170v0,-93,78,-168,175,-168xm219,-645v-70,0,-124,57,-124,130v0,72,54,130,126,130v72,1,125,-58,125,-130v0,-73,-53,-130,-127,-130","w":441},"\u2212":{"d":"40,-306r516,0r0,78r-516,0r0,-78","w":596},"\u00f0":{"d":"279,-78v74,0,117,-68,117,-164v0,-57,-8,-93,-28,-119v-19,-22,-47,-39,-87,-39v-88,0,-119,93,-119,163v0,88,45,159,117,159xm111,-491r-23,-52r110,-51v-30,-20,-64,-37,-99,-53r54,-72v50,20,103,49,150,80r133,-60r26,52r-106,48v54,43,96,95,125,154v28,55,42,118,42,190v0,186,-123,266,-245,266v-138,0,-243,-95,-243,-247v0,-149,107,-240,228,-242v31,0,60,5,90,30r2,-3v-26,-39,-59,-74,-101,-104","w":560},"\u00d7":{"d":"40,-470r55,-56r203,207r202,-207r56,56r-202,207r202,206r-56,57r-202,-206r-202,206r-56,-57r202,-206","w":596},"\u00b3":{"d":"46,-744r-20,-62v26,-16,75,-31,129,-31v91,0,134,45,134,96v0,42,-32,75,-79,89r0,2v55,7,95,43,95,94v0,67,-64,118,-170,118v-52,0,-100,-12,-126,-28r21,-65v18,11,59,26,95,26v51,0,79,-27,79,-55v0,-41,-47,-59,-95,-59r-29,0r0,-58r27,0v36,0,84,-13,84,-51v0,-22,-17,-42,-57,-42v-36,0,-71,15,-88,26","w":328},"\u00a9":{"d":"341,-648v169,0,303,138,303,308v0,172,-134,310,-304,310v-171,0,-307,-138,-307,-310v0,-170,136,-308,308,-308xm338,-598v-137,0,-246,115,-246,260v0,144,109,258,247,258v137,1,246,-114,246,-259v0,-144,-109,-259,-247,-259xm474,-493r-13,48v-13,-8,-51,-23,-97,-23v-84,0,-131,52,-131,131v0,75,49,132,132,132v40,0,77,-10,100,-25r14,45v-35,24,-81,32,-124,32v-117,0,-184,-79,-184,-181v0,-114,91,-186,193,-186v50,0,97,15,110,27","w":677},"\u00c1":{"d":"419,-191r-213,0r-58,191r-127,0r216,-674r157,0r219,674r-133,0xm226,-284r173,0r-53,-166v-13,-41,-24,-87,-34,-126r-2,0v-10,39,-21,86,-32,126xm342,-830r136,0r-125,120r-99,0","w":636},"\u00c2":{"d":"419,-191r-213,0r-58,191r-127,0r216,-674r157,0r219,674r-133,0xm226,-284r173,0r-53,-166v-13,-41,-24,-87,-34,-126r-2,0v-10,39,-21,86,-32,126xm273,-829r93,0r103,119r-92,0r-56,-65r-2,0r-56,65r-91,0","w":636},"\u00c4":{"d":"419,-191r-213,0r-58,191r-127,0r216,-674r157,0r219,674r-133,0xm226,-284r173,0r-53,-166v-13,-41,-24,-87,-34,-126r-2,0v-10,39,-21,86,-32,126xm222,-715v-34,0,-59,-28,-59,-60v0,-34,26,-61,60,-61v33,0,58,26,58,61v0,32,-24,60,-59,60xm419,-715v-34,0,-58,-28,-58,-60v0,-34,25,-61,60,-61v33,0,58,26,58,61v0,32,-24,60,-60,60","w":636},"\u00c0":{"d":"419,-191r-213,0r-58,191r-127,0r216,-674r157,0r219,674r-133,0xm226,-284r173,0r-53,-166v-13,-41,-24,-87,-34,-126r-2,0v-10,39,-21,86,-32,126xm156,-830r136,0r88,119r-99,0","w":636},"\u00c5":{"d":"419,-191r-213,0r-58,191r-127,0r216,-674r157,0r219,674r-133,0xm226,-284r173,0r-53,-166v-13,-41,-24,-87,-34,-126r-2,0v-10,39,-21,86,-32,126xm319,-889v68,0,106,42,106,95v0,52,-42,93,-107,93v-67,0,-109,-42,-109,-93v0,-52,40,-95,110,-95xm315,-845v-28,0,-44,25,-44,51v0,24,18,48,45,48v29,0,47,-22,47,-49v0,-27,-18,-50,-48,-50","w":636},"\u00c3":{"d":"420,-191r-214,0r-58,191r-127,0r216,-674r157,0r219,674r-132,0xm226,-284r174,0r-54,-166v-13,-41,-24,-87,-34,-126r-2,0v-10,39,-21,86,-32,126xm248,-715r-60,0v-2,-74,27,-116,73,-116v25,0,43,9,62,20v17,10,32,19,46,19v16,0,24,-8,27,-41r59,0v2,77,-24,112,-74,112v-24,0,-44,-8,-63,-19v-19,-10,-31,-19,-45,-19v-14,0,-23,16,-25,44","w":636},"\u00c7":{"d":"534,-116r20,96v-28,14,-87,29,-166,30r-21,37v37,8,71,34,71,78v0,65,-57,88,-112,88v-28,0,-58,-6,-79,-18r18,-55v14,9,36,14,55,14v21,0,39,-8,39,-28v0,-22,-27,-34,-78,-39r40,-81v-179,-22,-286,-147,-286,-335v0,-222,155,-356,361,-356v81,0,138,17,163,30r-27,98v-31,-14,-76,-26,-131,-26v-137,0,-236,86,-236,248v0,149,86,243,234,243v50,0,102,-10,135,-24","w":592},"\u00c9":{"d":"448,-399r0,100r-254,0r0,198r284,0r0,101r-407,0r0,-674r392,0r0,101r-269,0r0,174r254,0xm295,-830r136,0r-125,120r-99,0","w":515},"\u00ca":{"d":"448,-399r0,100r-254,0r0,198r284,0r0,101r-407,0r0,-674r392,0r0,101r-269,0r0,174r254,0xm222,-829r93,0r103,119r-92,0r-56,-65r-2,0r-56,65r-91,0","w":515},"\u00cb":{"d":"448,-399r0,100r-254,0r0,198r284,0r0,101r-407,0r0,-674r392,0r0,101r-269,0r0,174r254,0xm165,-716v-34,0,-59,-28,-59,-60v0,-34,26,-61,60,-61v33,0,58,26,58,61v0,32,-24,60,-59,60xm363,-716v-34,0,-59,-28,-59,-60v0,-34,26,-61,60,-61v33,0,58,26,58,61v0,32,-24,60,-59,60","w":515},"\u00c8":{"d":"448,-399r0,100r-254,0r0,198r284,0r0,101r-407,0r0,-674r392,0r0,101r-269,0r0,174r254,0xm114,-830r136,0r88,119r-99,0","w":515},"\u00cd":{"d":"71,-674r123,0r0,674r-123,0r0,-674xm156,-830r136,0r-125,120r-99,0","w":264},"\u00ce":{"d":"71,-674r123,0r0,674r-123,0r0,-674xm85,-829r93,0r103,119r-92,0r-56,-65r-2,0r-56,65r-91,0","w":264},"\u00cf":{"d":"71,-674r123,0r0,674r-123,0r0,-674xm33,-716v-34,0,-59,-28,-59,-60v0,-34,26,-61,60,-61v33,0,58,26,58,61v0,32,-24,60,-59,60xm230,-716v-34,0,-58,-28,-58,-60v0,-34,25,-61,60,-61v33,0,58,26,58,61v0,32,-24,60,-60,60","w":264},"\u00cc":{"d":"71,-674r123,0r0,674r-123,0r0,-674xm-26,-830r136,0r88,119r-99,0","w":264},"\u00d1":{"d":"184,0r-114,0r0,-674r141,0r174,289v44,75,84,153,115,226r2,0v-9,-90,-11,-177,-11,-280r0,-235r114,0r0,674r-128,0r-176,-297v-43,-74,-87,-156,-120,-232r-4,1v5,87,7,176,7,287r0,241xm268,-715r-60,0v-2,-74,27,-116,73,-116v25,0,42,9,62,20v17,10,32,19,46,19v16,0,24,-8,27,-41r59,0v2,77,-24,112,-74,112v-25,0,-44,-8,-64,-19v-18,-10,-30,-19,-44,-19v-14,0,-23,16,-25,44","w":676},"\u00d3":{"d":"357,-686v196,0,312,149,312,342v0,226,-137,355,-322,355v-191,0,-311,-146,-311,-343v0,-208,131,-354,321,-354xm353,-587v-122,0,-187,113,-187,252v0,138,69,247,187,247v119,0,186,-111,186,-252v0,-127,-63,-247,-186,-247xm378,-832r136,0r-125,120r-99,0","w":704},"\u00d4":{"d":"357,-686v196,0,312,149,312,342v0,226,-137,355,-322,355v-191,0,-311,-146,-311,-343v0,-208,131,-354,321,-354xm353,-587v-122,0,-187,113,-187,252v0,138,69,247,187,247v119,0,186,-111,186,-252v0,-127,-63,-247,-186,-247xm305,-830r93,0r103,119r-92,0r-56,-65r-2,0r-56,65r-91,0","w":704},"\u00d6":{"d":"357,-686v196,0,312,149,312,342v0,226,-137,355,-322,355v-191,0,-311,-146,-311,-343v0,-208,131,-354,321,-354xm353,-587v-122,0,-187,113,-187,252v0,138,69,247,187,247v119,0,186,-111,186,-252v0,-127,-63,-247,-186,-247xm253,-716v-34,0,-59,-28,-59,-60v0,-34,26,-61,60,-61v33,0,58,26,58,61v0,32,-24,60,-59,60xm450,-716v-34,0,-58,-28,-58,-60v0,-34,25,-61,60,-61v33,0,58,26,58,61v0,32,-24,60,-60,60","w":704},"\u00d2":{"d":"357,-686v196,0,312,149,312,342v0,226,-137,355,-322,355v-191,0,-311,-146,-311,-343v0,-208,131,-354,321,-354xm353,-587v-122,0,-187,113,-187,252v0,138,69,247,187,247v119,0,186,-111,186,-252v0,-127,-63,-247,-186,-247xm193,-832r136,0r88,119r-99,0","w":704},"\u00d5":{"d":"357,-686v196,0,312,149,312,342v0,226,-137,355,-322,355v-191,0,-311,-146,-311,-343v0,-208,131,-354,321,-354xm353,-587v-122,0,-187,113,-187,252v0,138,69,247,187,247v119,0,186,-111,186,-252v0,-127,-63,-247,-186,-247xm279,-716r-60,0v-2,-73,27,-115,73,-115v25,0,43,9,62,19v17,10,32,19,46,19v16,0,24,-8,27,-41r59,0v2,77,-24,112,-74,112v-24,0,-44,-8,-64,-19v-18,-10,-30,-18,-44,-18v-14,0,-23,15,-25,43","w":704},"\u0160":{"d":"41,-32r28,-102v39,23,100,43,163,43v78,0,122,-37,122,-92v0,-51,-34,-81,-119,-112v-112,-40,-183,-99,-183,-196v0,-111,92,-194,239,-194v73,0,126,16,161,34r-29,99v-25,-13,-72,-32,-135,-32v-78,0,-111,41,-111,81v0,52,39,76,129,111v117,44,173,103,173,200v0,109,-82,203,-255,203v-72,0,-146,-20,-183,-43xm317,-711r-93,0r-103,-119r92,0r57,66r2,0r55,-66r91,0","w":519},"\u00da":{"d":"70,-674r123,0r0,393v0,132,55,193,138,193v89,0,142,-61,142,-193r0,-393r123,0r0,385v0,208,-107,300,-269,300v-156,0,-257,-87,-257,-299r0,-386xm356,-830r136,0r-125,120r-99,0","w":666},"\u00db":{"d":"70,-674r123,0r0,393v0,132,55,193,138,193v89,0,142,-61,142,-193r0,-393r123,0r0,385v0,208,-107,300,-269,300v-156,0,-257,-87,-257,-299r0,-386xm294,-829r93,0r103,119r-92,0r-56,-65r-2,0r-56,65r-91,0","w":666},"\u00dc":{"d":"70,-674r123,0r0,393v0,132,55,193,138,193v89,0,142,-61,142,-193r0,-393r123,0r0,385v0,208,-107,300,-269,300v-156,0,-257,-87,-257,-299r0,-386xm238,-716v-34,0,-59,-28,-59,-60v0,-34,26,-61,60,-61v33,0,58,26,58,61v0,32,-24,60,-59,60xm435,-716v-34,0,-58,-28,-58,-60v0,-34,25,-61,60,-61v33,0,58,26,58,61v0,32,-24,60,-60,60","w":666},"\u00d9":{"d":"70,-674r123,0r0,393v0,132,55,193,138,193v89,0,142,-61,142,-193r0,-393r123,0r0,385v0,208,-107,300,-269,300v-156,0,-257,-87,-257,-299r0,-386xm178,-830r136,0r88,119r-99,0","w":666},"\u00dd":{"d":"347,0r-123,0r0,-281r-213,-393r141,0r80,173v23,50,40,88,59,134r2,0v16,-43,35,-85,58,-134r81,-173r139,0r-224,390r0,284xm319,-827r136,0r-125,120r-99,0","w":575},"\u0178":{"d":"347,0r-123,0r0,-281r-213,-393r141,0r80,173v23,50,40,88,59,134r2,0v16,-43,35,-85,58,-134r81,-173r139,0r-224,390r0,284xm197,-712v-34,0,-59,-28,-59,-60v0,-34,26,-61,60,-61v33,0,58,26,58,61v0,32,-24,60,-59,60xm394,-712v-34,0,-58,-28,-58,-60v0,-34,25,-61,60,-61v33,0,58,26,58,61v0,32,-24,60,-60,60","w":575},"\u017d":{"d":"26,0r0,-68r344,-501r0,-3r-314,0r0,-102r474,0r0,72r-340,497r0,3r345,0r0,102r-509,0xm337,-710r-92,0r-103,-119r92,0r57,66r2,0r55,-66r91,0","w":566},"\u00e1":{"d":"444,-292r0,175v0,44,2,87,8,117r-111,0r-9,-54r-3,0v-29,38,-80,65,-144,65v-98,0,-153,-71,-153,-145v0,-122,109,-185,289,-184r0,-8v0,-32,-13,-85,-99,-85v-48,0,-98,15,-131,36r-24,-80v36,-22,99,-43,176,-43v156,0,201,99,201,206xm324,-171r0,-67v-87,-1,-170,17,-170,91v0,48,31,70,70,70v50,0,85,-32,97,-67v3,-9,3,-18,3,-27xm279,-698r120,0r-122,148r-85,0","w":508},"\u00e2":{"d":"444,-292r0,175v0,44,2,87,8,117r-111,0r-9,-54r-3,0v-29,38,-80,65,-144,65v-98,0,-153,-71,-153,-145v0,-122,109,-185,289,-184r0,-8v0,-32,-13,-85,-99,-85v-48,0,-98,15,-131,36r-24,-80v36,-22,99,-43,176,-43v156,0,201,99,201,206xm324,-171r0,-67v-87,-1,-170,17,-170,91v0,48,31,70,70,70v50,0,85,-32,97,-67v3,-9,3,-18,3,-27xm208,-698r83,0r98,148r-85,0r-53,-90r-2,0r-54,90r-84,0","w":508},"\u00e4":{"d":"444,-292r0,175v0,44,2,87,8,117r-111,0r-9,-54r-3,0v-29,38,-80,65,-144,65v-98,0,-153,-71,-153,-145v0,-122,109,-185,289,-184r0,-8v0,-32,-13,-85,-99,-85v-48,0,-98,15,-131,36r-24,-80v36,-22,99,-43,176,-43v156,0,201,99,201,206xm324,-171r0,-67v-87,-1,-170,17,-170,91v0,48,31,70,70,70v50,0,85,-32,97,-67v3,-9,3,-18,3,-27xm154,-563v-35,0,-61,-28,-61,-61v0,-35,27,-62,63,-62v33,0,59,26,59,62v0,33,-25,61,-61,61xm354,-563r-2,0v-34,0,-60,-28,-60,-61v0,-35,27,-62,62,-62v34,0,60,26,60,62v0,33,-25,61,-60,61","w":508},"\u00e0":{"d":"444,-292r0,175v0,44,2,87,8,117r-111,0r-9,-54r-3,0v-29,38,-80,65,-144,65v-98,0,-153,-71,-153,-145v0,-122,109,-185,289,-184r0,-8v0,-32,-13,-85,-99,-85v-48,0,-98,15,-131,36r-24,-80v36,-22,99,-43,176,-43v156,0,201,99,201,206xm324,-171r0,-67v-87,-1,-170,17,-170,91v0,48,31,70,70,70v50,0,85,-32,97,-67v3,-9,3,-18,3,-27xm98,-698r120,0r87,148r-85,0","w":508},"\u00e5":{"d":"444,-292r0,175v0,44,2,87,8,117r-111,0r-9,-54r-3,0v-29,38,-80,65,-144,65v-98,0,-153,-71,-153,-145v0,-122,109,-185,289,-184r0,-8v0,-32,-13,-85,-99,-85v-48,0,-98,15,-131,36r-24,-80v36,-22,99,-43,176,-43v156,0,201,99,201,206xm324,-171r0,-67v-87,-1,-170,17,-170,91v0,48,31,70,70,70v49,0,85,-32,97,-67v3,-9,3,-18,3,-27xm254,-538v-66,0,-109,-41,-109,-94v0,-55,40,-98,110,-98v67,0,107,41,107,97v0,55,-44,95,-108,95xm253,-582v31,0,49,-24,49,-52v0,-28,-18,-52,-49,-52v-30,0,-47,26,-47,53v0,25,18,51,47,51","w":508},"\u00e3":{"d":"444,-292r0,175v0,44,2,87,8,117r-111,0r-9,-54r-3,0v-29,38,-80,65,-144,65v-98,0,-153,-71,-153,-145v0,-122,109,-185,289,-184r0,-8v0,-32,-13,-85,-99,-85v-48,0,-98,15,-131,36r-24,-80v36,-22,99,-43,176,-43v156,0,201,99,201,206xm324,-171r0,-67v-87,-1,-170,17,-170,91v0,48,31,70,70,70v50,0,85,-32,97,-67v3,-9,3,-18,3,-27xm175,-562r-61,0v-3,-76,28,-119,76,-119v23,0,42,10,63,21v16,9,30,18,43,18v15,0,24,-9,26,-43r60,0v2,80,-26,116,-76,116v-25,0,-45,-10,-65,-21v-19,-11,-28,-17,-41,-17v-15,0,-23,16,-25,45","w":508},"\u00e7":{"d":"407,-106r17,91v-22,11,-65,24,-120,25r-21,37v37,8,72,33,72,77v0,66,-57,89,-113,89v-26,0,-57,-6,-77,-18r17,-55v15,9,36,14,55,14v21,0,39,-7,39,-28v0,-23,-26,-34,-78,-39r40,-81v-124,-17,-203,-110,-203,-245v0,-146,100,-259,271,-259v45,0,90,10,119,22r-22,93v-20,-10,-50,-19,-94,-19v-93,0,-149,69,-148,158v0,100,65,157,149,157v42,0,73,-9,97,-19","w":449},"\u00e9":{"d":"479,-209r-326,0v3,88,71,126,150,126v57,0,97,-9,135,-22r18,84v-42,18,-100,31,-170,31v-158,0,-251,-97,-251,-246v0,-135,82,-262,238,-262v158,0,210,130,210,237v0,23,-2,41,-4,52xm153,-295r214,0v1,-45,-19,-119,-101,-119v-76,0,-108,69,-113,119xm302,-698r120,0r-122,148r-85,0","w":516},"\u00ea":{"d":"479,-209r-326,0v3,88,71,126,150,126v57,0,97,-9,135,-22r18,84v-42,18,-100,31,-170,31v-158,0,-251,-97,-251,-246v0,-135,82,-262,238,-262v158,0,210,130,210,237v0,23,-2,41,-4,52xm153,-295r214,0v1,-45,-19,-119,-101,-119v-76,0,-108,69,-113,119xm227,-698r83,0r98,148r-85,0r-53,-90r-2,0r-54,90r-84,0","w":516},"\u00eb":{"d":"479,-209r-326,0v3,88,71,126,150,126v57,0,97,-9,135,-22r18,84v-42,18,-100,31,-170,31v-158,0,-251,-97,-251,-246v0,-135,82,-262,238,-262v158,0,210,130,210,237v0,23,-2,41,-4,52xm153,-295r214,0v1,-45,-19,-119,-101,-119v-76,0,-108,69,-113,119xm175,-563v-35,0,-61,-28,-61,-61v0,-35,27,-62,63,-62v33,0,59,26,59,62v0,33,-25,61,-61,61xm375,-563r-2,0v-34,0,-60,-28,-60,-61v0,-35,27,-62,62,-62v34,0,60,26,60,62v0,33,-25,61,-60,61","w":516},"\u00e8":{"d":"479,-209r-326,0v3,88,71,126,150,126v57,0,97,-9,135,-22r18,84v-42,18,-100,31,-170,31v-158,0,-251,-97,-251,-246v0,-135,82,-262,238,-262v158,0,210,130,210,237v0,23,-2,41,-4,52xm153,-295r214,0v1,-45,-19,-119,-101,-119v-76,0,-108,69,-113,119xm127,-698r120,0r87,148r-85,0","w":516},"\u00ed":{"d":"189,0r-123,0r0,-487r123,0r0,487xm157,-698r121,0r-122,148r-85,0","w":256},"\u00ee":{"d":"189,0r-123,0r0,-487r123,0r0,487xm86,-698r83,0r98,148r-85,0r-54,-90r-2,0r-53,90r-84,0","w":256},"\u00ef":{"d":"189,0r-123,0r0,-487r123,0r0,487xm28,-563v-35,0,-61,-28,-61,-61v0,-35,27,-62,63,-62v33,0,59,26,59,62v0,33,-25,61,-61,61xm229,-563r-2,0v-34,0,-60,-28,-60,-61v0,-35,27,-62,62,-62v34,0,60,26,60,62v0,33,-25,61,-60,61","w":256},"\u00ec":{"d":"189,0r-123,0r0,-487r123,0r0,487xm-29,-698r120,0r87,148r-85,0","w":256},"\u00f1":{"d":"66,0r0,-342v0,-56,-2,-103,-4,-145r107,0r6,73r3,0v22,-38,75,-84,156,-84v85,0,173,55,173,209r0,289r-123,0r0,-275v0,-70,-26,-123,-93,-123v-49,0,-83,35,-96,72v-4,10,-6,25,-6,39r0,287r-123,0xm214,-562r-61,0v-3,-76,28,-119,76,-119v23,0,42,10,63,21v16,9,30,18,42,18v16,0,25,-9,27,-43r60,0v2,80,-26,116,-76,116v-25,0,-45,-10,-65,-21v-19,-11,-28,-17,-41,-17v-15,0,-23,16,-25,45","w":572},"\u00f3":{"d":"287,-498v145,0,242,102,242,250v0,179,-126,259,-250,259v-137,0,-244,-94,-244,-251v0,-160,105,-258,252,-258xm284,-409v-87,0,-122,85,-122,166v0,94,47,165,121,165v70,0,119,-68,119,-167v0,-76,-34,-164,-118,-164xm308,-698r120,0r-122,148r-85,0","w":564},"\u00f4":{"d":"287,-498v145,0,242,102,242,250v0,179,-126,259,-250,259v-137,0,-244,-94,-244,-251v0,-160,105,-258,252,-258xm284,-409v-87,0,-122,85,-122,166v0,94,47,165,121,165v70,0,119,-68,119,-167v0,-76,-34,-164,-118,-164xm240,-698r83,0r98,148r-85,0r-53,-90r-2,0r-54,90r-84,0","w":564},"\u00f6":{"d":"287,-498v145,0,242,102,242,250v0,179,-126,259,-250,259v-137,0,-244,-94,-244,-251v0,-160,105,-258,252,-258xm284,-409v-87,0,-122,85,-122,166v0,94,47,165,121,165v70,0,119,-68,119,-167v0,-76,-34,-164,-118,-164xm182,-563v-35,0,-61,-28,-61,-61v0,-35,27,-62,63,-62v33,0,59,26,59,62v0,33,-25,61,-61,61xm382,-563r-2,0v-34,0,-60,-28,-60,-61v0,-35,27,-62,62,-62v34,0,60,26,60,62v0,33,-25,61,-60,61","w":564},"\u00f2":{"d":"287,-498v145,0,242,102,242,250v0,179,-126,259,-250,259v-137,0,-244,-94,-244,-251v0,-160,105,-258,252,-258xm284,-409v-87,0,-122,85,-122,166v0,94,47,165,121,165v70,0,119,-68,119,-167v0,-76,-34,-164,-118,-164xm138,-698r120,0r87,148r-85,0","w":564},"\u00f5":{"d":"287,-498v145,0,242,102,242,250v0,179,-126,259,-250,259v-137,0,-244,-94,-244,-251v0,-160,105,-258,252,-258xm284,-409v-87,0,-122,85,-122,166v0,94,47,165,121,165v70,0,119,-68,119,-167v0,-76,-34,-164,-118,-164xm209,-562r-61,0v-3,-76,28,-119,76,-119v23,0,42,10,63,21v17,9,30,18,43,18v16,0,24,-9,26,-43r60,0v2,80,-26,116,-76,116v-25,0,-45,-10,-65,-21v-19,-11,-28,-17,-41,-17v-15,0,-23,16,-25,45","w":564},"\u0161":{"d":"36,-24r25,-90v27,17,80,36,124,36v54,0,78,-23,78,-55v0,-33,-20,-49,-80,-71v-95,-32,-134,-84,-134,-142v0,-86,71,-152,184,-152v54,0,101,13,130,29r-25,86v-20,-12,-60,-28,-103,-28v-44,0,-68,22,-68,52v0,31,23,45,85,68v89,31,129,76,130,148v0,89,-69,153,-198,153v-59,0,-112,-14,-148,-34xm255,-550r-85,0r-98,-148r85,0r55,91r2,0r54,-91r84,0","w":417},"\u00fa":{"d":"502,-487r0,341v0,58,2,106,4,146r-107,0r-6,-73r-3,0v-21,34,-69,84,-157,84v-88,0,-169,-53,-169,-212r0,-286r123,0r0,265v0,81,26,133,91,133v50,0,82,-34,94,-66v5,-10,7,-24,7,-38r0,-294r123,0xm318,-698r120,0r-122,148r-85,0","w":569},"\u00fb":{"d":"502,-487r0,341v0,58,2,106,4,146r-107,0r-6,-73r-3,0v-21,34,-69,84,-157,84v-88,0,-169,-53,-169,-212r0,-286r123,0r0,265v0,81,26,133,91,133v50,0,82,-34,94,-66v5,-10,7,-24,7,-38r0,-294r123,0xm242,-698r84,0r98,148r-85,0r-54,-90r-2,0r-53,90r-84,0","w":569},"\u00fc":{"d":"502,-487r0,341v0,58,2,106,4,146r-107,0r-6,-73r-3,0v-21,34,-69,84,-157,84v-88,0,-169,-53,-169,-212r0,-286r123,0r0,265v0,81,26,133,91,133v50,0,82,-34,94,-66v5,-10,7,-24,7,-38r0,-294r123,0xm187,-563v-35,0,-61,-28,-61,-61v0,-35,27,-62,63,-62v33,0,59,26,59,62v0,33,-25,61,-61,61xm388,-563r-2,0v-34,0,-60,-28,-60,-61v0,-35,27,-62,62,-62v34,0,60,26,60,62v0,33,-25,61,-60,61","w":569},"\u00f9":{"d":"502,-487r0,341v0,58,2,106,4,146r-107,0r-6,-73r-3,0v-21,34,-69,84,-157,84v-88,0,-169,-53,-169,-212r0,-286r123,0r0,265v0,81,26,133,91,133v50,0,82,-34,94,-66v5,-10,7,-24,7,-38r0,-294r123,0xm136,-698r120,0r87,148r-85,0","w":569},"\u00fd":{"d":"8,-487r136,0r87,261v10,30,21,67,28,94r3,0v7,-27,16,-64,26,-95r76,-260r131,0r-122,332v-67,182,-112,263,-169,313v-49,42,-99,58,-129,62r-28,-103v21,-5,46,-16,71,-34v24,-15,51,-44,68,-77v5,-9,7,-16,7,-22v0,-5,-1,-12,-6,-24xm292,-698r120,0r-122,148r-85,0","w":500},"\u00ff":{"d":"8,-487r136,0r87,261v10,30,21,67,28,94r3,0v7,-27,16,-64,26,-95r76,-260r131,0r-122,332v-67,182,-112,263,-169,313v-49,42,-99,58,-129,62r-28,-103v21,-5,46,-16,71,-34v24,-15,51,-44,68,-77v5,-9,7,-16,7,-22v0,-5,-1,-12,-6,-24xm161,-563v-35,0,-61,-28,-61,-61v0,-35,27,-62,63,-62v33,0,59,26,59,62v0,33,-25,61,-61,61xm362,-563r-2,0v-34,0,-60,-28,-60,-61v0,-35,27,-62,62,-62v34,0,60,26,60,62v0,33,-25,61,-60,61","w":500},"\u017e":{"d":"20,0r0,-71r183,-234r71,-82r0,-2r-236,0r0,-98r386,0r0,75r-178,229v-24,29,-47,57,-72,83r0,2r256,0r0,98r-410,0xm276,-550r-84,0r-98,-148r85,0r54,91r2,0r55,-91r84,0","w":450},"\u0110":{"d":"1,-294r0,-97r76,0r0,-277v55,-8,123,-14,196,-14v127,0,213,25,275,77v66,53,106,136,106,252v0,122,-41,211,-105,270v-68,61,-174,92,-306,92v-71,0,-125,-4,-166,-9r0,-294r-76,0xm355,-391r0,97r-155,0r0,203v17,3,43,3,69,3v161,0,255,-88,255,-262v1,-154,-85,-236,-240,-236v-39,0,-66,3,-84,7r0,188r155,0","w":689},"\u014a":{"d":"184,0r-114,0r0,-674r141,0r174,289v44,75,84,153,115,226r2,-1v-9,-89,-11,-176,-11,-279r0,-235r114,0r0,630v0,159,-80,235,-212,252r-27,-94v72,-16,110,-47,119,-103r-184,-308v-43,-74,-87,-156,-120,-232r-4,1v5,87,7,176,7,287r0,241","w":676},"\u0126":{"d":"667,-475r-61,0r0,475r-123,0r0,-276r-285,0r0,276r-123,0r0,-475r-61,0r0,-75r61,0r0,-124r123,0r0,124r285,0r0,-124r123,0r0,124r61,0r0,75xm483,-383r0,-92r-285,0r0,92r285,0","w":681},"\u0166":{"d":"517,-571r-194,0r0,192r119,0r0,76r-119,0r0,303r-123,0r0,-303r-120,0r0,-76r120,0r0,-192r-192,0r0,-103r509,0r0,103","w":525},"\u021c":{"d":"70,121r-15,-95v127,-16,288,-92,287,-205v0,-59,-43,-112,-130,-112v-21,0,-65,6,-98,17r-15,-84v102,-21,195,-77,194,-152v0,-47,-41,-79,-99,-80v-51,0,-107,21,-135,36r-25,-82v40,-24,113,-50,186,-50v115,0,196,60,196,153v0,73,-52,131,-121,163r0,2v98,12,178,75,177,182v0,164,-172,290,-402,307","w":512},"\u0111":{"d":"594,-545r-79,0r0,408v0,50,2,104,4,137r-109,0r-6,-77r-2,0v-29,54,-88,88,-158,88v-117,0,-209,-99,-209,-249v-1,-163,101,-260,218,-260v67,0,115,27,137,63r2,0r0,-110r-189,0r0,-71r189,0r0,-94r123,0r0,94r79,0r0,71xm392,-211r0,-73v0,-10,-1,-23,-3,-33v-11,-47,-50,-86,-106,-86v-79,0,-123,70,-123,160v0,90,44,155,122,155v50,0,94,-34,106,-87v3,-11,4,-23,4,-36","w":581},"\u014b":{"d":"66,0r0,-342v0,-56,-2,-103,-4,-145r107,0r6,73r3,0v22,-38,75,-84,156,-84v85,0,173,55,173,209r0,230v0,167,-88,232,-199,247r-24,-97v68,-13,100,-52,100,-133r0,-233v0,-70,-26,-123,-93,-123v-49,0,-83,35,-96,72v-4,10,-6,25,-6,39r0,287r-123,0","w":572},"\u0127":{"d":"507,0r-123,0r0,-274v0,-70,-26,-124,-94,-124v-48,0,-82,32,-96,69v-4,11,-5,24,-5,37r0,292r-123,0r0,-545r-78,0r0,-71r78,0r0,-94r123,0r0,94r188,0r0,71r-188,0r0,124r2,0v15,-23,36,-42,61,-55v25,-13,54,-22,85,-22v83,0,170,55,170,211r0,287","w":572},"\u0138":{"d":"189,-487r0,214r2,0v12,-19,26,-40,38,-57r119,-157r148,0r-181,199r206,288r-151,0r-140,-215r-41,49r0,166r-123,0r0,-487r123,0","w":509},"\u0149":{"d":"66,0r0,-342v0,-56,-2,-103,-4,-145r107,0r6,73r3,0v22,-38,75,-84,156,-84v85,0,173,55,173,209r0,289r-123,0r0,-275v0,-70,-26,-123,-93,-123v-49,0,-83,35,-96,72v-4,10,-6,25,-6,39r0,287r-123,0xm66,-530r-53,-35v17,-24,33,-51,33,-85v0,-22,-11,-44,-25,-57r83,-21v15,10,33,37,33,74v0,69,-52,110,-71,124","w":572},"\u0167":{"d":"324,-395r-117,0r0,90r90,0r0,68r-90,0r0,65v0,55,19,82,63,82v22,0,34,-1,48,-5r2,93v-18,7,-51,13,-89,13v-46,0,-83,-15,-106,-40v-27,-28,-39,-73,-39,-137r0,-71r-64,0r0,-68r64,0r0,-90r-69,0r0,-92r69,0r0,-91r121,-34r0,125r117,0r0,92","w":351},"\u021d":{"d":"48,209r-13,-94v48,-2,263,-28,263,-164v0,-46,-29,-93,-114,-93v-25,0,-60,8,-87,16r-16,-85v98,-22,176,-58,176,-122v0,-44,-35,-70,-93,-70v-48,0,-94,22,-121,36r-24,-80v41,-27,108,-51,177,-51v110,0,181,54,181,141v0,62,-38,108,-104,136r0,2v92,12,152,71,152,157v0,150,-159,260,-377,271","w":453},"\u0132":{"d":"71,-674r123,0r0,674r-123,0r0,-674xm469,-241r0,-433r123,0r0,437v0,186,-90,248,-223,248v-34,0,-77,-6,-103,-16r15,-99v19,7,46,12,76,12v70,0,112,-32,112,-149","w":657},"\u0133":{"d":"189,0r-123,0r0,-487r123,0r0,487xm128,-690v42,0,68,29,69,67v0,36,-27,66,-70,66v-41,0,-68,-30,-68,-66v0,-38,28,-67,69,-67xm226,213r-12,-96v40,-3,72,-13,92,-35v23,-25,32,-63,32,-169r0,-400r123,0r0,435v0,101,-20,164,-64,208v-42,40,-110,57,-171,57xm400,-690v41,0,67,29,68,67v0,36,-26,66,-70,66v-42,0,-68,-30,-68,-66v0,-38,28,-67,70,-67","w":526},"\uf638":{"d":"168,-208r177,-313v-16,-29,-41,-46,-77,-46v-71,0,-115,90,-116,240v0,44,5,84,16,119xm371,-445r-179,318v19,29,42,44,75,44v75,0,117,-88,117,-244v0,-42,-4,-80,-13,-118xm499,-644r-52,79v38,59,55,142,55,235v0,210,-82,341,-237,341v-52,0,-98,-17,-134,-49r-38,61r-52,-37r49,-74v-37,-57,-56,-140,-56,-235v-1,-205,86,-338,238,-338v54,0,99,16,133,47r41,-66","w":536},"\u20ac":{"d":"492,-118r21,89v-33,20,-89,40,-153,40v-91,0,-173,-36,-226,-103v-32,-37,-54,-87,-63,-148r-64,0r0,-62r56,0r0,-15v0,-13,1,-26,2,-37r-58,0r0,-62r67,0v12,-62,39,-113,75,-152v54,-59,127,-93,216,-93v60,0,110,15,143,31r-25,92v-26,-13,-67,-26,-112,-26v-50,0,-94,18,-127,55v-21,22,-36,55,-44,93r262,0r0,62r-274,0v-2,11,-2,23,-2,36r0,16r276,0r0,62r-265,0v7,42,22,75,43,97v34,37,82,54,134,54v49,0,95,-17,118,-29","w":536},"\u01fa":{"d":"321,-692v-62,0,-100,-37,-100,-84v0,-46,36,-85,101,-85v65,0,99,38,99,85v0,48,-38,84,-100,84xm320,-737v28,0,45,-15,45,-39v0,-23,-17,-42,-46,-42v-27,0,-42,20,-42,42v0,21,17,39,43,39xm365,-969r143,0r-146,90r-105,0xm420,-191r-214,0r-58,191r-127,0r216,-674r157,0r219,674r-132,0xm226,-284r174,0r-54,-166v-13,-41,-24,-87,-34,-126r-2,0v-10,39,-21,86,-32,126","w":636},"\u212e":{"d":"782,-316r-605,0v-3,0,-5,1,-5,4r0,183v0,8,4,15,9,21v57,61,139,99,229,99v96,0,182,-43,240,-111r55,0v-68,79,-176,131,-296,131v-206,0,-374,-150,-374,-336v0,-186,168,-336,374,-336v206,0,373,150,373,336r0,9xm646,-340r0,-184v0,-9,-4,-16,-10,-22v-58,-58,-138,-95,-226,-95v-90,0,-170,38,-228,98v-6,6,-10,14,-10,23r0,180v0,3,2,5,5,5r464,0v3,0,5,-2,5,-5","w":817},"\uf730":{"d":"272,11v-143,0,-237,-105,-237,-255v0,-147,94,-255,238,-255v145,0,239,106,239,255v0,148,-94,255,-240,255xm273,-80r2,0v74,0,119,-66,119,-164v0,-98,-45,-164,-121,-164v-75,0,-120,66,-120,164v0,98,45,164,120,164","w":547},"\uf731":{"d":"298,0r-119,0r0,-380r-2,0r-130,60r-22,-92r173,-76r100,0r0,488","w":390},"\uf732":{"d":"437,0r-414,0r0,-67r55,-37v137,-87,201,-146,201,-214v0,-57,-39,-85,-97,-85v-46,0,-93,20,-126,41r-29,-78v34,-25,103,-60,190,-60v112,0,186,61,186,161v0,89,-70,156,-157,215r-46,32r0,2v30,-4,70,-6,95,-6r142,0r0,96","w":463},"\uf733":{"d":"18,100r14,-91v26,10,68,17,113,17v87,0,148,-38,148,-101v0,-53,-53,-87,-137,-87v-21,0,-41,1,-55,2r-1,-87r24,-2v83,-6,147,-35,147,-87v0,-45,-35,-68,-94,-68v-48,0,-97,20,-125,34r-22,-81v37,-26,106,-48,176,-48v110,0,188,54,188,141v0,68,-52,121,-119,139r0,2v79,11,145,60,145,143v0,120,-123,195,-262,195v-60,0,-114,-11,-140,-21","w":454},"\uf734":{"d":"507,-40r-84,0r0,161r-115,0r0,-161r-287,0r0,-79r257,-373r145,0r0,361r84,0r0,91xm308,-131r0,-161v0,-35,1,-70,3,-105r-4,0v-17,35,-37,73,-58,106r-113,156r2,4r170,0","w":526},"\uf735":{"d":"29,102r14,-87v22,7,65,13,104,13v78,0,146,-38,146,-108v0,-24,-9,-45,-25,-61v-34,-32,-100,-45,-220,-40r53,-307r309,0r-15,100r-214,0r-23,121v85,0,165,15,214,62v30,30,47,70,47,116v0,122,-99,210,-263,210v-51,0,-101,-9,-127,-19","w":455},"\uf736":{"d":"449,-612r8,89v-178,8,-264,89,-284,180r2,0v24,-29,71,-59,134,-59v104,0,190,72,190,193v0,133,-107,220,-225,220v-143,0,-234,-102,-234,-253v0,-210,152,-363,409,-370xm276,-81v49,0,101,-40,101,-121v0,-71,-42,-117,-103,-117v-40,0,-71,19,-89,39v-17,19,-23,40,-23,66v0,75,43,133,114,133","w":537},"\uf737":{"d":"430,-488r0,76v-60,155,-175,376,-276,532r-117,-17v84,-123,213,-350,267,-488r0,-2r-286,0r0,-101r412,0","w":454},"\uf738":{"d":"376,-326r0,4v68,27,122,76,122,149v0,111,-101,184,-235,184v-136,0,-227,-71,-227,-171v0,-70,47,-122,118,-153r0,-4v-55,-26,-95,-68,-95,-128v0,-98,88,-168,214,-168v129,0,201,73,201,154v0,62,-38,105,-98,133xm271,-534v-54,0,-92,34,-92,82v0,44,39,77,105,95v42,-14,78,-46,78,-93v0,-55,-43,-84,-91,-84xm266,-74v60,0,105,-37,105,-90v0,-54,-46,-93,-121,-113v-56,18,-91,58,-91,106v0,56,42,97,107,97","w":535},"\uf739":{"d":"82,118r-8,-89v170,-6,260,-75,288,-176r-2,0v-21,28,-71,56,-133,56v-106,0,-189,-76,-189,-192v0,-126,101,-219,231,-219v134,0,227,99,227,249v0,242,-182,368,-414,371xm265,-174v39,0,79,-24,96,-53v8,-12,13,-32,13,-54v0,-76,-47,-128,-109,-128v-52,0,-105,40,-105,119v0,77,47,116,105,116","w":537},"\uf642":{"d":"195,-610v101,0,163,76,163,193v0,136,-80,206,-169,206v-91,0,-166,-70,-166,-196v0,-122,71,-203,172,-203xm190,-541v-49,0,-73,58,-73,131v-1,75,26,130,74,130v50,0,73,-52,73,-131v0,-72,-20,-130,-74,-130xm288,11r-70,0r352,-624r69,0xm672,-391v101,0,163,76,163,193v0,136,-80,206,-169,206v-91,0,-166,-70,-166,-196v0,-122,71,-203,172,-203xm667,-322v-49,0,-73,58,-73,131v-1,74,26,130,74,130v50,0,73,-52,73,-131v0,-72,-20,-130,-74,-130","w":858},"\uf639":{"d":"272,-661v157,0,230,140,230,331v0,210,-82,341,-238,341v-149,0,-229,-136,-230,-334v0,-203,86,-338,238,-338xm269,-567v-65,0,-111,81,-111,243v0,159,43,241,110,241v73,0,110,-88,110,-244v0,-151,-35,-240,-109,-240","w":536},"\uf6dc":{"d":"154,0r0,-539r-2,0r-119,60r-21,-93r159,-78r102,0r0,650r-119,0","w":356},"\uf63a":{"d":"443,0r-440,0r0,-75r77,-71v153,-142,225,-220,226,-306v0,-58,-31,-109,-116,-109v-58,0,-106,29,-139,54r-36,-87v47,-38,118,-67,200,-67v144,0,214,91,214,197v0,114,-82,206,-196,311r-56,49r0,2r266,0r0,102","w":472},"\uf63b":{"d":"7,-34r28,-93v25,15,86,40,148,40v94,0,131,-53,131,-104v0,-77,-73,-110,-148,-110r-56,0r0,-90r56,0v56,0,128,-26,128,-90v0,-45,-32,-82,-104,-82v-53,0,-106,23,-133,41r-28,-89v37,-25,110,-50,187,-50v135,0,203,74,203,159v0,68,-40,124,-120,152r0,2v79,15,142,74,143,162v0,110,-92,197,-253,197v-79,0,-147,-22,-182,-45","w":476},"\uf63c":{"d":"425,0r-116,0r0,-165r-295,0r0,-80r266,-405r145,0r0,392r84,0r0,93r-84,0r0,165xm132,-258r177,0r0,-177v0,-37,2,-74,4,-113r-4,0v-20,41,-37,74,-57,110r-120,178r0,2","w":527},"\uf63d":{"d":"428,-650r0,102r-250,0r-19,130v14,-2,27,-3,46,-3v57,0,115,13,158,42v49,31,85,86,85,165v0,124,-103,225,-262,225v-76,0,-139,-19,-173,-38r25,-93v28,15,84,34,143,34v72,0,141,-41,141,-118v0,-75,-55,-124,-184,-124v-37,0,-64,3,-89,6r42,-328r337,0","w":485},"\uf63e":{"d":"440,-659r0,97v-18,-1,-38,0,-62,3v-137,16,-203,99,-219,189r3,0v32,-37,81,-63,147,-63v112,0,199,80,199,212v0,124,-91,232,-230,232v-158,0,-245,-120,-245,-281v0,-125,45,-226,113,-290v60,-57,139,-89,232,-96v27,-4,47,-4,62,-3xm279,-81v62,0,104,-55,104,-133v0,-76,-41,-129,-113,-129v-47,0,-88,28,-107,67v-5,10,-8,22,-8,39v2,86,43,156,124,156","w":537},"\uf63f":{"d":"3,-650r437,0r0,79r-275,571r-129,0r274,-546r0,-2r-307,0r0,-102","w":440},"\uf640":{"d":"156,-336r0,-3v-68,-33,-99,-87,-99,-144v0,-106,94,-178,217,-178v141,0,204,84,204,164v0,55,-29,112,-100,147r0,3v71,27,124,83,124,164v0,116,-98,194,-237,194v-152,0,-231,-88,-231,-179v0,-80,47,-135,122,-168xm269,-76v65,0,108,-41,108,-97v0,-66,-48,-102,-121,-122v-61,17,-96,60,-96,113v-2,56,40,106,109,106xm268,-576v-62,0,-94,41,-94,88v0,53,44,85,106,102v45,-13,81,-49,81,-98v0,-45,-27,-92,-93,-92","w":536},"\uf641":{"d":"92,10r0,-98v20,2,39,1,68,-2v49,-4,96,-21,132,-50v43,-34,72,-83,84,-145r-2,0v-33,36,-80,57,-142,57v-113,0,-197,-81,-197,-201v0,-125,96,-232,234,-232v152,0,232,118,232,277v0,139,-45,238,-113,303v-56,52,-134,83,-222,89v-28,3,-55,3,-74,2xm263,-570v-62,0,-106,55,-106,134v0,67,39,119,107,119v50,0,86,-24,105,-54v4,-9,7,-19,7,-36v0,-88,-33,-163,-113,-163","w":539},"\ue008":{"d":"168,-208r177,-313v-16,-29,-41,-46,-77,-46v-71,0,-115,90,-116,240v0,44,5,84,16,119xm371,-445r-179,318v19,29,42,44,75,44v75,0,117,-88,117,-244v0,-42,-4,-80,-13,-118xm499,-644r-52,79v38,59,55,142,55,235v0,210,-82,341,-237,341v-52,0,-98,-17,-134,-49r-38,61r-52,-37r49,-74v-37,-57,-56,-140,-56,-235v-1,-205,86,-338,238,-338v54,0,99,16,133,47r41,-66","w":536},"\uf643":{"d":"272,11v-143,0,-237,-105,-237,-255v0,-147,94,-255,238,-255v145,0,239,106,239,255v0,148,-94,255,-240,255xm273,-80r2,0v74,0,119,-66,119,-164v0,-98,-45,-164,-121,-164v-75,0,-120,66,-120,164v0,98,45,164,120,164","w":547},"\uf644":{"d":"392,0r-119,0r0,-384r-2,0r-178,75r-19,-91r218,-88r100,0r0,488","w":547},"\uf645":{"d":"477,0r-414,0r0,-67r55,-37v137,-87,201,-146,201,-214v0,-57,-39,-85,-97,-85v-46,0,-93,20,-126,41r-29,-78v34,-25,103,-60,190,-60v112,0,186,61,186,161v0,89,-70,156,-157,215r-46,32r0,2v30,-4,70,-6,95,-6r142,0r0,96","w":547},"\uf646":{"d":"60,100r14,-91v26,10,68,17,113,17v87,0,148,-38,148,-101v0,-53,-53,-87,-137,-87v-21,0,-41,1,-55,2r-1,-87r24,-2v83,-6,147,-35,147,-87v0,-45,-35,-68,-94,-68v-48,0,-97,20,-125,34r-22,-81v37,-26,106,-48,176,-48v110,0,188,54,188,141v0,68,-52,121,-119,139r0,2v79,11,145,60,145,143v0,120,-123,195,-262,195v-60,0,-114,-11,-140,-21","w":547},"\uf647":{"d":"516,-40r-84,0r0,161r-115,0r0,-161r-287,0r0,-79r257,-373r145,0r0,361r84,0r0,91xm317,-131r0,-161v0,-35,1,-70,3,-105r-4,0v-17,35,-37,73,-58,106r-113,156r2,4r170,0","w":547},"\uf648":{"d":"74,102r14,-87v22,7,65,13,104,13v78,0,146,-38,146,-108v0,-24,-9,-45,-25,-61v-34,-32,-100,-45,-220,-40r53,-307r309,0r-15,100r-214,0r-23,121v85,0,165,15,214,62v30,30,47,70,47,116v0,122,-99,210,-263,210v-51,0,-101,-9,-127,-19","w":547},"\uf649":{"d":"457,-612r8,89v-178,8,-264,89,-284,180r2,0v24,-29,71,-59,134,-59v104,0,190,72,190,193v0,133,-107,220,-225,220v-143,0,-234,-102,-234,-253v0,-210,152,-363,409,-370xm284,-81v49,0,101,-40,101,-121v0,-71,-42,-117,-103,-117v-40,0,-71,19,-89,39v-17,19,-23,40,-23,66v0,75,43,133,114,133","w":547},"\uf64a":{"d":"475,-488r0,76v-60,155,-175,376,-276,532r-117,-17v84,-123,213,-350,267,-488r0,-2r-286,0r0,-101r412,0","w":547},"\uf64b":{"d":"381,-326r0,4v68,27,122,76,122,149v0,111,-101,184,-235,184v-136,0,-227,-71,-227,-171v0,-70,47,-122,118,-153r0,-4v-55,-26,-95,-68,-95,-128v0,-98,88,-168,214,-168v129,0,201,73,201,154v0,62,-38,105,-98,133xm276,-534v-54,0,-92,34,-92,82v0,44,39,77,105,95v42,-14,78,-46,78,-93v0,-55,-43,-84,-91,-84xm271,-74v60,0,105,-37,105,-90v0,-54,-46,-93,-121,-113v-56,18,-91,58,-91,106v0,56,42,97,107,97","w":547},"\uf64c":{"d":"86,118r-8,-89v170,-6,261,-75,289,-176r-2,0v-21,28,-72,56,-134,56v-106,0,-189,-76,-189,-192v0,-126,101,-219,232,-219v134,0,227,99,227,249v0,242,-183,368,-415,371xm269,-174v40,0,80,-24,97,-53v8,-12,13,-32,13,-54v0,-76,-48,-128,-109,-128v-53,0,-106,40,-106,119v0,77,47,116,105,116","w":547},"\uf653":{"d":"311,84r-74,0r0,-82v-58,-2,-120,-19,-156,-42r28,-83v31,20,92,38,141,38v51,0,90,-19,90,-55v0,-29,-22,-46,-92,-69v-109,-36,-155,-74,-155,-144v0,-68,59,-118,149,-132r0,-90r75,0r0,86v55,3,103,17,130,32r-27,81v-25,-14,-72,-31,-120,-31v-48,0,-84,18,-84,48v0,28,18,42,99,69v110,34,153,78,153,145v0,66,-54,127,-157,143r0,86","w":547},"\uf654":{"d":"416,-142r16,79v-19,8,-57,20,-97,21r0,73r-72,0r0,-74v-109,-14,-183,-87,-183,-202v0,-105,70,-190,183,-209r0,-71r72,0r0,68v35,1,71,9,94,18r-19,80v-20,-9,-50,-16,-88,-16v-76,0,-127,49,-127,126v0,83,57,124,126,124v42,0,74,-8,95,-17","w":547},"\uf64e":{"d":"483,-105r14,83v-27,16,-81,33,-143,33v-71,0,-138,-24,-186,-72v-30,-30,-52,-71,-63,-117r-64,0r0,-59r55,0v0,-10,-1,-18,-1,-23v0,-7,0,-18,2,-29r-56,0r0,-59r65,0v12,-45,35,-84,64,-114v51,-51,123,-77,197,-77v60,0,103,15,128,27r-24,84v-21,-10,-53,-21,-98,-21v-42,0,-82,13,-112,43v-15,15,-28,35,-33,58r227,0r0,59r-240,0v-2,10,-2,19,-2,25v0,8,0,16,1,27r240,0r0,59r-226,0v6,21,16,40,30,54v32,30,70,43,116,43v45,0,86,-12,109,-24","w":547},"\uf64f":{"d":"124,-270r0,-76r94,0r5,-51v10,-81,50,-216,206,-215v32,0,60,7,76,16r-21,87v-13,-5,-29,-9,-49,-9v-58,0,-84,49,-92,112r-7,60r111,0r0,76r-120,0r-22,174v-15,126,-56,218,-187,218v-37,0,-69,-8,-85,-16r19,-87v16,7,33,10,51,10v55,-1,75,-41,88,-149r17,-150r-84,0","w":547},"\uf651":{"d":"498,0r-437,0r0,-66v63,-26,106,-71,106,-125v0,-12,-1,-23,-3,-35r-95,0r0,-71r80,0v-3,-17,-6,-35,-6,-53v0,-115,80,-202,211,-202v50,0,91,12,113,24r-22,90v-19,-10,-51,-19,-86,-19v-68,0,-101,44,-101,109v0,18,2,35,6,51r146,0r0,71r-133,0v1,8,1,16,1,23v-3,48,-29,84,-58,104r0,2r278,0r0,97","w":547},"\uf652":{"d":"329,0r-116,0r0,-109r-151,0r0,-61r151,0r0,-56r-151,0r0,-61r121,0r-147,-241r128,0r70,138v16,36,28,62,40,91r3,0v12,-29,26,-59,42,-92r73,-137r125,0r-156,241r121,0r0,61r-153,0r0,56r153,0r0,61r-153,0r0,109","w":547},"\uf650":{"d":"220,-235r96,0r17,-127r-96,0xm185,6r-77,0r23,-164r-82,0r0,-77r95,0r17,-127r-85,0r0,-77r97,0r22,-159r75,0r-22,159r97,0r22,-159r76,0r-22,159r81,0r0,77r-93,0r-17,127r84,0r0,77r-96,0r-22,164r-77,0r23,-164r-97,0","w":547},"\u2070":{"d":"177,-437v-102,0,-155,-83,-155,-200v0,-116,54,-201,158,-201v104,0,157,83,157,199v0,113,-49,202,-160,202xm180,-503v40,0,64,-46,64,-135v0,-88,-23,-134,-65,-134v-39,0,-64,46,-64,134v0,89,25,135,65,135","w":359},"\u2074":{"d":"299,-443r-90,0r0,-95r-191,0r0,-53r171,-243r110,0r0,233r53,0r0,63r-53,0r0,95xm209,-602r0,-92v0,-24,3,-47,4,-69r-3,0v-12,24,-23,44,-35,63r-68,97r2,1r100,0","w":372},"\u2075":{"d":"285,-831r0,71r-158,0r-10,65v8,-1,18,-1,29,-1v36,0,75,6,104,25v29,18,51,52,51,98v0,77,-66,136,-168,136v-45,0,-90,-12,-113,-23r17,-65v17,9,54,20,92,20v38,0,81,-20,81,-62v0,-40,-31,-67,-113,-67v-21,0,-41,2,-56,4r26,-201r218,0","w":330},"\u2076":{"d":"282,-836r1,67v-10,-1,-26,-1,-39,0v-76,7,-120,47,-132,98r2,1v19,-19,51,-34,89,-34v73,0,124,48,124,125v0,84,-67,142,-147,142v-105,0,-157,-78,-157,-170v0,-72,26,-132,68,-171v38,-35,87,-53,152,-57v15,-1,30,-2,39,-1xm180,-503v34,0,58,-30,58,-71v0,-39,-22,-70,-65,-70v-27,0,-50,17,-60,39v-2,6,-4,12,-4,21v0,42,24,81,71,81","w":349},"\u2077":{"d":"22,-831r280,0r0,54r-168,334r-94,0r168,-316r0,-1r-186,0r0,-71","w":316},"\u2078":{"d":"176,-837v89,0,131,50,131,99v0,34,-21,67,-61,85r0,2v40,15,77,46,77,96v0,69,-60,118,-152,118v-102,0,-147,-57,-147,-107v0,-48,30,-78,74,-97r0,-2v-40,-19,-61,-51,-61,-86v0,-65,60,-108,139,-108xm174,-498v35,0,59,-21,59,-51v0,-38,-30,-56,-67,-65v-35,10,-54,31,-54,60v0,29,24,56,62,56xm172,-778v-34,0,-53,21,-53,46v0,28,24,46,61,56v25,-8,45,-26,45,-53v0,-25,-17,-49,-53,-49","w":346},"\u2079":{"d":"58,-439r0,-67v11,1,26,1,40,0v30,-2,60,-11,83,-26v27,-18,45,-44,52,-76r-2,0v-18,18,-47,31,-84,31v-69,0,-125,-46,-125,-121v0,-78,63,-140,149,-140v102,0,151,77,151,168v0,79,-26,139,-68,177v-38,34,-92,51,-154,54v-15,1,-32,1,-42,0xm169,-773v-33,0,-59,29,-59,71v0,34,21,65,61,65v29,0,49,-14,59,-29v3,-5,4,-12,4,-22v0,-45,-18,-85,-65,-85","w":344},"\uf6e8":{"d":"76,-437v-32,0,-54,-24,-54,-55v0,-33,23,-56,55,-56v33,0,55,23,55,56v0,31,-22,55,-56,55","w":153},"\uf6e2":{"d":"59,-379r-63,5v19,-54,35,-115,44,-171r95,-6v-20,62,-47,125,-76,172","w":153},"\uf6e4":{"d":"195,-391r-56,0r0,-57v-41,-2,-82,-13,-106,-27r18,-65v27,15,62,27,102,27v40,0,63,-16,63,-41v0,-24,-18,-36,-68,-53v-69,-24,-111,-50,-111,-109v0,-54,38,-95,104,-106r0,-57r56,0r0,53v38,1,70,11,89,21r-18,64v-15,-8,-45,-22,-89,-22v-43,0,-55,19,-55,36v0,22,17,34,76,53v73,25,103,58,103,113v0,52,-38,97,-108,109r0,61","w":336},"\uf6e0":{"d":"218,-436r-57,0r0,-58v-40,-6,-69,-22,-91,-46v-22,-24,-34,-59,-34,-99v0,-73,44,-136,125,-151r0,-56r57,0r0,54v21,0,43,5,60,12r-14,65v-13,-6,-31,-12,-56,-12v-52,0,-83,34,-83,84v0,56,38,84,82,84v27,0,47,-5,63,-11r11,62v-14,7,-37,13,-63,15r0,57","w":323},"\uf6e6":{"d":"18,-658r163,0r0,61r-163,0r0,-61","w":199},"\u207d":{"d":"113,-868r64,0v-33,54,-64,135,-64,241v0,106,31,183,64,239r-64,0v-33,-46,-73,-125,-73,-239v0,-116,41,-195,73,-241","w":193},"\u207e":{"d":"81,-388r-64,0v33,-56,64,-135,64,-240v0,-105,-31,-185,-64,-240r64,0v32,46,72,124,72,240v0,114,-39,193,-72,240","w":193},"\u2080":{"d":"177,152v-102,0,-155,-83,-155,-200v0,-115,54,-200,158,-200v104,0,157,83,157,199v0,112,-49,201,-160,201xm180,86v40,0,64,-46,64,-135v0,-88,-23,-133,-65,-133v-39,0,-64,46,-64,133v0,89,25,135,65,135","w":359},"\u2081":{"d":"209,147r-96,0r0,-310r-1,0r-76,35r-14,-69r103,-46r84,0r0,390","w":275},"\u2082":{"d":"13,147r0,-48r62,-56v79,-72,121,-111,121,-158v0,-33,-22,-58,-66,-58v-34,0,-65,15,-85,29r-27,-62v30,-23,80,-42,136,-42v97,0,143,56,143,117v0,73,-56,123,-123,180r-27,24r0,2r157,0r0,72r-291,0","w":333},"\u2083":{"d":"46,-155r-20,-62v26,-16,75,-31,129,-31v91,0,134,45,134,96v0,42,-32,75,-79,90r0,2v55,7,95,43,95,94v0,67,-64,118,-170,118v-52,0,-100,-12,-126,-28r21,-65v18,11,59,26,95,26v51,0,79,-27,79,-55v0,-42,-47,-59,-95,-60r-29,0r0,-58r27,0v36,0,84,-13,84,-51v0,-22,-17,-42,-57,-42v-36,0,-71,15,-88,26","w":328},"\u2084":{"d":"299,147r-90,0r0,-96r-191,0r0,-53r171,-242r110,0r0,232r53,0r0,63r-53,0r0,96xm209,-12r0,-92v0,-24,3,-47,4,-69r-3,0v-12,24,-23,44,-35,63r-68,97r2,1r100,0","w":372},"\u2085":{"d":"285,-241r0,71r-158,0r-10,65v8,-1,18,-1,29,-1v36,0,75,6,104,25v29,19,51,52,51,98v0,77,-66,136,-168,136v-45,0,-90,-12,-113,-23r17,-65v17,9,54,20,92,20v38,0,81,-20,81,-62v0,-40,-31,-67,-113,-67v-21,0,-41,2,-56,4r26,-201r218,0","w":330},"\u2086":{"d":"282,-247r1,67v-10,-1,-26,-1,-39,0v-76,7,-120,48,-132,99r2,1v19,-19,51,-34,89,-34v73,0,124,48,124,125v0,83,-67,141,-147,141v-105,0,-157,-78,-157,-170v0,-71,26,-132,68,-171v38,-35,87,-53,152,-57v15,-1,30,-2,39,-1xm180,86v34,0,58,-30,58,-70v0,-39,-22,-70,-65,-70v-27,0,-50,17,-60,39v-2,5,-4,12,-4,20v0,43,24,81,71,81","w":349},"\u2087":{"d":"22,-242r280,0r0,54r-168,335r-94,0r168,-317r0,-1r-186,0r0,-71","w":316},"\u2088":{"d":"176,-248v89,0,131,50,131,99v0,35,-21,68,-61,86r0,2v40,14,77,46,77,96v0,68,-60,117,-152,117v-102,0,-147,-57,-147,-107v0,-47,30,-78,74,-96r0,-2v-40,-19,-61,-51,-61,-86v0,-66,60,-109,139,-109xm174,91v35,0,59,-21,59,-51v0,-38,-30,-55,-67,-65v-35,11,-54,32,-54,61v0,29,24,55,62,55xm172,-189v-34,0,-53,21,-53,47v0,28,24,46,61,56v25,-8,45,-27,45,-53v0,-25,-17,-50,-53,-50","w":346},"\u2089":{"d":"58,151r0,-67v11,1,26,1,40,0v30,-2,60,-11,83,-26v27,-18,45,-45,52,-77r-2,0v-18,18,-47,31,-84,31v-69,0,-125,-46,-125,-121v0,-77,63,-139,149,-139v102,0,151,77,151,167v0,79,-26,140,-68,178v-38,34,-92,51,-154,53v-15,2,-32,2,-42,1xm169,-183v-33,0,-59,29,-59,70v0,35,21,65,61,65v29,0,49,-14,59,-29v3,-5,4,-12,4,-21v0,-45,-18,-85,-65,-85","w":344},"\uf6e7":{"d":"76,153v-32,0,-54,-24,-54,-55v0,-33,23,-56,55,-56v33,0,55,23,55,56v0,31,-22,55,-56,55","w":153},"\uf6e1":{"d":"59,211r-63,5v19,-54,35,-115,44,-171r95,-6v-20,62,-47,125,-76,172","w":153},"\uf6e3":{"d":"195,198r-56,0r0,-57v-41,-2,-82,-13,-106,-27r18,-65v27,15,62,27,102,27v40,0,63,-16,63,-41v0,-24,-18,-36,-68,-53v-69,-24,-111,-50,-111,-109v0,-54,38,-95,104,-106r0,-56r56,0r0,52v38,1,70,11,89,21r-18,64v-15,-8,-45,-22,-89,-22v-43,0,-55,19,-55,36v0,22,17,34,76,53v73,25,103,58,103,113v0,52,-38,97,-108,109r0,61","w":336},"\uf6df":{"d":"218,153r-57,0r0,-58v-40,-6,-69,-22,-91,-46v-22,-24,-34,-59,-34,-99v0,-72,44,-135,125,-150r0,-56r57,0r0,54v21,0,43,5,60,12r-14,65v-13,-6,-31,-12,-56,-12v-52,0,-83,34,-83,83v0,56,38,84,82,84v27,0,47,-5,63,-11r11,62v-14,7,-37,13,-63,15r0,57","w":323},"\uf6e5":{"d":"18,-68r163,0r0,61r-163,0r0,-61","w":199},"\u208d":{"d":"113,-278r64,0v-33,54,-64,135,-64,241v0,106,31,183,64,239r-64,0v-33,-46,-73,-125,-73,-239v0,-116,41,-195,73,-241","w":193},"\u208e":{"d":"81,202r-64,0v33,-56,64,-135,64,-240v0,-105,-31,-185,-64,-240r64,0v32,46,72,124,72,240v0,114,-39,193,-72,240","w":193},"\uf661":{"d":"177,-261v-102,0,-155,-83,-155,-200v0,-115,54,-200,158,-200v104,0,157,83,157,199v0,112,-49,201,-160,201xm180,-327v40,0,64,-46,64,-135v0,-88,-23,-133,-65,-133v-39,0,-64,46,-64,133v0,89,25,135,65,135","w":359},"\uf662":{"d":"209,-266r-96,0r0,-310r-1,0r-76,35r-14,-69r103,-46r84,0r0,390","w":275},"\uf663":{"d":"13,-266r0,-47r62,-57v79,-72,121,-111,121,-158v0,-33,-22,-58,-66,-58v-34,0,-65,15,-85,29r-27,-62v30,-23,80,-42,136,-42v97,0,143,55,143,117v0,73,-56,123,-123,180r-27,24r0,2r157,0r0,72r-291,0","w":333},"\uf664":{"d":"46,-569r-20,-61v26,-16,75,-31,129,-31v91,0,134,45,134,96v0,42,-32,75,-79,90r0,2v55,7,95,43,95,94v0,67,-64,118,-170,118v-52,0,-100,-12,-126,-28r21,-65v18,11,59,26,95,26v51,0,79,-27,79,-55v0,-42,-47,-59,-95,-60r-29,0r0,-58r27,0v36,0,84,-13,84,-51v0,-22,-17,-42,-57,-42v-36,0,-71,15,-88,25","w":328},"\uf665":{"d":"299,-266r-90,0r0,-96r-191,0r0,-53r171,-242r110,0r0,232r53,0r0,63r-53,0r0,96xm209,-425r0,-92v0,-24,3,-47,4,-69r-3,0v-12,24,-23,44,-35,63r-68,97r2,1r100,0","w":372},"\uf666":{"d":"285,-655r0,71r-158,0r-10,66v8,-1,18,-1,29,-1v36,0,75,6,104,25v29,19,51,52,51,98v0,77,-66,136,-168,136v-45,0,-90,-12,-113,-23r17,-65v17,9,54,20,92,20v38,0,81,-20,81,-62v0,-40,-31,-67,-113,-67v-21,0,-41,2,-56,4r26,-202r218,0","w":330},"\uf667":{"d":"282,-660r1,67v-10,-1,-26,-1,-39,0v-76,7,-120,48,-132,99r2,1v19,-19,51,-34,89,-34v73,0,124,48,124,125v0,83,-67,141,-147,141v-105,0,-157,-78,-157,-170v0,-71,26,-132,68,-171v38,-35,87,-53,152,-57v15,-1,30,-2,39,-1xm180,-327v34,0,58,-30,58,-70v0,-39,-22,-70,-65,-70v-27,0,-50,17,-60,39v-2,5,-4,12,-4,20v0,43,24,81,71,81","w":349},"\uf668":{"d":"22,-655r280,0r0,55r-168,334r-94,0r168,-317r0,-1r-186,0r0,-71","w":316},"\uf669":{"d":"176,-661v89,0,131,50,131,99v0,35,-21,68,-61,86r0,2v40,14,77,46,77,96v0,68,-60,117,-152,117v-102,0,-147,-57,-147,-107v0,-47,30,-78,74,-96r0,-2v-40,-19,-61,-51,-61,-86v0,-66,60,-109,139,-109xm174,-322v35,0,59,-21,59,-51v0,-38,-30,-55,-67,-65v-35,11,-54,32,-54,61v0,29,24,55,62,55xm172,-602v-34,0,-53,21,-53,47v0,28,24,46,61,56v25,-8,45,-27,45,-53v0,-25,-17,-50,-53,-50","w":346},"\uf66a":{"d":"58,-263r0,-67v11,1,26,1,40,0v30,-2,60,-11,83,-26v27,-18,45,-44,52,-76r-2,0v-18,18,-47,31,-84,31v-69,0,-125,-46,-125,-121v0,-77,63,-139,149,-139v102,0,151,77,151,167v0,79,-26,139,-68,177v-38,34,-92,51,-154,53v-15,2,-32,2,-42,1xm169,-596v-33,0,-59,29,-59,70v0,35,21,65,61,65v29,0,49,-14,59,-29v3,-5,4,-12,4,-21v0,-45,-18,-85,-65,-85","w":344},"\uf66c":{"d":"76,-260v-32,0,-54,-24,-54,-55v0,-33,23,-56,55,-56v33,0,55,23,55,56v0,31,-22,55,-56,55","w":153},"\uf66b":{"d":"59,-202r-63,5v19,-54,35,-115,44,-171r95,-6v-20,62,-47,125,-76,172","w":153},"\uf62f":{"d":"195,-215r-56,0r0,-57v-41,-2,-82,-13,-106,-27r18,-66v27,16,62,28,102,28v40,0,63,-16,63,-41v0,-24,-18,-36,-68,-53v-69,-24,-111,-51,-111,-109v0,-54,38,-95,104,-107r0,-55r56,0r0,52v38,1,70,11,89,21r-18,64v-15,-8,-45,-22,-89,-22v-43,0,-55,19,-55,36v0,22,17,33,76,53v73,25,103,57,103,113v0,52,-38,97,-108,109r0,61","w":336},"\uf62e":{"d":"218,-260r-57,0r0,-58v-40,-6,-69,-22,-91,-46v-22,-24,-34,-59,-34,-98v0,-73,44,-136,125,-151r0,-56r57,0r0,54v21,0,43,5,60,12r-14,65v-13,-6,-31,-12,-56,-12v-52,0,-83,34,-83,83v0,57,38,84,82,84v27,0,47,-5,63,-11r11,62v-14,7,-37,13,-63,15r0,57","w":323},"\uf630":{"d":"18,-481r163,0r0,61r-163,0r0,-61","w":199},"\uf631":{"d":"113,-691r64,0v-33,54,-64,135,-64,241v0,106,31,183,64,239r-64,0v-33,-46,-73,-125,-73,-239v0,-116,41,-195,73,-241","w":193},"\uf632":{"d":"81,-211r-64,0v33,-56,64,-135,64,-240v0,-105,-31,-185,-64,-240r64,0v32,46,72,124,72,240v0,114,-39,193,-72,240","w":193},"\uf655":{"d":"177,5v-102,0,-155,-83,-155,-200v0,-115,54,-200,158,-200v104,0,157,83,157,199v0,112,-49,201,-160,201xm180,-61v40,0,64,-46,64,-135v0,-88,-23,-133,-65,-133v-39,0,-64,46,-64,133v0,89,25,135,65,135","w":359},"\uf656":{"d":"209,0r-96,0r0,-310r-1,0r-76,35r-14,-69r103,-46r84,0r0,390","w":275},"\uf657":{"d":"13,0r0,-48r62,-56v79,-72,121,-111,121,-158v0,-33,-22,-58,-66,-58v-34,0,-65,15,-85,29r-27,-62v30,-23,80,-42,136,-42v97,0,143,55,143,117v0,73,-56,123,-123,180r-27,24r0,2r157,0r0,72r-291,0","w":333},"\uf658":{"d":"46,-303r-20,-61v26,-16,75,-31,129,-31v91,0,134,45,134,96v0,42,-32,75,-79,90r0,2v55,7,95,43,95,94v0,67,-64,118,-170,118v-52,0,-100,-12,-126,-28r21,-65v18,11,59,26,95,26v51,0,79,-27,79,-55v0,-42,-47,-59,-95,-60r-29,0r0,-58r27,0v36,0,84,-13,84,-51v0,-22,-17,-42,-57,-42v-36,0,-71,15,-88,25","w":328},"\uf659":{"d":"299,0r-90,0r0,-96r-191,0r0,-53r171,-242r110,0r0,232r53,0r0,63r-53,0r0,96xm209,-159r0,-92v0,-24,3,-47,4,-69r-3,0v-12,24,-23,44,-35,63r-68,97r2,1r100,0","w":372},"\uf65a":{"d":"285,-388r0,71r-158,0r-10,65v8,-1,18,-1,29,-1v36,0,75,6,104,25v29,19,51,52,51,98v0,77,-66,136,-168,136v-45,0,-90,-12,-113,-23r17,-65v17,9,54,20,92,20v38,0,81,-20,81,-62v0,-40,-31,-67,-113,-67v-21,0,-41,2,-56,4r26,-201r218,0","w":330},"\uf65b":{"d":"282,-394r1,67v-10,-1,-26,-1,-39,0v-76,7,-120,48,-132,99r2,1v19,-19,51,-34,89,-34v73,0,124,48,124,125v0,83,-67,141,-147,141v-105,0,-157,-78,-157,-170v0,-71,26,-132,68,-171v38,-35,87,-53,152,-57v15,-1,30,-2,39,-1xm180,-61v34,0,58,-30,58,-70v0,-39,-22,-70,-65,-70v-27,0,-50,17,-60,39v-2,5,-4,12,-4,20v0,43,24,81,71,81","w":349},"\uf65c":{"d":"22,-389r280,0r0,54r-168,335r-94,0r168,-317r0,-1r-186,0r0,-71","w":316},"\uf65d":{"d":"176,-395v89,0,131,50,131,99v0,35,-21,68,-61,86r0,2v40,14,77,46,77,96v0,68,-60,117,-152,117v-102,0,-147,-57,-147,-107v0,-47,30,-78,74,-96r0,-2v-40,-19,-61,-51,-61,-86v0,-66,60,-109,139,-109xm174,-56v35,0,59,-21,59,-51v0,-38,-30,-55,-67,-65v-35,11,-54,32,-54,61v0,29,24,55,62,55xm172,-336v-34,0,-53,21,-53,47v0,28,24,46,61,56v25,-8,45,-27,45,-53v0,-25,-17,-50,-53,-50","w":346},"\uf65e":{"d":"58,4r0,-67v11,1,26,1,40,0v30,-2,60,-11,83,-26v27,-18,45,-45,52,-77r-2,0v-18,18,-47,31,-84,31v-69,0,-125,-46,-125,-121v0,-77,63,-139,149,-139v102,0,151,77,151,167v0,79,-26,140,-68,178v-38,34,-92,51,-154,53v-15,2,-32,2,-42,1xm169,-330v-33,0,-59,29,-59,70v0,35,21,65,61,65v29,0,49,-14,59,-29v3,-5,4,-12,4,-21v0,-45,-18,-85,-65,-85","w":344},"\uf660":{"d":"76,6v-32,0,-54,-24,-54,-55v0,-33,23,-56,55,-56v33,0,55,23,55,56v0,31,-22,55,-56,55","w":153},"\uf65f":{"d":"59,64r-63,5v19,-54,35,-115,44,-171r95,-6v-20,62,-47,125,-76,172","w":153},"\uf62a":{"d":"195,51r-56,0r0,-57v-41,-2,-82,-13,-106,-27r18,-65v27,15,62,27,102,27v40,0,63,-16,63,-41v0,-24,-18,-36,-68,-53v-69,-24,-111,-50,-111,-109v0,-54,38,-95,104,-106r0,-56r56,0r0,52v38,1,70,11,89,21r-18,64v-15,-8,-45,-22,-89,-22v-43,0,-55,19,-55,36v0,22,17,34,76,53v73,25,103,58,103,113v0,52,-38,97,-108,109r0,61","w":336},"\uf629":{"d":"218,6r-57,0r0,-58v-40,-6,-69,-22,-91,-46v-22,-24,-34,-59,-34,-98v0,-73,44,-136,125,-151r0,-56r57,0r0,54v21,0,43,5,60,12r-14,65v-13,-6,-31,-12,-56,-12v-52,0,-83,34,-83,83v0,57,38,84,82,84v27,0,47,-5,63,-11r11,62v-14,7,-37,13,-63,15r0,57","w":323},"\uf62b":{"d":"18,-215r163,0r0,61r-163,0r0,-61","w":199},"\uf62c":{"d":"113,-425r64,0v-33,54,-64,135,-64,241v0,106,31,183,64,239r-64,0v-33,-46,-73,-125,-73,-239v0,-116,41,-195,73,-241","w":193},"\uf62d":{"d":"81,55r-64,0v33,-56,64,-135,64,-240v0,-105,-31,-185,-64,-240r64,0v32,46,72,124,72,240v0,114,-39,193,-72,240","w":193},"\uf633":{"d":"445,-345r17,-103v-9,-3,-22,-6,-39,-6v-76,0,-137,73,-137,159v0,41,19,68,58,68v46,0,91,-59,101,-118xm519,-77r17,51v-58,28,-112,38,-181,38v-165,0,-308,-120,-308,-315v0,-205,146,-383,370,-383v175,0,297,122,297,290v0,147,-83,238,-184,238v-44,0,-79,-26,-81,-82r-3,0v-33,54,-78,82,-135,82v-62,0,-110,-48,-110,-129v0,-123,94,-234,235,-234v44,0,89,10,114,23r-31,183v-12,66,-3,97,27,98v47,2,102,-59,102,-175v0,-137,-85,-239,-241,-239v-158,0,-292,124,-292,320v0,168,107,267,255,267v54,0,108,-12,149,-33","w":755},"\uf6bc":{"d":"30,-368r940,0r0,78r-940,0r0,-78","w":1000},"\uf6bb":{"d":"30,-368r440,0r0,78r-440,0r0,-78","w":500},"\uf6b4":{"d":"191,0r-130,0r19,-463r93,0xm127,-684v44,0,74,33,74,78v0,45,-30,78,-76,78v-44,0,-75,-33,-75,-78v0,-45,31,-78,77,-78","w":251},"\uf6b6":{"d":"240,-515r-125,188r126,187r-91,0r-123,-187r123,-188r90,0xm421,-515r-126,188r126,187r-90,0r-123,-187r123,-188r90,0","w":444},"\uf6b7":{"d":"149,-327r-126,-188r89,0r124,188r-124,187r-89,0xm327,-327r-126,-188r90,0r124,188r-124,187r-89,0","w":444},"\uf6b8":{"d":"241,-515r-125,188r125,187r-90,0r-123,-187r123,-188r90,0","w":264},"\uf6b9":{"d":"148,-327r-125,-188r89,0r124,188r-124,187r-89,0","w":264},"\uf6ba":{"d":"30,-384r255,0r0,85r-255,0r0,-85","w":315},"\uf6b5":{"d":"244,-684v44,0,75,33,75,78v0,45,-30,78,-76,78v-45,0,-76,-33,-76,-78v0,-45,31,-78,77,-78xm187,-467r108,0r2,26v4,52,-14,107,-61,164v-38,45,-63,81,-63,120v0,42,27,70,83,71v34,0,74,-12,100,-30r29,88v-35,22,-93,41,-156,41v-124,0,-181,-72,-181,-152v0,-73,43,-123,86,-172v40,-46,55,-87,53,-135r0,-21","w":428},"\uf6b2":{"d":"29,-293r0,-65v69,-1,78,-39,78,-71v0,-26,-3,-54,-6,-81v-4,-27,-7,-55,-7,-81v0,-93,59,-133,149,-133r28,0r0,71r-18,0v-51,1,-69,29,-69,78v0,20,3,41,6,63v3,23,6,46,6,72v1,71,-28,101,-79,113r0,2v51,12,80,43,79,113v0,26,-3,50,-6,72v-3,23,-6,43,-6,63v0,50,19,78,70,79r17,0r0,71r-29,0v-86,0,-148,-36,-148,-136v0,-26,3,-53,7,-80v3,-27,6,-54,6,-79v0,-30,-8,-70,-78,-71","w":301},"\uf6b3":{"d":"271,-358r0,65v-69,1,-78,41,-78,71v0,25,3,52,7,79v3,27,6,54,6,80v0,100,-62,136,-148,136r-29,0r0,-71r17,0v51,-1,70,-29,70,-79v0,-20,-3,-40,-6,-63v-3,-22,-6,-46,-6,-72v-1,-70,28,-101,79,-113r0,-2v-51,-12,-80,-42,-79,-113v0,-26,3,-49,6,-72v3,-22,6,-43,6,-63v0,-49,-18,-77,-69,-78r-18,0r0,-71r28,0v90,0,149,40,149,133v0,26,-3,54,-6,81v-4,27,-7,55,-7,81v0,32,8,70,78,71","w":301},"\uf6b0":{"d":"269,74r-195,0r0,-799r195,0r0,71r-104,0r0,657r104,0r0,71","w":301},"\uf6b1":{"d":"31,-725r195,0r0,799r-195,0r0,-71r104,0r0,-657r-104,0r0,-71","w":301},"\uf6ae":{"d":"184,-731r89,0v-64,95,-112,227,-112,407v0,177,49,308,112,404r-89,0v-58,-80,-122,-211,-122,-404v1,-196,64,-326,122,-407","w":301},"\uf6af":{"d":"117,80r-89,0v63,-95,112,-228,112,-406v0,-178,-49,-309,-112,-405r89,0v58,79,122,209,122,405v-1,195,-64,325,-122,406","w":301},"\uf6bd":{"d":"117,-257v-44,0,-75,-34,-75,-79v0,-46,32,-79,76,-79v45,0,76,32,76,79v0,45,-30,79,-77,79","w":236},"\u2264":{"d":"534,-109r-472,-184r0,-77r472,-183r0,85r-364,136r0,2r364,135r0,86xm534,0r-471,0r0,-74r471,0r0,74","w":596},"\u2265":{"d":"534,-293r-472,184r0,-86r364,-135r0,-2r-364,-136r0,-85r472,183r0,77xm533,0r-471,0r0,-74r471,0r0,74","w":596},"\u2248":{"d":"525,-427r48,51v-33,49,-92,89,-157,89v-56,0,-93,-22,-126,-36v-30,-13,-63,-34,-111,-34v-48,0,-89,32,-114,61r-44,-53v33,-44,91,-86,159,-86v56,0,92,22,124,35v30,13,63,34,111,34v48,0,89,-37,110,-61xm530,-221r46,50v-33,50,-93,90,-159,90v-54,0,-92,-22,-124,-36v-30,-13,-63,-34,-113,-34v-45,0,-87,32,-113,61r-43,-54v33,-45,93,-85,158,-85v56,0,92,22,125,36v30,13,63,34,110,34v49,0,90,-33,113,-62","w":596},"\u2260":{"d":"556,-126r-309,0r-69,111r-83,0r71,-111r-126,0r0,-78r176,0r82,-128r-258,0r0,-78r308,0r68,-111r83,0r-71,111r128,0r0,78r-178,0r-81,128r259,0r0,78","w":596},"\u221e":{"d":"548,-106v-73,0,-129,-56,-178,-104v-51,49,-102,104,-186,104v-91,0,-153,-67,-153,-157v0,-85,65,-159,161,-159v74,0,130,56,179,104v51,-49,102,-104,186,-104v91,0,153,67,153,159v0,83,-65,157,-162,157xm549,-183v44,0,79,-37,79,-80v0,-48,-33,-82,-77,-82v-51,0,-93,45,-129,81v35,33,74,81,127,81xm191,-183v50,0,92,-44,128,-79v-35,-33,-74,-83,-126,-83v-45,0,-80,37,-80,82v0,46,33,80,78,80","w":741},"\u25ca":{"d":"508,-325r-187,360r-92,0r-187,-360r187,-359r92,0xm407,-322r-121,-245v-4,-8,-9,-19,-12,-27r-2,0v-3,8,-8,19,-12,27r-117,240r120,245v4,8,10,19,12,27r2,0v3,-8,9,-19,13,-27","w":550},"\u222b":{"d":"331,-795r-13,75v-10,-2,-21,-4,-33,-4v-19,0,-37,9,-47,25v-17,24,-25,68,-25,152v0,149,14,296,14,456v0,91,-15,152,-38,187v-26,44,-69,63,-115,63v-25,0,-51,-5,-63,-11r14,-77v10,3,23,6,37,6v17,0,32,-7,44,-21v16,-20,28,-58,28,-144v0,-163,-14,-313,-14,-467v0,-105,18,-164,57,-205v26,-29,63,-42,102,-42v21,0,41,3,52,7","w":339},"\u2202":{"d":"89,-591r-37,-83v31,-21,93,-55,186,-55v154,0,282,132,282,357v0,253,-133,383,-285,383v-144,0,-211,-113,-211,-217v0,-137,91,-246,220,-246v81,0,134,46,154,80r1,0v1,-7,1,-16,1,-24v0,-145,-78,-233,-176,-233v-66,0,-111,22,-135,38xm248,-88v74,0,128,-89,139,-184v-14,-41,-56,-84,-117,-84v-69,0,-122,65,-122,150v0,74,41,118,100,118","w":375},"\u220f":{"d":"631,-549r-93,0r0,639r-115,0r0,-639r-205,0r0,639r-115,0r0,-639r-93,0r0,-101r621,0r0,101","w":642},"\u221a":{"d":"597,-834r-229,920r-85,0r-158,-419r-77,31r-22,-58r159,-66r114,320v9,25,16,52,21,73r2,0v4,-19,9,-48,16,-76r173,-725r86,0","w":577},"\u2211":{"d":"528,90r-516,0r0,-71r233,-296r-221,-292r0,-81r475,0r0,101r-318,0r0,4r197,263r-208,267r0,4r358,0r0,101","w":527},"\u2206":{"d":"569,0r-535,0r0,-64r197,-589r144,0r194,588r0,65xm437,-100r-94,-291v-14,-46,-34,-117,-45,-159r-3,0v-8,34,-26,102,-40,148r-97,302r279,0","w":603},"\u2126":{"d":"555,-98r0,3r140,0r0,95r-277,0r0,-74v74,-53,137,-149,137,-278v0,-118,-67,-235,-189,-235v-121,0,-194,112,-194,236v0,118,64,231,138,277r0,74r-278,0r0,-95r138,0r0,-3v-61,-50,-126,-143,-126,-266v0,-184,135,-322,325,-322v197,0,313,145,313,312v0,134,-68,225,-127,276","w":727},"\u03c0":{"d":"547,-393r-63,0r0,244v0,72,6,121,12,149r-118,0v-10,-17,-16,-70,-16,-139r0,-254r-129,0v-3,120,-28,315,-61,393r-117,0v32,-97,58,-278,59,-393v-33,0,-67,2,-92,8r-14,-72v22,-18,70,-30,158,-30r393,0","w":580},"\u01fb":{"d":"305,-849r121,0r-145,111r-86,0xm444,-292r0,175v0,44,2,87,7,117r-111,0r-8,-54r-3,0v-30,38,-81,65,-144,65v-98,0,-153,-71,-153,-145v0,-122,109,-185,289,-184r0,-8v0,-32,-13,-85,-100,-85v-47,0,-97,15,-130,36r-25,-80v37,-22,100,-43,177,-43v156,0,201,99,201,206xm324,-171r0,-67v-87,-1,-170,17,-170,91v0,48,31,70,70,70v49,0,85,-32,97,-67v3,-9,3,-18,3,-27xm254,-523v-66,0,-109,-41,-109,-94v0,-54,40,-97,110,-97v67,0,106,41,106,97v0,54,-43,94,-107,94xm253,-567v30,0,49,-23,49,-51v0,-28,-18,-52,-50,-52v-30,0,-46,25,-46,53v0,25,18,50,47,50","w":508},"\u0102":{"d":"419,-191r-213,0r-58,191r-127,0r216,-674r157,0r219,674r-133,0xm226,-284r173,0r-53,-166v-13,-41,-24,-87,-34,-126r-2,0v-10,39,-21,86,-32,126xm184,-826r68,0v4,22,20,47,65,47v45,0,62,-22,67,-47r66,0v-2,66,-42,117,-134,117v-92,0,-130,-50,-132,-117","w":636},"\u0100":{"d":"419,-191r-213,0r-58,191r-127,0r216,-674r157,0r219,674r-133,0xm226,-284r173,0r-53,-166v-13,-41,-24,-87,-34,-126r-2,0v-10,39,-21,86,-32,126xm190,-803r250,0r0,69r-250,0r0,-69","w":636},"\u0104":{"d":"394,-674r219,674r-62,1v-12,16,-37,49,-37,80v0,32,22,54,53,54v18,0,33,-4,44,-8r18,58v-24,19,-63,28,-92,28v-63,0,-104,-33,-104,-97v0,-48,30,-96,47,-119r-60,-188r-214,0r-58,191r-127,0r216,-674r157,0xm226,-284r173,0r-53,-166v-13,-41,-24,-87,-34,-126r-2,0v-10,39,-20,86,-32,126","w":636},"\u0106":{"d":"534,-116r20,97v-29,14,-93,30,-175,30v-214,0,-344,-134,-344,-340v0,-222,155,-356,361,-356v81,0,138,17,163,30r-26,98v-32,-14,-77,-26,-132,-26v-137,0,-236,86,-236,248v0,149,86,243,235,243v49,0,101,-10,134,-24xm387,-831r136,0r-125,120r-99,0","w":588},"\u010c":{"d":"534,-116r20,97v-29,14,-93,30,-175,30v-214,0,-344,-134,-344,-340v0,-222,155,-356,361,-356v81,0,138,17,163,30r-26,98v-32,-14,-77,-26,-132,-26v-137,0,-236,86,-236,248v0,149,86,243,235,243v49,0,101,-10,134,-24xm404,-711r-93,0r-103,-119r92,0r57,66r2,0r55,-66r91,0","w":588},"\u0108":{"d":"534,-116r20,97v-29,14,-93,30,-175,30v-214,0,-344,-134,-344,-340v0,-222,155,-356,361,-356v81,0,138,17,163,30r-26,98v-32,-14,-77,-26,-132,-26v-137,0,-236,86,-236,248v0,149,86,243,235,243v49,0,101,-10,134,-24xm307,-833r93,0r103,119r-92,0r-56,-65r-2,0r-56,65r-91,0","w":588},"\u010a":{"d":"534,-116r20,97v-29,14,-93,30,-175,30v-214,0,-344,-134,-344,-340v0,-222,155,-356,361,-356v81,0,138,17,163,30r-26,98v-32,-14,-77,-26,-132,-26v-137,0,-236,86,-236,248v0,149,86,243,235,243v49,0,101,-10,134,-24xm354,-715v-34,0,-60,-29,-60,-60v0,-34,27,-61,62,-61v33,0,58,27,58,61v0,31,-25,60,-60,60","w":588},"\u010e":{"d":"71,-2r0,-663v55,-8,123,-14,196,-14v126,0,212,26,274,78v66,53,106,134,106,248v0,121,-41,210,-105,268v-67,61,-174,92,-305,92v-71,0,-125,-4,-166,-9xm194,-576r0,483v17,3,43,3,68,3v160,1,255,-88,255,-259v1,-148,-85,-234,-239,-234v-39,0,-66,3,-84,7xm363,-711r-93,0r-103,-119r92,0r57,66r2,0r55,-66r91,0","w":683},"\u0114":{"d":"448,-399r0,100r-254,0r0,198r284,0r0,101r-407,0r0,-674r392,0r0,101r-269,0r0,174r254,0xm133,-831r68,0v4,22,20,47,65,47v45,0,62,-22,67,-47r66,0v-2,66,-42,117,-134,117v-92,0,-130,-50,-132,-117","w":515},"\u011a":{"d":"448,-399r0,100r-254,0r0,198r284,0r0,101r-407,0r0,-674r392,0r0,101r-269,0r0,174r254,0xm312,-710r-93,0r-103,-119r92,0r57,66r2,0r55,-66r91,0","w":515},"\u0116":{"d":"448,-399r0,100r-254,0r0,198r284,0r0,101r-407,0r0,-674r392,0r0,101r-269,0r0,174r254,0xm260,-717v-34,0,-60,-29,-60,-60v0,-34,27,-61,62,-61v33,0,58,27,58,61v0,31,-25,60,-60,60","w":515},"\u0112":{"d":"448,-399r0,100r-254,0r0,198r284,0r0,101r-407,0r0,-674r392,0r0,101r-269,0r0,174r254,0xm141,-803r250,0r0,69r-250,0r0,-69","w":515},"\u0118":{"d":"466,126r18,60v-26,18,-59,27,-96,27v-60,0,-98,-32,-98,-87v0,-56,41,-102,75,-126r-294,0r0,-674r392,0r0,101r-269,0r0,174r254,0r0,100r-254,0r0,198r284,0r0,101r-22,0v-36,24,-74,64,-74,98v0,23,17,36,41,36v15,0,29,-2,43,-8","w":515},"\u011e":{"d":"611,-372r0,341v-43,16,-127,38,-216,38v-114,0,-201,-29,-265,-90v-60,-57,-94,-146,-94,-248v1,-214,152,-350,375,-350v83,0,148,17,179,32r-27,99v-37,-17,-82,-29,-153,-29v-144,0,-245,85,-245,242v0,153,94,244,234,244v45,0,77,-6,93,-13r0,-169r-119,0r0,-97r238,0xm234,-834r68,0v4,22,20,47,65,47v45,0,62,-22,67,-47r66,0v-2,66,-42,117,-134,117v-92,0,-130,-50,-132,-117","w":666},"\u011c":{"d":"611,-372r0,341v-43,16,-127,38,-216,38v-114,0,-201,-29,-265,-90v-60,-57,-94,-146,-94,-248v1,-214,152,-350,375,-350v83,0,148,17,179,32r-27,99v-37,-17,-82,-29,-153,-29v-144,0,-245,85,-245,242v0,153,94,244,234,244v45,0,77,-6,93,-13r0,-169r-119,0r0,-97r238,0xm321,-832r92,0r103,119r-92,0r-56,-65r-2,0r-56,65r-91,0","w":666},"\u0122":{"d":"611,-372r0,341v-43,16,-127,38,-216,38v-114,0,-201,-29,-265,-90v-60,-57,-94,-146,-94,-248v1,-214,152,-350,375,-350v83,0,148,17,179,32r-27,99v-37,-17,-82,-29,-153,-29v-144,0,-245,85,-245,242v0,153,94,244,234,244v45,0,77,-6,93,-13r0,-169r-119,0r0,-97r238,0xm292,233r-20,-54v36,-6,70,-27,70,-63v0,-23,-16,-45,-31,-60r87,-16v20,14,39,42,39,77v0,78,-69,113,-145,116","w":666},"\u0120":{"d":"611,-372r0,341v-43,16,-127,38,-216,38v-114,0,-201,-29,-265,-90v-60,-57,-94,-146,-94,-248v1,-214,152,-350,375,-350v83,0,148,17,179,32r-27,99v-37,-17,-82,-29,-153,-29v-144,0,-245,85,-245,242v0,153,94,244,234,244v45,0,77,-6,93,-13r0,-169r-119,0r0,-97r238,0xm370,-715r-2,0v-34,0,-60,-29,-60,-60v0,-34,27,-61,62,-61v33,0,58,27,58,61v0,31,-25,60,-58,60","w":666},"\ue000":{"d":"611,-372r0,341v-43,16,-127,38,-216,38v-114,0,-201,-29,-265,-90v-60,-57,-94,-146,-94,-248v1,-214,152,-350,375,-350v83,0,148,17,179,32r-27,99v-37,-17,-82,-29,-153,-29v-144,0,-245,85,-245,242v0,153,94,244,234,244v45,0,77,-6,93,-13r0,-169r-119,0r0,-97r238,0xm305,-715r-60,0v-2,-74,27,-116,73,-116v25,0,43,9,62,20v16,10,31,19,45,19v16,0,24,-8,27,-41r59,0v2,77,-24,112,-74,112v-24,0,-43,-8,-63,-19v-18,-10,-30,-19,-44,-19v-14,0,-23,16,-25,44","w":666},"\u0124":{"d":"71,-674r123,0r0,270r285,0r0,-270r123,0r0,674r-123,0r0,-297r-285,0r0,297r-123,0r0,-674xm289,-829r93,0r103,119r-92,0r-56,-65r-2,0r-56,65r-91,0","w":672},"\u012c":{"d":"71,-674r123,0r0,674r-123,0r0,-674xm-1,-831r68,0v4,22,20,47,65,47v45,0,62,-22,67,-47r66,0v-2,66,-42,117,-134,117v-92,0,-130,-50,-132,-117","w":264},"\u0130":{"d":"71,-674r123,0r0,674r-123,0r0,-674xm132,-717v-34,0,-60,-29,-60,-60v0,-34,27,-61,62,-61v33,0,58,27,58,61v0,31,-25,60,-60,60","w":264},"\u012a":{"d":"71,-674r123,0r0,674r-123,0r0,-674xm8,-803r250,0r0,69r-250,0r0,-69","w":264},"\u012e":{"d":"194,-674r0,674r-52,0v-12,19,-30,52,-30,82v0,34,22,54,53,54v19,0,34,-4,44,-8r18,59v-25,19,-63,28,-93,28v-62,0,-103,-33,-103,-97v0,-48,27,-95,40,-118r0,-674r123,0","w":264},"\u0128":{"d":"71,-674r123,0r0,674r-123,0r0,-674xm59,-715r-60,0v-2,-74,27,-116,73,-116v25,0,43,9,62,20v17,10,32,19,46,19v16,0,24,-8,27,-41r59,0v2,77,-24,112,-74,112v-24,0,-44,-8,-63,-19v-19,-10,-31,-19,-45,-19v-14,0,-23,16,-25,44","w":264},"\u0134":{"d":"205,-241r0,-433r123,0r0,437v0,186,-90,248,-223,248v-35,0,-77,-6,-104,-16r15,-99v20,7,47,12,76,12v70,0,113,-32,113,-149xm217,-829r93,0r103,119r-92,0r-56,-65r-2,0r-56,65r-91,0","w":392},"\u0136":{"d":"71,0r0,-674r122,0r0,310r3,0v16,-26,33,-50,49,-73r177,-237r151,0r-232,287r247,387r-144,0r-190,-309r-61,72r0,237r-122,0xm229,232r-20,-54v36,-6,70,-27,70,-63v0,-23,-16,-45,-31,-60r87,-16v20,14,39,42,39,77v0,78,-69,113,-145,116","w":582},"\u0139":{"d":"71,0r0,-674r123,0r0,571r277,0r0,103r-400,0xm171,-830r136,0r-125,120r-99,0","w":493},"\u013d":{"d":"71,0r0,-674r123,0r0,571r277,0r0,103r-400,0xm278,-493r-20,-54v36,-7,70,-27,70,-63v0,-23,-16,-45,-31,-60r87,-16v20,14,39,42,39,77v0,78,-69,113,-145,116","w":493},"\u013b":{"d":"71,0r0,-674r123,0r0,571r277,0r0,103r-400,0xm188,233r-20,-54v36,-6,70,-27,70,-63v0,-23,-16,-45,-31,-60r87,-16v20,14,39,42,39,77v0,78,-69,113,-145,116","w":493},"\u013f":{"d":"71,0r0,-674r123,0r0,571r277,0r0,103r-400,0xm363,-315v-34,0,-60,-29,-60,-60v0,-34,27,-61,62,-61v33,0,58,27,58,61v0,31,-25,60,-60,60","w":493},"\ue001":{"d":"653,0r-13,-275v-4,-87,-9,-192,-8,-283r-3,0v-22,82,-50,173,-80,258r-99,292r-94,0r-90,-288v-26,-86,-50,-178,-68,-262r-2,0v-3,88,-7,195,-12,287r-15,271r-115,0r45,-674r162,0r88,271v24,79,45,159,62,234r3,0v18,-73,41,-156,67,-235r93,-270r160,0r39,674r-120,0xm366,-829r93,0r103,119r-92,0r-56,-65r-2,0r-56,65r-91,0","w":827},"\u0143":{"d":"184,0r-114,0r0,-674r141,0r174,289v44,75,84,153,115,226r2,0v-9,-90,-11,-177,-11,-280r0,-235r114,0r0,674r-128,0r-176,-297v-43,-74,-87,-156,-120,-232r-4,1v5,87,7,176,7,287r0,241xm360,-830r136,0r-125,120r-99,0","w":676},"\u0147":{"d":"184,0r-114,0r0,-674r141,0r174,289v44,75,84,153,115,226r2,0v-9,-90,-11,-177,-11,-280r0,-235r114,0r0,674r-128,0r-176,-297v-43,-74,-87,-156,-120,-232r-4,1v5,87,7,176,7,287r0,241xm387,-707r-92,0r-103,-119r92,0r57,66r2,0r55,-66r91,0","w":676},"\ue002":{"d":"184,0r-114,0r0,-674r141,0r174,289v44,75,84,153,115,226r2,0v-9,-90,-11,-177,-11,-280r0,-235r114,0r0,674r-128,0r-176,-297v-43,-74,-87,-156,-120,-232r-4,1v5,87,7,176,7,287r0,241xm291,-829r93,0r103,119r-92,0r-56,-65r-2,0r-56,65r-91,0","w":676},"\u0145":{"d":"184,0r-114,0r0,-674r141,0r174,289v44,75,84,153,115,226r2,0v-9,-90,-11,-177,-11,-280r0,-235r114,0r0,674r-128,0r-176,-297v-43,-74,-87,-156,-120,-232r-4,1v5,87,7,176,7,287r0,241xm273,231r-20,-54v36,-6,70,-27,70,-63v0,-23,-16,-45,-32,-60r88,-16v20,14,39,42,39,77v0,78,-69,113,-145,116","w":676},"\u014e":{"d":"357,-686v196,0,312,149,312,342v0,226,-137,355,-322,355v-191,0,-311,-146,-311,-343v0,-208,131,-354,321,-354xm353,-587v-122,0,-187,113,-187,252v0,138,69,247,187,247v119,0,186,-111,186,-252v0,-127,-63,-247,-186,-247xm219,-837r68,0v4,22,20,47,65,47v45,0,62,-22,67,-47r66,0v-2,66,-42,117,-134,117v-92,0,-130,-50,-132,-117","w":704},"\u0150":{"d":"357,-686v196,0,312,149,312,342v0,226,-137,355,-322,355v-191,0,-311,-146,-311,-343v0,-208,131,-354,321,-354xm353,-587v-122,0,-187,113,-187,252v0,138,69,247,187,247v119,0,186,-111,186,-252v0,-127,-63,-247,-186,-247xm299,-833r120,0r-106,114r-86,0xm464,-833r121,0r-106,114r-86,0","w":704},"\u014c":{"d":"357,-686v196,0,312,149,312,342v0,226,-137,355,-322,355v-191,0,-311,-146,-311,-343v0,-208,131,-354,321,-354xm353,-587v-122,0,-187,113,-187,252v0,138,69,247,187,247v119,0,186,-111,186,-252v0,-127,-63,-247,-186,-247xm228,-806r250,0r0,69r-250,0r0,-69","w":704},"\u01fe":{"d":"136,56r-68,-54r59,