/*!
 * The following copyright notice may not be removed under any circumstances.
 * 
 * Copyright:
 * © 1992, 1994, 1997, 2000, 2004 Adobe Systems Incorporated. All rights reserved.
 * 
 * Trademark:
 * Myriad is either a registered trademark or a trademark of Adobe Systems
 * Incorporated in the United States and/or other countries.
 * 
 * Full name:
 * MyriadPro-Regular
 * 
 * Manufacturer:
 * Adobe Systems Incorporated
 * 
 * Designer:
 * Robert Slimbach and Carol Twombly
 * 
 * Vendor URL:
 * http://www.adobe.com/type
 * 
 * License information:
 * http://www.adobe.com/type/legal.html
 */
Cufon.registerFont({"w":300,"face":{"font-family":"Myriad Pro","font-weight":400,"font-stretch":"normal","units-per-em":"1000","panose-1":"2 11 5 3 3 4 3 2 2 4","ascent":"750","descent":"-250","x-height":"11","bbox":"-157 -952 1126 250","underline-thickness":"50","underline-position":"-50","stemh":"67","stemv":"88","unicode-range":"U+0020-U+FB04"},"glyphs":{" ":{"w":212},"\ufb00":{"d":"460,0r-87,0r0,-417r-204,0r0,417r-87,0r0,-417r-67,0r0,-67r67,0r0,-15v0,-68,16,-126,54,-165v28,-28,68,-45,122,-45v28,0,54,9,69,17r-18,66v-13,-7,-32,-13,-52,-13v-69,0,-88,59,-88,135r0,20r204,0r0,-23v0,-68,15,-130,56,-169v33,-32,77,-45,117,-45v32,0,59,7,75,14r-11,68v-14,-6,-31,-11,-57,-11v-74,0,-93,65,-93,140r0,26r116,0r0,67r-116,0r0,417","w":583},"\ufb03":{"d":"705,-690r-26,66v-22,-14,-58,-26,-99,-26v-92,0,-120,65,-120,142r0,24r282,0r0,484r-88,0r0,-417r-194,0r0,417r-87,0r0,-417r-204,0r0,417r-87,0r0,-417r-67,0r0,-67r67,0r0,-17v0,-60,17,-120,58,-160v28,-29,70,-47,124,-47v33,0,67,12,85,21r-25,65v-15,-9,-38,-17,-60,-17v-28,0,-48,10,-63,25v-24,26,-32,70,-32,112r0,18r204,0r0,-27v0,-127,75,-210,211,-210v44,0,95,14,121,31","w":815},"\ue003":{"d":"705,-690r-26,66v-22,-14,-58,-26,-99,-26v-92,0,-120,65,-120,142r0,24r282,0r0,441v0,94,-15,155,-58,199v-39,39,-103,55,-150,55r-10,-69v41,-3,75,-14,96,-37v24,-28,34,-66,34,-182r0,-340r-194,0r0,417r-87,0r0,-417r-204,0r0,417r-87,0r0,-417r-67,0r0,-67r67,0r0,-17v0,-60,17,-120,58,-160v28,-29,70,-47,124,-47v33,0,67,12,85,21r-25,65v-15,-9,-38,-17,-60,-17v-28,0,-48,10,-63,25v-24,26,-32,70,-32,112r0,18r204,0r0,-27v0,-127,75,-210,211,-210v44,0,95,14,121,31","w":809},"\ufb04":{"d":"349,-690r-23,66v-18,-10,-39,-15,-60,-15v-29,0,-49,9,-64,25v-25,26,-33,67,-33,111r0,19r204,0r0,-21v0,-68,23,-128,69,-167v37,-32,87,-49,155,-49v56,0,108,12,145,32r0,689r-88,0r0,-640v-15,-8,-38,-13,-72,-13v-91,0,-122,67,-122,144r0,25r114,0r0,67r-113,0r0,417r-88,0r0,-417r-204,0r0,417r-87,0r0,-417r-67,0r0,-67r67,0r0,-11v0,-62,15,-124,56,-165v31,-30,76,-48,130,-48v33,0,66,11,81,18","w":815},"\ue004":{"d":"169,0r-87,0r0,-417r-67,0r0,-67r67,0r0,-27v0,-127,75,-210,211,-210v45,0,98,14,123,32r-25,67v-22,-15,-59,-28,-102,-28v-93,0,-120,65,-120,142r0,24r281,0r0,441v0,94,-15,155,-58,199v-39,39,-103,55,-150,55r-9,-69v40,-3,75,-14,95,-37v24,-28,34,-66,34,-182r0,-340r-193,0r0,417","w":522},"!":{"d":"149,-193r-68,0r-14,-481r96,0xm114,11v-34,0,-58,-27,-58,-62v0,-36,25,-62,60,-62v35,0,58,26,58,62v0,35,-23,62,-60,62","w":230},"\"":{"d":"51,-692r87,0r-17,240r-54,0xm200,-692r87,0r-17,240r-53,0","w":337},"#":{"d":"188,-255r104,0r19,-145r-104,0xm154,0r-60,0r26,-196r-83,0r0,-59r92,0r19,-145r-87,0r0,-59r95,0r26,-191r59,0r-26,191r105,0r25,-191r59,0r-25,191r82,0r0,59r-91,0r-18,145r86,0r0,59r-95,0r-26,196r-60,0r26,-196r-104,0","w":497},"$":{"d":"281,85r-63,0r0,-100v-58,-1,-117,-19,-152,-44r24,-67v35,23,87,43,143,43v71,0,119,-41,119,-98v0,-55,-39,-89,-113,-119v-102,-40,-165,-87,-165,-174v0,-83,59,-146,150,-161r0,-100r63,0r0,97v59,2,100,18,130,35r-25,66v-21,-12,-62,-35,-126,-35v-77,0,-106,46,-106,87v0,51,37,77,124,114v103,42,155,93,155,182v0,80,-55,154,-158,170r0,104","w":513},"%":{"d":"188,-661v90,0,149,70,149,193v0,137,-71,205,-155,205v-82,0,-151,-65,-152,-195v0,-130,70,-203,158,-203xm183,-608v-54,0,-84,65,-84,146v-2,83,30,146,85,146v58,0,84,-62,84,-147v0,-80,-23,-145,-85,-145xm231,12r-56,0r383,-674r56,0xm612,-392v90,0,149,70,149,194v0,137,-71,205,-155,205v-82,0,-151,-65,-152,-196v0,-130,70,-203,158,-203xm607,-339v-54,0,-84,65,-84,147v-2,83,30,146,85,146v58,0,84,-62,84,-148v0,-79,-23,-145,-85,-145","w":792},"&":{"d":"602,0r-104,0r-63,-65v-58,53,-122,76,-197,76v-131,0,-207,-88,-207,-189v0,-92,55,-155,132,-197r0,-3v-35,-44,-56,-94,-56,-141v0,-83,59,-167,171,-167v84,0,149,55,149,143v0,71,-41,127,-148,180r0,4r164,187v31,-47,52,-112,65,-197r80,0v-18,106,-47,190,-97,249xm254,-55v57,0,106,-26,138,-61r-190,-213v-37,24,-87,66,-87,138v0,77,57,136,139,136xm271,-626v-55,0,-84,46,-84,98v0,49,23,86,51,122v68,-39,112,-75,112,-133v0,-41,-23,-87,-79,-87","w":605},"\u2019":{"d":"93,-682r90,-10v-23,84,-66,192,-93,238r-56,6v21,-59,48,-162,59,-234","w":207},"(":{"d":"195,-694r68,0v-73,99,-125,228,-125,410v0,178,55,305,125,405r-68,0v-63,-83,-131,-211,-131,-406v1,-196,68,-325,131,-409","w":284},")":{"d":"88,121r-68,0v70,-99,125,-228,125,-408v0,-180,-54,-307,-125,-407r68,0v63,82,131,211,131,407v-1,196,-68,324,-131,408","w":284},"*":{"d":"269,-686r60,35r-95,125r0,2r151,-20r0,68r-151,-19r0,3r96,120r-63,36r-61,-140r-2,0r-64,141r-57,-36r95,-122r0,-3r-148,20r0,-68r147,19r0,-2r-94,-123r61,-35r62,140r2,0","w":415},"+":{"d":"266,-532r64,0r0,235r226,0r0,60r-226,0r0,237r-64,0r0,-237r-226,0r0,-60r226,0r0,-235","w":596},",":{"d":"78,117r-62,7v22,-60,49,-167,60,-240r98,-10v-24,85,-68,196,-96,243","w":207},"-":{"d":"30,-302r247,0r0,64r-247,0r0,-64","w":307},".":{"d":"110,11v-34,0,-58,-27,-58,-63v0,-36,25,-63,60,-63v35,0,59,26,59,63v0,36,-24,63,-61,63","w":207},"\/":{"d":"66,39r-67,0r278,-725r69,0","w":343},"0":{"d":"263,-661v136,0,215,122,215,329v0,221,-83,343,-226,343v-127,0,-214,-119,-216,-334v0,-219,95,-338,227,-338xm257,-593v-76,0,-132,94,-132,271v0,169,52,265,132,265v89,0,132,-105,132,-271v0,-160,-40,-265,-132,-265","w":513},"1":{"d":"236,0r0,-568r-2,0r-113,61r-17,-67r142,-76r75,0r0,650r-85,0","w":513},"2":{"d":"460,0r-415,0r0,-54r69,-67v166,-158,242,-242,242,-340v0,-66,-31,-127,-128,-127v-59,0,-108,30,-138,55r-28,-62v44,-37,109,-66,183,-66v140,0,199,96,199,189v0,120,-87,217,-224,349r-51,48r0,2r291,0r0,73","w":513},"3":{"d":"42,-33r24,-67v25,15,82,40,144,40v112,0,148,-71,147,-126v-1,-91,-83,-130,-168,-130r-49,0r0,-66r49,0v64,0,145,-33,145,-110v0,-52,-33,-98,-114,-98v-52,0,-102,23,-130,43r-24,-64v35,-25,101,-50,171,-50v128,0,186,76,186,155v0,68,-41,125,-120,154r0,2v80,15,144,75,145,166v0,104,-82,195,-237,195v-73,0,-137,-23,-169,-44","w":513},"4":{"d":"400,0r-83,0r0,-178r-302,0r0,-57r290,-415r95,0r0,404r91,0r0,68r-91,0r0,178xm104,-246r213,0r0,-217v0,-34,1,-68,3,-102r-3,0v-20,38,-36,66,-54,96r-159,221r0,2","w":513},"5":{"d":"433,-650r0,74r-248,0r-25,167v15,-2,29,-3,53,-3v51,0,100,10,140,35v51,28,93,85,93,166v0,127,-101,222,-242,222v-71,0,-130,-20,-162,-40r22,-67v27,16,80,36,140,36v82,0,154,-54,153,-141v0,-84,-57,-143,-186,-143v-38,0,-67,3,-91,6r42,-312r311,0","w":513},"6":{"d":"416,-660r0,72v-18,-1,-41,1,-66,5v-139,22,-211,122,-226,230r2,0v31,-42,86,-76,158,-76v115,0,196,84,196,210v0,120,-81,230,-217,230v-138,0,-229,-108,-229,-277v0,-128,45,-229,110,-293v54,-53,126,-86,208,-96v26,-4,48,-5,64,-5xm265,-57v75,0,126,-63,126,-156v0,-93,-53,-149,-134,-149v-53,0,-103,32,-127,80v-5,10,-9,22,-9,38v1,107,51,187,144,187","w":513},"7":{"d":"57,-650r410,0r0,58r-283,592r-91,0r282,-575r0,-2r-318,0r0,-73","w":513},"8":{"d":"166,-339r-1,-3v-73,-34,-104,-90,-104,-146v0,-103,87,-173,202,-173v126,0,190,78,190,160v0,55,-28,115,-108,152r0,3v81,32,131,90,131,168v0,114,-97,189,-221,189v-136,0,-218,-80,-218,-175v0,-82,49,-141,129,-175xm257,-53v79,0,130,-49,130,-116v0,-78,-55,-117,-143,-142v-76,22,-117,73,-117,135v-3,65,47,123,130,123xm258,-598v-73,0,-113,48,-113,104v-1,65,49,100,124,120v56,-19,99,-59,99,-118v0,-52,-31,-106,-110,-106","w":513},"9":{"d":"96,10r0,-72v19,2,41,0,71,-3v51,-7,99,-27,136,-63v43,-39,74,-96,86,-172r-3,0v-36,44,-88,69,-154,69v-116,0,-191,-88,-191,-199v0,-123,89,-231,222,-231v133,0,215,107,215,275v0,142,-48,242,-112,304v-50,49,-119,79,-189,87v-32,5,-60,6,-81,5xm255,-594v-74,0,-127,66,-127,159v0,81,49,138,125,138v59,0,105,-29,128,-68v5,-9,8,-18,8,-33v0,-111,-41,-196,-134,-196","w":513},":":{"d":"111,-342v-34,0,-58,-27,-58,-62v0,-37,25,-63,59,-63v36,0,59,26,59,63v0,35,-23,62,-60,62xm111,11v-34,0,-58,-27,-58,-62v0,-37,25,-63,59,-63v36,0,59,26,59,63v0,35,-23,62,-60,62","w":207},";":{"d":"78,116r-61,7v22,-60,49,-166,60,-240r97,-10v-24,86,-68,196,-96,243xm118,-342v-34,0,-58,-27,-58,-62v0,-37,25,-63,59,-63v36,0,59,26,59,63v0,35,-23,62,-60,62","w":207},"<":{"d":"66,-239r0,-54r464,-239r0,69r-391,196r0,2r391,196r0,69","w":596},"=":{"d":"556,-337r-516,0r0,-60r516,0r0,60xm556,-141r-516,0r0,-60r516,0r0,60","w":596},">":{"d":"530,-295r0,57r-464,238r0,-69r394,-196r0,-2r-394,-196r0,-69","w":596},"?":{"d":"220,-192r-79,0r-2,-26v-6,-53,12,-113,62,-173v45,-53,70,-92,70,-137v0,-51,-32,-85,-95,-86v-36,0,-76,12,-101,31r-24,-63v34,-24,90,-40,143,-40v115,0,167,71,167,147v0,68,-38,117,-86,174v-44,52,-60,97,-57,148xm178,11v-34,0,-58,-27,-58,-62v0,-37,25,-63,59,-63v36,0,59,26,59,63v0,35,-23,62,-60,62","w":406},"@":{"d":"448,-255r21,-112v-10,-4,-27,-8,-50,-8v-88,0,-159,83,-159,180v0,44,22,76,66,76v58,0,111,-74,122,-136xm508,22r16,43v-55,29,-111,40,-178,40v-164,0,-303,-120,-303,-313v0,-206,143,-385,365,-385v174,0,290,123,290,290v0,150,-84,238,-177,238v-40,0,-77,-26,-75,-88r-3,0v-35,59,-81,88,-141,88v-58,0,-108,-47,-108,-126v0,-124,98,-237,237,-237v42,0,81,9,107,21r-34,181v-15,76,-3,111,30,112v51,2,108,-67,108,-182v0,-146,-87,-251,-242,-251v-163,0,-300,130,-300,333v0,167,109,271,257,271v57,0,110,-12,151,-35","w":737},"A":{"d":"424,-212r-239,0r-70,212r-90,0r230,-674r104,0r230,674r-93,0xm203,-280r204,0r-67,-194v-15,-44,-25,-84,-35,-123r-2,0v-10,39,-20,81,-34,122","w":612},"B":{"d":"76,-2r0,-662v38,-9,99,-15,159,-15v87,0,143,15,184,49v35,26,57,66,57,119v0,66,-44,123,-114,148r0,3v64,15,139,68,139,168v0,58,-23,103,-58,135v-46,43,-122,63,-232,63v-60,0,-106,-4,-135,-8xm163,-606r0,218r79,0v91,0,145,-49,145,-114v0,-78,-59,-110,-147,-110v-40,0,-63,3,-77,6xm163,-323r0,257v18,3,42,4,73,4v90,0,173,-33,173,-131v0,-91,-79,-130,-174,-130r-72,0","w":542},"C":{"d":"529,-91r17,70v-31,16,-96,32,-178,32v-190,0,-332,-120,-332,-342v0,-212,143,-354,352,-354v83,0,137,18,160,30r-22,71v-32,-16,-79,-28,-135,-28v-158,0,-263,101,-263,278v0,166,95,271,258,271v54,0,108,-11,143,-28","w":580},"D":{"d":"76,-2r0,-662v53,-9,116,-15,185,-15v125,0,214,30,273,84v61,55,96,133,96,242v0,110,-35,200,-97,262v-64,63,-168,97,-299,97v-63,0,-114,-3,-158,-8xm163,-601r0,533v22,3,54,4,88,4v187,0,287,-104,287,-286v1,-159,-89,-260,-273,-260v-45,0,-79,4,-102,9","w":666},"E":{"d":"424,-388r0,72r-261,0r0,243r292,0r0,73r-380,0r0,-674r365,0r0,73r-277,0r0,213r261,0","w":492},"F":{"d":"75,0r0,-674r363,0r0,73r-275,0r0,224r254,0r0,72r-254,0r0,305r-88,0","w":487},"G":{"d":"590,-354r0,324v-39,15,-117,37,-208,37v-102,0,-186,-26,-252,-89v-58,-56,-94,-146,-94,-251v0,-201,139,-348,365,-348v78,0,140,17,169,31r-22,71v-36,-17,-81,-29,-149,-29v-164,0,-271,102,-271,271v0,171,102,272,260,272v57,0,96,-8,116,-18r0,-201r-136,0r0,-70r222,0","w":646},"H":{"d":"75,-674r88,0r0,282r326,0r0,-282r88,0r0,674r-88,0r0,-316r-326,0r0,316r-88,0r0,-674","w":652},"I":{"d":"75,-674r88,0r0,674r-88,0r0,-674","w":239},"J":{"d":"213,-230r0,-444r88,0r0,451v0,179,-88,234,-204,234v-33,0,-72,-7,-93,-16r12,-71v18,7,44,13,74,13v78,0,123,-35,123,-167","w":370},"K":{"d":"76,0r0,-674r87,0r0,325r3,0v18,-26,36,-50,53,-72r206,-253r108,0r-244,286r263,388r-103,0r-221,-331r-65,74r0,257r-87,0","w":542},"L":{"d":"75,0r0,-674r88,0r0,601r288,0r0,73r-376,0","w":472},"M":{"d":"660,0r-16,-296v-5,-94,-11,-208,-11,-291r-2,0v-24,78,-51,163,-85,256r-119,327r-66,0r-110,-321v-32,-96,-58,-182,-77,-262r-2,0v-2,84,-7,196,-13,298r-18,289r-83,0r47,-674r111,0r115,326v28,83,50,157,68,227r2,0v18,-68,42,-142,72,-227r120,-326r111,0r42,674r-86,0","w":804},"N":{"d":"158,0r-82,0r0,-674r96,0r215,341v49,79,89,150,120,219r3,-1v-8,-90,-10,-172,-10,-277r0,-282r82,0r0,674r-88,0r-214,-342v-47,-75,-92,-152,-125,-225r-3,1v5,85,6,166,6,278r0,288","w":658},"O":{"d":"348,-686v185,0,304,141,304,342v0,231,-141,355,-313,355v-179,0,-303,-139,-303,-343v0,-214,132,-354,312,-354xm345,-615v-145,0,-217,134,-217,281v0,145,78,274,216,274v138,0,216,-127,216,-280v0,-135,-70,-275,-215,-275","w":689},"P":{"d":"76,0r0,-666v42,-7,97,-13,167,-13v86,0,149,20,189,56v36,32,59,81,59,141v0,61,-18,109,-52,144v-47,49,-121,74,-206,74v-26,0,-50,-1,-70,-6r0,270r-87,0xm163,-603r0,262v19,5,43,7,72,7v105,0,169,-52,169,-143v0,-90,-64,-133,-159,-133v-38,0,-67,3,-82,7","w":532},"Q":{"d":"657,26r-25,73v-91,-24,-180,-51,-258,-78v-15,-5,-28,-10,-41,-10v-161,-6,-297,-124,-297,-342v0,-216,131,-355,313,-355v184,0,303,142,303,341v0,174,-80,284,-192,324r0,4v67,17,140,33,197,43xm344,-60v138,0,216,-127,216,-280v0,-136,-70,-275,-213,-275v-147,0,-219,136,-219,282v0,144,78,273,216,273","w":689},"R":{"d":"76,0r0,-665v44,-8,108,-14,167,-14v93,0,154,18,195,55v33,30,53,76,53,129v0,88,-56,147,-126,171r0,3v51,18,82,66,98,136v22,94,38,159,52,185r-90,0v-11,-20,-26,-77,-44,-161v-20,-93,-57,-128,-136,-131r-82,0r0,292r-87,0xm163,-604r0,246r89,0v93,0,152,-51,152,-128v0,-87,-63,-125,-155,-125v-42,0,-71,3,-86,7","w":538},"S":{"d":"42,-33r23,-73v39,25,95,44,155,44v89,0,141,-47,141,-115v0,-62,-36,-99,-127,-133v-110,-40,-178,-98,-178,-192v0,-105,87,-183,218,-183v68,0,119,16,148,33r-24,71v-21,-13,-66,-32,-127,-32v-92,0,-127,55,-127,101v0,63,41,94,134,130v114,44,171,99,171,198v0,104,-76,195,-235,195v-65,0,-136,-20,-172,-44","w":493},"T":{"d":"204,0r0,-600r-205,0r0,-74r499,0r0,74r-206,0r0,600r-88,0","w":497},"U":{"d":"75,-674r88,0r0,400v0,150,67,214,157,214v99,0,164,-66,164,-214r0,-400r88,0r0,394v0,207,-109,291,-255,291v-138,0,-242,-78,-242,-288r0,-397","w":647},"V":{"d":"320,0r-96,0r-221,-674r95,0r105,332v28,91,53,173,72,252r2,0v19,-78,46,-163,77,-251r114,-333r93,0","w":558},"W":{"d":"277,0r-91,0r-171,-674r92,0r80,341v20,84,38,168,50,233r2,0v11,-67,32,-147,55,-234r90,-340r91,0r82,342v19,80,37,160,47,231r2,0v14,-74,33,-149,54,-233r89,-340r89,0r-191,674r-91,0r-85,-351v-21,-86,-35,-152,-44,-220r-2,0v-11,67,-27,133,-52,220","w":846},"X":{"d":"546,0r-101,0r-87,-149v-35,-57,-56,-94,-77,-133r-2,0v-19,39,-39,75,-73,134r-81,148r-100,0r206,-341r-198,-333r101,0r89,158v25,44,44,78,62,114r3,0v19,-40,36,-71,61,-114r91,-158r101,0r-205,328","w":571},"Y":{"d":"314,0r-88,0r0,-286r-214,-388r100,0r95,186v25,51,46,92,67,139r2,0v18,-44,42,-88,68,-139r97,-186r98,0r-225,387r0,287","w":541},"Z":{"d":"30,0r0,-51r373,-547r0,-3r-341,0r0,-73r455,0r0,53r-372,545r0,3r377,0r0,73r-492,0","w":553},"[":{"d":"264,112r-183,0r0,-798r183,0r0,55r-114,0r0,688r114,0r0,55","w":284},"\\":{"d":"342,39r-68,0r-272,-725r68,0","w":341},"]":{"d":"20,-686r183,0r0,798r-183,0r0,-55r114,0r0,-688r-114,0r0,-55","w":284},"^":{"d":"536,-189r-70,0r-167,-388r-2,0r-167,388r-69,0r206,-461r63,0","w":596},"_":{"d":"0,75r500,0r0,50r-500,0r0,-50","w":500},"\u2018":{"d":"125,-458r-90,10v23,-84,66,-192,93,-238r56,-6v-21,59,-48,162,-59,234","w":207},"a":{"d":"413,-297r0,181v0,42,2,83,7,116r-79,0r-7,-61r-3,0v-27,38,-79,72,-148,72v-98,0,-148,-69,-148,-139v0,-117,104,-181,291,-180r0,-10v0,-39,-11,-112,-110,-111v-46,0,-93,13,-127,36r-20,-59v40,-25,99,-42,160,-42v148,0,184,101,184,197xm328,-163r0,-84v-96,-2,-205,15,-205,109v0,58,38,84,82,84v64,0,105,-40,119,-81v3,-10,4,-20,4,-28","w":482},"b":{"d":"73,-125r0,-585r87,0r0,304r2,0v31,-54,87,-88,165,-88v121,0,205,100,205,246v0,173,-110,259,-218,259v-70,0,-126,-27,-163,-90r-2,0r-5,79r-75,0v2,-33,4,-82,4,-125xm160,-280r0,86v0,11,1,22,4,32v16,61,68,103,132,103v93,0,147,-75,147,-186v0,-97,-50,-180,-145,-180v-59,0,-115,42,-133,108v-3,11,-5,23,-5,37","w":569},"c":{"d":"403,-83r15,66v-23,11,-74,28,-139,28v-146,0,-241,-99,-241,-247v0,-149,102,-258,260,-258v52,0,98,13,122,26r-20,67v-21,-11,-54,-23,-102,-23v-111,0,-171,83,-171,183v0,112,72,181,168,181v50,0,83,-12,108,-23","w":448},"d":{"d":"403,-710r87,0r0,585v0,43,2,92,4,125r-78,0r-4,-84r-3,0v-26,54,-84,95,-163,95v-117,0,-208,-99,-208,-246v-1,-161,100,-259,217,-259v75,0,124,35,146,73r2,0r0,-289xm403,-203r0,-84v0,-11,-1,-26,-4,-37v-13,-55,-61,-101,-127,-101v-91,0,-145,80,-145,186v0,98,49,179,143,179v59,0,113,-40,129,-105v3,-12,4,-24,4,-38","w":564},"e":{"d":"462,-226r-340,0v2,119,77,168,166,168v63,0,102,-11,134,-25r16,63v-31,14,-85,31,-162,31v-149,0,-238,-99,-238,-245v0,-146,86,-260,227,-260v159,0,200,138,200,227v0,18,-1,31,-3,41xm123,-289r257,0v1,-55,-23,-142,-122,-142v-90,0,-128,81,-135,142","w":501},"f":{"d":"169,0r-87,0r0,-417r-67,0r0,-67r67,0r0,-23v0,-68,16,-130,56,-169v33,-32,77,-45,118,-45v32,0,58,7,75,14r-12,68v-13,-6,-30,-11,-56,-11v-75,0,-94,65,-94,140r0,26r117,0r0,67r-117,0r0,417","w":292},"g":{"d":"487,-352r0,281v0,112,-23,179,-69,222v-48,43,-116,58,-177,58v-58,0,-122,-14,-161,-40r22,-68v32,21,82,39,142,39v90,0,156,-47,156,-170r0,-53r-2,0v-26,45,-79,81,-154,81v-120,0,-206,-102,-206,-236v0,-164,107,-256,219,-256v84,0,129,43,151,83r2,0r3,-73r78,0v-3,34,-4,74,-4,132xm399,-206r0,-87v0,-15,-1,-28,-5,-39v-16,-52,-58,-94,-123,-94v-84,0,-144,71,-144,183v0,95,49,174,143,174v55,0,104,-34,122,-90v5,-15,7,-32,7,-47","w":559},"h":{"d":"73,0r0,-710r88,0r0,303r2,0v14,-25,36,-48,63,-63v26,-15,57,-24,90,-24v65,0,169,40,169,206r0,288r-88,0r0,-278v0,-78,-29,-143,-112,-143v-57,0,-101,40,-118,87v-5,13,-6,26,-6,42r0,292r-88,0","w":555},"i":{"d":"161,0r-88,0r0,-484r88,0r0,484xm117,-675v32,0,54,24,54,55v0,30,-21,54,-56,54v-32,0,-53,-24,-53,-54v0,-30,22,-55,55,-55","w":234},"j":{"d":"-36,211r-10,-69v41,-3,75,-14,96,-38v24,-27,34,-65,34,-181r0,-407r88,0r0,441v0,94,-15,155,-58,199v-39,39,-103,55,-150,55xm128,-675v33,0,54,25,54,55v0,29,-20,54,-56,54v-32,0,-53,-25,-53,-54v0,-30,22,-55,55,-55","w":243},"k":{"d":"160,-710r0,448r2,0v12,-17,28,-38,42,-55r143,-167r105,0r-186,199r213,285r-108,0r-166,-232r-45,50r0,182r-87,0r0,-710r87,0","w":469},"l":{"d":"73,0r0,-710r88,0r0,710r-88,0","w":236},"m":{"d":"73,0r0,-353v0,-51,-2,-91,-4,-131r77,0r4,79r3,0v27,-46,72,-89,153,-89v65,0,115,40,136,97r2,0v15,-28,35,-48,55,-63v29,-22,60,-34,106,-34v65,0,160,42,160,210r0,284r-86,0r0,-273v0,-94,-35,-149,-105,-149v-51,0,-89,37,-105,79v-4,13,-7,28,-7,44r0,299r-86,0r0,-290v0,-77,-34,-132,-101,-132v-54,0,-95,44,-109,88v-5,12,-7,28,-7,43r0,291r-86,0","w":834},"n":{"d":"73,0r0,-353v0,-51,-1,-91,-4,-131r78,0r5,80r2,0v24,-45,80,-90,160,-90v67,0,171,40,171,206r0,288r-88,0r0,-279v0,-78,-29,-143,-112,-143v-57,0,-102,41,-118,90v-4,11,-6,26,-6,41r0,291r-88,0","w":555},"o":{"d":"278,-494v139,0,233,101,233,248v0,179,-125,257,-241,257v-130,0,-232,-96,-232,-249v0,-161,107,-256,240,-256xm276,-428v-103,0,-148,96,-148,187v0,106,60,186,146,186v84,0,147,-79,147,-188v0,-82,-41,-185,-145,-185","w":549},"p":{"d":"73,198r0,-524v0,-62,-2,-112,-4,-158r78,0r5,83r2,0v35,-59,93,-93,172,-93v118,0,206,99,206,245v0,174,-107,260,-221,260v-64,0,-120,-28,-149,-76r-2,0r0,263r-87,0xm160,-281r0,84v0,13,1,25,4,36v16,61,69,103,132,103v93,0,147,-76,147,-187v0,-96,-51,-179,-144,-179v-60,0,-117,42,-133,108v-3,11,-6,24,-6,35","w":569},"q":{"d":"403,198r0,-272r-2,0v-27,47,-80,85,-158,85v-113,0,-205,-97,-205,-244v0,-182,117,-261,219,-261v75,0,125,37,149,83r2,0r3,-73r83,0v-2,40,-4,83,-4,133r0,549r-87,0xm403,-197r0,-91v0,-12,-1,-25,-4,-36v-14,-54,-60,-100,-126,-100v-91,0,-146,77,-146,185v0,97,46,180,143,180v57,0,106,-35,126,-95v4,-13,7,-30,7,-43","w":563},"r":{"d":"73,0r0,-333v0,-57,-1,-106,-4,-151r77,0r4,96r3,0v22,-65,76,-106,135,-106v9,0,16,1,24,2r0,83v-9,-2,-18,-2,-30,-2v-62,0,-106,46,-118,112v-2,12,-3,27,-3,41r0,258r-88,0","w":327},"s":{"d":"40,-23r21,-66v27,16,73,34,117,34v63,0,93,-31,93,-72v0,-42,-25,-64,-89,-88v-88,-32,-129,-79,-129,-137v0,-78,64,-142,167,-142v49,0,92,13,118,30r-21,64v-19,-12,-54,-29,-99,-29v-52,0,-80,30,-80,66v0,40,28,58,91,83v83,31,127,73,127,145v0,86,-67,146,-180,146v-53,0,-102,-14,-136,-34","w":396},"t":{"d":"93,-574r86,-26r0,116r126,0r0,67r-126,0r0,261v0,60,17,94,66,94v24,0,38,-2,51,-6r4,67v-17,6,-44,12,-78,12v-41,0,-74,-14,-95,-37v-24,-27,-34,-70,-34,-127r0,-264r-75,0r0,-67r75,0r0,-90","w":331},"u":{"d":"478,-484r0,351v0,51,1,95,4,133r-78,0r-5,-79r-2,0v-22,39,-74,90,-160,90v-76,0,-167,-43,-167,-212r0,-283r88,0r0,267v0,92,29,155,108,155v59,0,100,-41,116,-81v5,-12,8,-28,8,-45r0,-296r88,0","w":551},"v":{"d":"13,-484r94,0r95,271v16,45,29,85,39,125r3,0v11,-40,25,-80,41,-125r94,-271r92,0r-190,484r-84,0","w":481},"w":{"d":"18,-484r90,0r65,246v13,54,26,104,35,154r3,0v11,-49,27,-101,43,-153r79,-247r74,0r75,242v18,58,32,109,43,158r3,0v8,-49,21,-100,37,-157r69,-243r87,0r-156,484r-80,0r-74,-231v-17,-54,-31,-102,-43,-159r-2,0v-12,58,-27,108,-44,160r-78,230r-80,0","w":736},"x":{"d":"16,-484r98,0r69,104v19,27,34,51,50,78r2,0v16,-28,32,-53,49,-79r67,-103r96,0r-165,234r169,250r-99,0r-72,-109v-19,-28,-35,-55,-52,-84r-2,0v-16,29,-32,55,-51,84r-70,109r-97,0r172,-247","w":463},"y":{"d":"9,-484r96,0r105,286v12,32,24,70,32,99r2,0v9,-29,19,-66,31,-101r96,-284r93,0r-132,345v-63,166,-106,250,-166,303v-44,37,-86,52,-108,56r-22,-73v22,-7,51,-21,77,-43v24,-19,53,-53,74,-98v4,-9,7,-16,7,-21v0,-5,-2,-12,-7,-23","w":471},"z":{"d":"18,0r0,-51r218,-285r64,-76r0,-2r-262,0r0,-70r368,0r0,55r-216,281v-21,27,-40,52,-62,76r0,2r282,0r0,70r-392,0","w":428},"{":{"d":"28,-263r0,-51v70,0,80,-39,81,-74v0,-28,-4,-56,-8,-83v-4,-29,-8,-57,-8,-84v0,-92,61,-131,146,-131r20,0r0,55r-17,0v-59,1,-80,32,-80,86v0,23,4,47,7,71v4,25,8,49,8,76v1,64,-28,96,-73,108r0,2v45,12,73,45,73,109v0,27,-4,52,-8,77v-3,24,-7,48,-7,72v0,56,24,86,80,87r17,0r0,55r-21,0v-82,0,-145,-36,-145,-137v0,-27,4,-55,9,-82v3,-28,7,-55,7,-81v0,-32,-10,-75,-81,-75","w":284},"|":{"d":"86,-750r67,0r0,1000r-67,0r0,-1000","w":239},"}":{"d":"256,-314r0,51v-70,0,-80,43,-81,75v0,26,4,53,8,81v4,27,8,55,8,82v0,101,-63,137,-145,137r-21,0r0,-55r17,0v56,-1,80,-31,80,-87v0,-24,-4,-48,-7,-72v-4,-25,-8,-50,-8,-77v-1,-64,28,-97,73,-109r0,-2v-45,-12,-73,-44,-73,-108v0,-27,4,-51,8,-76v3,-24,7,-48,7,-71v0,-54,-21,-85,-80,-86r-17,0r0,-55r20,0v85,0,146,39,146,131v0,27,-4,55,-8,84v-4,27,-8,55,-8,83v0,35,10,74,81,74","w":284},"~":{"d":"109,-210r-60,0v-3,-100,50,-151,119,-151v42,0,74,13,142,45v50,24,87,42,124,42v36,0,53,-29,54,-84r59,0v5,111,-52,151,-114,151v-40,0,-76,-12,-145,-44v-47,-23,-84,-44,-120,-44v-36,0,-58,25,-59,85","w":596},"\u00a1":{"d":"163,195r-96,0r14,-477r68,0xm116,-488v35,0,58,26,58,63v0,34,-23,61,-59,61v-35,0,-59,-27,-59,-61v0,-37,25,-63,60,-63","w":230},"\u00a2":{"d":"331,14r-63,0r0,-101v-64,-7,-108,-31,-144,-70v-35,-38,-57,-96,-57,-169v0,-129,79,-227,201,-247r0,-100r63,0r0,98v45,1,85,13,109,25r-20,67v-21,-12,-55,-25,-105,-25v-98,0,-160,80,-160,179v0,110,69,175,157,175v54,0,90,-13,114,-25r15,64v-19,11,-61,26,-110,29r0,100","w":513},"\u00a3":{"d":"471,0r-415,0r0,-50v67,-34,114,-100,114,-175v0,-24,-1,-44,-5,-70r-103,0r0,-63r93,0v-5,-30,-11,-69,-11,-108v0,-118,81,-195,192,-195v52,0,88,12,109,25r-19,66v-18,-10,-48,-20,-90,-20v-78,0,-109,54,-109,125v0,43,5,75,11,107r144,0r0,63r-136,0v3,38,5,76,-4,112v-11,43,-35,79,-69,108r0,2r298,0r0,73","w":513},"\u2044":{"d":"-101,11r-56,0r380,-672r56,0","w":121},"\u00a5":{"d":"292,0r-83,0r0,-176r-155,0r0,-49r155,0r0,-73r-155,0r0,-49r131,0r-169,-303r94,0r104,206v16,34,28,61,40,91r3,0v10,-28,23,-59,40,-93r108,-204r92,0r-179,303r130,0r0,49r-156,0r0,73r156,0r0,49r-156,0r0,176","w":513},"\u0192":{"d":"111,-338r0,-64r99,0r6,-46v12,-98,56,-213,191,-213v30,1,54,7,68,15r-16,64v-15,-6,-32,-10,-52,-10v-68,0,-98,65,-106,139r-6,51r120,0r0,64r-128,0r-24,204v-16,130,-57,218,-174,218v-33,0,-61,-7,-78,-17r16,-62v17,8,35,11,56,11v62,0,85,-55,97,-157r23,-197r-92,0","w":513},"\u00a7":{"d":"131,-350v0,35,26,65,105,94v51,18,91,33,114,48v24,-18,38,-46,38,-77v0,-38,-24,-70,-89,-93v-39,-15,-90,-31,-123,-51v-32,23,-45,48,-45,79xm418,-650r-22,57v-25,-16,-65,-32,-119,-32v-59,0,-104,29,-104,74v0,52,50,71,125,96v92,30,162,67,162,157v0,53,-25,91,-64,121v16,15,38,48,38,89v0,104,-96,150,-190,150v-60,0,-119,-14,-157,-42r24,-57v24,17,73,40,133,40v63,0,111,-29,111,-81v0,-47,-29,-72,-122,-105v-102,-35,-174,-72,-174,-157v0,-38,21,-83,74,-118v-21,-15,-37,-49,-37,-83v0,-88,81,-142,184,-142v56,0,104,14,138,33","w":519},"\u00a4":{"d":"257,-534v46,0,88,16,115,40r71,-75r45,46r-79,71v20,27,35,69,35,118v0,54,-16,97,-35,122r75,74r-44,44r-69,-76v-30,28,-77,42,-117,42v-41,0,-87,-15,-114,-40r-67,74r-43,-44r72,-70v-20,-27,-37,-71,-37,-121v0,-52,17,-95,39,-123r-76,-71r45,-46r68,76v29,-25,71,-41,116,-41xm254,-471v-73,0,-118,63,-118,141v0,97,66,139,118,139v56,0,119,-39,119,-142v0,-70,-41,-138,-119,-138","w":513},"'":{"d":"51,-692r87,0r-17,240r-54,0","w":188},"\u201c":{"d":"125,-458r-90,10v23,-84,66,-192,93,-238r56,-6v-21,59,-48,162,-59,234xm273,-458r-90,10v23,-84,66,-192,93,-238r56,-6v-22,59,-48,162,-59,234","w":354},"\u00ab":{"d":"232,-436r-133,184r134,184r-72,0r-132,-184r132,-184r71,0xm396,-436r-133,184r133,184r-71,0r-132,-184r132,-184r71,0","w":419},"\u2039":{"d":"232,-436r-133,184r133,184r-71,0r-132,-184r132,-184r71,0","w":255},"\u203a":{"d":"157,-252r-133,-184r70,0r133,184r-133,184r-70,0","w":255},"\ufb01":{"d":"169,0r-87,0r0,-417r-67,0r0,-67r67,0r0,-27v0,-127,75,-210,211,-210v45,0,98,14,123,32r-25,67v-22,-15,-59,-28,-102,-28v-93,0,-120,65,-120,142r0,24r281,0r0,484r-88,0r0,-417r-193,0r0,417","w":523},"\ufb02":{"d":"169,0r-87,0r0,-417r-67,0r0,-67r67,0r0,-21v0,-68,23,-128,68,-167v38,-32,88,-49,156,-49v56,0,108,12,145,32r0,689r-88,0r0,-640v-15,-8,-38,-13,-72,-13v-91,0,-122,67,-122,144r0,25r113,0r0,67r-113,0r0,417","w":523},"\u2013":{"d":"30,-284r440,0r0,60r-440,0r0,-60","w":500},"\u2020":{"d":"209,-674r82,0r-8,211r174,-7r0,72r-174,-8r8,456r-82,0r8,-456r-174,8r0,-72r174,7","w":500},"\u2021":{"d":"210,-674r81,0r-6,201r172,-7r0,72r-172,-8r0,204r172,-8r0,72r-172,-7r6,205r-81,0r6,-205r-172,7r0,-72r172,8r0,-204r-172,8r0,-72r172,7","w":500},"\u00b7":{"d":"102,-200v-34,0,-58,-27,-58,-62v0,-37,25,-63,60,-63v35,0,59,26,59,63v0,35,-24,62,-61,62","w":207},"\u00b6":{"d":"293,49r-62,0r0,-314r-7,0v-79,0,-188,-61,-190,-190v-1,-104,56,-221,275,-221v53,0,92,3,117,8r0,717r-62,0r0,-665r-71,0r0,665","w":512},"\u2022":{"d":"140,-157v-57,0,-104,-46,-104,-105v-1,-58,47,-105,105,-105v58,0,105,46,105,105v0,58,-47,105,-106,105","w":282},"\u201a":{"d":"77,112r-56,6v21,-59,48,-162,59,-234r90,-10v-23,84,-66,192,-93,238","w":207},"\u201e":{"d":"76,112r-56,6v22,-59,48,-162,59,-234r90,-10v-23,84,-66,192,-93,238xm224,112r-56,6v21,-59,48,-162,59,-234r90,-10v-23,84,-66,192,-93,238","w":356},"\u201d":{"d":"93,-682r90,-10v-23,84,-66,192,-93,238r-56,6v22,-59,48,-162,59,-234xm241,-682r90,-10v-23,84,-66,192,-93,238r-56,6v21,-59,48,-162,59,-234","w":354},"\u00bb":{"d":"157,-252r-133,-184r70,0r133,184r-133,184r-70,0xm320,-252r-134,-184r71,0r133,184r-133,184r-70,0","w":419},"\u2026":{"d":"165,11v-34,0,-58,-27,-58,-63v0,-36,25,-63,60,-63v35,0,59,26,59,63v0,36,-24,63,-61,63xm498,11v-34,0,-58,-27,-58,-63v0,-36,25,-63,60,-63v35,0,59,26,59,63v0,36,-24,63,-61,63xm831,11v-34,0,-58,-27,-58,-63v0,-36,25,-63,60,-63v35,0,59,26,59,63v0,36,-24,63,-61,63","w":1000},"\u2030":{"d":"188,-661v90,0,149,70,149,193v0,137,-71,205,-155,205v-82,0,-151,-65,-152,-195v0,-130,70,-203,158,-203xm183,-608v-54,0,-84,65,-84,146v-2,83,30,146,85,146v58,0,84,-62,84,-147v0,-80,-23,-145,-85,-145xm231,12r-56,0r383,-674r56,0xm612,-392v90,0,149,70,149,194v0,137,-71,205,-155,205v-82,0,-151,-65,-152,-196v0,-130,70,-203,158,-203xm607,-339v-54,0,-84,65,-84,147v-2,83,30,146,85,146v58,0,84,-62,84,-148v0,-79,-23,-145,-85,-145xm977,-392v90,0,149,70,149,194v0,137,-71,205,-155,205v-82,0,-151,-65,-152,-196v0,-130,70,-203,158,-203xm972,-339v-54,0,-84,65,-84,147v-2,83,30,146,85,146v58,0,84,-62,84,-148v0,-79,-23,-145,-85,-145","w":1156},"\u00bf":{"d":"238,-488v35,0,58,26,58,63v0,35,-23,62,-59,62v-35,0,-59,-27,-59,-62v0,-37,24,-63,60,-63xm197,-286r77,0r3,26v6,54,-13,114,-62,174v-45,53,-70,92,-70,137v0,51,32,86,95,86v36,0,75,-12,102,-31r23,63v-34,23,-90,40,-143,40v-115,0,-167,-71,-167,-147v0,-68,38,-117,87,-174v44,-53,60,-97,56,-148","w":406},"`":{"d":"22,-693r96,0r88,143r-62,0"},"\u00b4":{"d":"189,-693r96,0r-122,143r-62,0"},"\u02c6":{"d":"119,-693r61,0r96,143r-67,0r-58,-94r-2,0r-58,94r-66,0"},"\u02dc":{"d":"75,-567r-48,0v-2,-65,25,-104,68,-104v22,0,39,10,62,22v16,9,30,17,43,17v15,0,25,-9,27,-42r47,0v1,66,-21,101,-68,101v-22,0,-41,-10,-62,-21v-20,-12,-31,-18,-43,-18v-16,0,-24,17,-26,45"},"\u00af":{"d":"38,-643r225,0r0,57r-225,0r0,-57"},"\u02d8":{"d":"26,-682r52,0v6,39,31,69,71,69v48,0,70,-35,73,-69r52,0v0,75,-49,125,-124,125v-88,0,-124,-62,-124,-125"},"\u02d9":{"d":"139,-570v-29,0,-50,-24,-50,-51v0,-29,23,-52,51,-52v28,0,49,23,49,52v0,27,-20,51,-50,51"},"\u00a8":{"d":"56,-570v-28,0,-49,-24,-49,-51v0,-28,22,-51,51,-51v27,0,48,22,48,51v0,27,-20,51,-50,51xm242,-570v-29,0,-49,-24,-49,-51v0,-28,22,-51,50,-51v28,0,49,22,49,51v0,27,-20,51,-50,51"},"\u02da":{"d":"142,-537v-59,0,-101,-40,-101,-91v0,-53,40,-94,102,-94v60,0,99,40,99,94v0,52,-43,91,-100,91xm142,-574v31,0,51,-25,51,-55v0,-31,-20,-56,-52,-56v-31,0,-49,26,-49,57v0,27,20,54,50,54"},"\u00b8":{"d":"135,-3r55,0r-33,53v36,4,70,30,70,69v0,59,-49,81,-105,81v-24,0,-51,-7,-68,-17r15,-43v17,9,37,14,54,14v22,0,44,-8,43,-31v0,-26,-31,-38,-78,-42"},"\u02dd":{"d":"123,-693r86,0r-110,136r-55,0xm267,-693r86,0r-110,136r-55,0"},"\u02db":{"d":"123,-4r57,0v-15,19,-53,62,-53,100v0,31,20,50,50,50v18,0,34,-4,46,-10r14,46v-21,15,-56,23,-80,23v-56,0,-94,-30,-94,-86v0,-50,36,-97,60,-123"},"\u02c7":{"d":"183,-550r-63,0r-96,-143r67,0r59,95r2,0r59,-95r66,0"},"\u2014":{"d":"30,-284r940,0r0,60r-940,0r0,-60","w":1000},"\u00c6":{"d":"89,0r-90,0r308,-674r422,0r-1,73r-286,0r26,215r251,0r0,72r-240,0r30,241r247,0r-1,73r-321,0r-30,-237r-207,0xm226,-308r168,0r-22,-194v-4,-31,-10,-75,-12,-109r-4,0v-12,32,-28,70,-43,106","w":788},"\u00aa":{"d":"304,-266r-59,0r-5,-42r-2,0v-20,24,-55,47,-102,47v-66,0,-103,-43,-103,-96v0,-71,72,-116,201,-113r0,-10v0,-16,-9,-62,-75,-62v-32,0,-62,9,-85,26r-16,-42v29,-21,71,-33,114,-33v100,0,127,68,127,140r0,107v0,27,2,54,5,78xm235,-372r0,-55v-63,-2,-136,10,-136,66v0,34,27,52,58,52v30,0,56,-17,68,-37v7,-9,10,-20,10,-26","w":346},"\u0141":{"d":"455,0r-376,0r0,-269r-84,61r0,-67r84,-61r0,-338r88,0r0,278r134,-97r0,68r-134,97r0,255r288,0r0,73","w":476},"\u00d8":{"d":"112,43r-49,-40r62,-87v-56,-61,-89,-149,-89,-250v0,-213,134,-352,311,-352v62,0,120,18,168,54r59,-81r53,36r-62,86v56,61,87,149,87,248v0,235,-145,354,-307,354v-63,0,-122,-19,-170,-54xm176,-158r296,-411v-34,-29,-76,-47,-127,-47v-146,0,-220,136,-220,278v0,75,19,129,49,181xm513,-516r-295,409v33,31,71,48,126,48v140,0,219,-130,219,-281v0,-58,-12,-118,-47,-176r-3,0","w":689},"\u0152":{"d":"857,-73r0,73r-345,0v-20,0,-42,3,-66,6v-25,2,-52,5,-83,5v-210,0,-327,-150,-327,-343v0,-222,138,-354,332,-354v35,0,63,3,88,6v25,3,46,6,64,6r322,0r0,73r-277,0r0,214r261,0r0,72r-261,0r0,242r292,0xm477,-73r0,-527v-26,-9,-58,-15,-107,-15v-150,0,-242,114,-242,279v0,164,92,276,251,276v37,0,76,-5,98,-13","w":894},"\u00ba":{"d":"180,-591v96,0,157,69,157,163v-1,115,-83,167,-160,167v-89,0,-159,-64,-159,-162v0,-104,75,-168,162,-168xm176,-541v-63,0,-91,63,-91,117v0,65,43,113,93,113v53,0,92,-46,92,-115v0,-50,-27,-115,-94,-115","w":355},"\u00e6":{"d":"734,-233r-325,0v-3,115,64,176,155,176v67,0,106,-15,132,-27r16,62v-38,20,-95,33,-159,33v-83,0,-156,-38,-184,-107r-3,0v-30,67,-96,107,-179,107v-101,0,-151,-68,-151,-138v0,-112,104,-178,291,-175r0,-20v0,-24,-14,-107,-112,-107v-46,0,-95,16,-124,36r-21,-57v43,-28,103,-44,151,-44v87,0,136,40,156,102r2,0v32,-63,92,-102,169,-102v148,0,189,142,189,222v0,15,-1,30,-3,39xm329,-172r0,-71v-93,-2,-206,14,-206,109v0,51,38,80,84,80v63,1,103,-38,117,-83v3,-11,5,-23,5,-35xm409,-296r244,0v2,-49,-25,-136,-114,-136v-88,0,-127,81,-130,136","w":773},"\u0131":{"d":"161,0r-88,0r0,-484r88,0r0,484","w":234},"\u0142":{"d":"165,0r-88,0r0,-288r-68,58r0,-69r68,-58r0,-353r88,0r0,285r71,-61r0,70r-71,61r0,355","w":242},"\u00f8":{"d":"277,-494v43,0,86,11,122,34r42,-60r39,27r-43,63v47,45,74,109,74,185v0,177,-123,256,-236,256v-45,0,-88,-11,-123,-34r-44,61r-37,-30r42,-60v-46,-44,-75,-107,-75,-187v0,-160,106,-255,239,-255xm161,-119r198,-280v-22,-19,-50,-29,-85,-29v-107,0,-150,100,-150,187v0,43,10,86,35,121xm389,-361r-198,278v24,20,51,28,81,28v92,0,153,-79,153,-187v0,-34,-8,-80,-34,-119r-2,0","w":549},"\u0153":{"d":"824,-227r-329,0v0,110,68,169,161,169v60,0,97,-13,129,-27r17,63v-39,22,-104,33,-157,33v-84,0,-154,-35,-192,-114r-2,0v-36,78,-113,114,-187,114v-128,0,-226,-97,-226,-250v0,-157,102,-255,232,-255v82,0,152,42,182,115r2,0v36,-77,102,-115,177,-115v155,0,195,141,195,226v0,17,-1,32,-2,41xm270,-428v-105,0,-142,104,-142,187v0,105,60,186,143,186v85,0,142,-76,142,-187v0,-92,-42,-186,-143,-186xm494,-290r248,0v1,-54,-22,-141,-118,-141v-87,0,-124,81,-130,141","w":863},"\u00df":{"d":"161,0r-88,0r0,-452v0,-114,27,-178,72,-218v37,-34,85,-51,146,-51v95,0,178,59,178,169v0,34,-12,65,-24,82v-45,19,-71,47,-71,81v0,34,20,55,51,87v40,40,81,82,81,154v0,94,-68,159,-179,159v-37,0,-77,-6,-106,-21r16,-67v26,13,54,20,84,20v64,0,98,-38,98,-84v0,-42,-19,-70,-54,-103v-42,-40,-78,-77,-78,-133v0,-51,31,-95,90,-123v5,-12,8,-27,8,-43v0,-69,-42,-109,-104,-109v-77,0,-120,54,-120,196r0,456","w":548},"\u00b9":{"d":"177,-443r-70,0r0,-328r-2,0r-72,35r-11,-52r94,-45r61,0r0,390","w":244},"\u00ac":{"d":"40,-399r516,0r0,278r-64,0r0,-218r-452,0r0,-60","w":596},"\u00b5":{"d":"403,-75r-3,0v-20,38,-67,84,-139,84v-44,0,-85,-16,-106,-53r0,59v0,54,2,143,11,183r-79,0v-10,-30,-14,-101,-14,-179r0,-503r88,0r0,286v0,75,31,137,109,137v58,0,99,-41,115,-81v5,-13,8,-29,8,-46r0,-296r88,0r0,351v0,53,10,74,46,76r-7,64v-11,3,-16,4,-31,4v-43,0,-78,-24,-86,-86","w":553},"\u2122":{"d":"31,-674r227,0r0,45r-87,0r0,227r-54,0r0,-227r-86,0r0,-45xm606,-402r-54,0r-10,-160v-1,-21,-1,-47,-2,-76r-3,0r-23,81r-49,151r-56,0r-49,-155r-19,-77r-3,0v0,25,-1,51,-2,76r-10,160r-52,0r20,-272r81,0r47,133v7,21,11,41,18,69r1,0v7,-24,13,-48,19,-67r47,-135r78,0","w":619},"\u00d0":{"d":"-1,-307r0,-70r82,0r0,-290v53,-9,116,-15,185,-15v124,0,214,29,272,84v61,54,96,134,96,245v0,111,-35,200,-97,263v-64,63,-168,97,-298,97v-63,0,-114,-3,-158,-7r0,-307r-82,0xm348,-377r0,70r-180,0r0,240v22,3,54,4,87,4v187,0,287,-103,287,-289v1,-162,-89,-261,-272,-261v-45,0,-79,4,-102,9r0,227r180,0","w":671},"\u00bd":{"d":"184,-266r-70,0r0,-329r-2,0r-72,35r-11,-52r94,-44r61,0r0,390xm175,11r-56,0r379,-672r56,0xm440,0r0,-37r63,-58v83,-77,126,-123,126,-174v0,-39,-24,-70,-76,-70v-35,0,-65,17,-84,31r-21,-46v27,-22,72,-41,123,-41v94,0,132,59,132,112v0,76,-57,130,-133,198r-30,28r0,2r170,0r0,55r-270,0","w":759},"\u00b1":{"d":"266,-571r64,0r0,194r226,0r0,60r-226,0r0,200r-64,0r0,-200r-226,0r0,-60r226,0r0,-194xm40,-60r516,0r0,60r-516,0r0,-60","w":596},"\u00de":{"d":"76,0r0,-674r86,0r0,131v27,-5,60,-7,96,-7v79,0,137,18,178,55v35,32,55,79,55,130v0,143,-107,214,-253,214v-28,0,-55,-2,-76,-5r0,156r-86,0xm162,-473r0,246v23,5,49,6,75,6v108,0,167,-52,167,-134v0,-87,-63,-126,-154,-126v-40,0,-72,4,-88,8","w":531},"\u00bc":{"d":"198,-266r-70,0r0,-329r-2,0r-72,35r-11,-52r94,-44r61,0r0,390xm195,11r-57,0r380,-672r56,0xm663,0r-66,0r0,-103r-200,0r0,-39r193,-253r73,0r0,243r60,0r0,49r-60,0r0,103xm597,-152r0,-118v0,-24,2,-45,3,-63r-2,0v-13,21,-22,38,-33,55r-96,125r1,1r127,0","w":759},"\u00f7":{"d":"297,-387v-31,0,-52,-24,-52,-55v0,-33,22,-56,53,-56v32,0,53,23,53,56v0,31,-21,55,-54,55xm556,-237r-516,0r0,-60r516,0r0,60xm297,-36v-31,0,-52,-24,-52,-55v0,-33,22,-56,53,-56v32,0,53,23,53,56v0,31,-21,55,-54,55","w":596},"\u00a6":{"d":"86,-174r67,0r0,350r-67,0r0,-350xm86,-674r67,0r0,350r-67,0r0,-350","w":239},"\u00b0":{"d":"163,-686v82,0,131,62,131,130v0,81,-65,134,-134,134v-78,0,-131,-59,-131,-129v0,-77,59,-135,134,-135xm160,-639v-51,0,-77,45,-77,88v0,46,33,82,78,82v46,0,79,-37,79,-86v0,-37,-22,-84,-80,-84","w":318},"\u00fe":{"d":"73,-669r87,0r0,262r2,0v32,-52,86,-87,165,-87v114,-1,205,96,205,246v0,177,-111,259,-221,259v-64,0,-118,-28,-149,-76r-2,0r0,263r-87,0r0,-867xm160,-280r0,89v0,14,3,32,9,44v20,55,71,89,129,89v87,0,145,-73,145,-188v0,-96,-52,-178,-143,-178v-56,0,-110,36,-130,95v-5,14,-10,33,-10,49","w":569},"\u00be":{"d":"66,-582r-17,-47v23,-16,65,-32,114,-32v87,0,123,46,123,94v0,41,-29,74,-76,90r0,2v54,8,93,46,93,97v0,62,-56,117,-158,117v-48,0,-92,-13,-115,-28r18,-50v16,11,56,26,93,26v62,0,89,-36,88,-67v0,-51,-53,-71,-106,-70r-27,0r0,-46r27,0v37,0,91,-17,91,-63v0,-25,-18,-50,-64,-50v-36,0,-68,16,-84,27xm232,11r-57,0r380,-672r56,0xm674,0r-66,0r0,-103r-200,0r0,-39r193,-253r73,0r0,243r60,0r0,49r-60,0r0,103xm608,-152r0,-118v0,-24,2,-45,3,-63r-2,0v-13,22,-22,39,-33,55r-97,125r1,1r128,0","w":759},"\u00b2":{"d":"12,-443r0,-37r63,-58v83,-76,126,-123,126,-174v0,-38,-24,-69,-76,-69v-35,0,-65,17,-84,31r-21,-46v27,-22,72,-41,123,-41v94,0,132,59,132,112v0,75,-57,130,-133,197r-30,28r0,2r170,0r0,55r-270,0","w":311},"\u00ae":{"d":"184,-499r0,65r-38,0r0,-164v15,-2,36,-5,63,-5v31,0,45,5,56,13v10,7,17,19,17,35v0,20,-15,33,-34,39r0,2v16,5,24,18,29,40v5,25,9,34,12,40r-40,0v-5,-6,-8,-20,-13,-40v-3,-17,-13,-25,-34,-25r-18,0xm185,-573r0,47r18,0v21,0,38,-7,38,-24v0,-15,-11,-25,-35,-25v-10,0,-17,1,-21,2xm211,-683v93,0,167,72,167,164v0,92,-74,165,-168,165v-94,0,-169,-73,-169,-165v0,-92,75,-164,170,-164xm209,-650v-71,0,-126,59,-126,131v0,73,55,131,128,131v71,1,125,-58,125,-130v0,-73,-54,-132,-127,-132","w":419},"\u2212":{"d":"40,-297r516,0r0,60r-516,0r0,-60","w":596},"\u00f0":{"d":"268,-55v87,0,143,-78,143,-188v0,-63,-9,-103,-34,-134v-22,-25,-55,-47,-106,-47v-104,0,-143,107,-143,187v0,102,59,182,140,182xm116,-507r-19,-43r116,-55v-29,-22,-67,-43,-104,-60r39,-55v47,21,97,50,140,81r127,-61r22,44r-106,50v55,45,98,99,127,159v28,56,43,120,43,195v0,185,-119,263,-234,263v-131,0,-229,-96,-229,-247v0,-156,109,-247,223,-248v38,0,74,7,113,43r2,-3v-29,-47,-67,-90,-118,-129","w":541},"\u00d7":{"d":"40,-482r44,-44r214,219r214,-219r44,44r-215,219r215,219r-44,44r-214,-219r-214,219r-44,-44r214,-219","w":596},"\u00b3":{"d":"45,-759r-17,-48v23,-15,66,-31,115,-31v86,0,122,46,122,94v0,41,-29,74,-77,91r0,2v54,8,93,46,93,97v0,61,-56,117,-158,117v-48,0,-92,-13,-115,-28r18,-50v16,10,56,26,93,26v62,0,89,-36,88,-67v0,-51,-53,-71,-106,-71r-27,0r0,-46r28,0v37,0,91,-17,91,-63v0,-25,-18,-50,-63,-50v-36,0,-69,16,-85,27","w":305},"\u00a9":{"d":"341,-648v168,0,300,138,300,308v0,172,-132,310,-301,310v-170,0,-304,-138,-304,-310v0,-170,134,-308,305,-308xm339,-607v-143,0,-253,118,-253,270v0,149,110,266,254,266v141,2,251,-117,251,-269v0,-149,-110,-267,-252,-267xm474,-493r-12,39v-13,-7,-50,-23,-97,-23v-94,0,-140,60,-140,140v0,78,49,141,141,141v40,0,78,-11,101,-26r12,38v-35,23,-81,31,-123,31v-116,0,-183,-80,-183,-181v0,-114,90,-186,191,-186v52,0,96,15,110,27","w":677},"\u00c1":{"d":"424,-212r-239,0r-70,212r-90,0r230,-674r104,0r230,674r-93,0xm203,-280r204,0r-67,-194v-15,-44,-25,-84,-35,-123r-2,0v-10,39,-20,81,-34,122xm348,-827r106,0r-128,117r-71,0","w":612},"\u00c2":{"d":"424,-212r-239,0r-70,212r-90,0r230,-674r104,0r230,674r-93,0xm203,-280r204,0r-67,-194v-15,-44,-25,-84,-35,-123r-2,0v-10,39,-20,81,-34,122xm276,-824r67,0r105,114r-74,0r-63,-69r-2,0r-64,69r-71,0","w":612},"\u00c4":{"d":"424,-212r-239,0r-70,212r-90,0r230,-674r104,0r230,674r-93,0xm203,-280r204,0r-67,-194v-15,-44,-25,-84,-35,-123r-2,0v-10,39,-20,81,-34,122xm216,-719v-28,0,-48,-23,-48,-51v0,-27,21,-50,49,-50v28,0,48,22,48,50v0,28,-19,51,-49,51xm402,-719v-28,0,-48,-23,-48,-51v0,-27,21,-50,50,-50v28,0,48,22,48,50v0,28,-19,51,-50,51","w":612},"\u00c0":{"d":"424,-212r-239,0r-70,212r-90,0r230,-674r104,0r230,674r-93,0xm203,-280r204,0r-67,-194v-15,-44,-25,-84,-35,-123r-2,0v-10,39,-20,81,-34,122xm161,-827r106,0r93,116r-71,0","w":612},"\u00c5":{"d":"424,-212r-239,0r-70,212r-90,0r230,-674r104,0r230,674r-93,0xm203,-280r204,0r-67,-194v-15,-44,-25,-84,-35,-123r-2,0v-10,39,-20,81,-34,122xm309,-878v60,0,98,40,98,91v0,50,-41,88,-99,88v-60,0,-100,-39,-100,-88v0,-50,38,-91,101,-91xm306,-842v-30,0,-47,26,-47,55v0,26,19,51,48,51v29,0,48,-23,48,-53v0,-29,-19,-53,-49,-53","w":612},"\u00c3":{"d":"424,-212r-239,0r-70,212r-90,0r230,-674r104,0r230,674r-93,0xm203,-280r204,0r-67,-194v-15,-44,-25,-84,-35,-123r-2,0v-10,39,-20,81,-34,122xm232,-715r-47,0v-1,-61,25,-102,68,-102v22,0,39,9,60,20v16,9,32,18,48,18v15,0,24,-7,27,-39r46,0v1,63,-21,97,-67,97v-21,0,-40,-8,-61,-19v-20,-10,-33,-19,-48,-19v-16,0,-23,17,-26,44","w":612},"\u00c7":{"d":"530,-91r17,69v-30,16,-92,31,-175,32r-25,40v38,7,70,34,70,74v0,59,-51,81,-103,81v-26,0,-53,-7,-71,-17r14,-45v15,9,35,14,55,14v23,0,43,-9,43,-31v0,-26,-31,-37,-78,-43r42,-76v-165,-19,-283,-135,-283,-338v0,-212,143,-354,353,-354v83,0,137,18,159,30r-21,71v-33,-16,-80,-28,-136,-28v-158,0,-263,101,-263,278v0,166,95,271,259,271v53,0,107,-11,143,-28","w":585},"\u00c9":{"d":"424,-388r0,72r-261,0r0,243r292,0r0,73r-380,0r0,-674r365,0r0,73r-277,0r0,213r261,0xm302,-827r106,0r-128,117r-71,0","w":492},"\u00ca":{"d":"424,-388r0,72r-261,0r0,243r292,0r0,73r-380,0r0,-674r365,0r0,73r-277,0r0,213r261,0xm223,-824r67,0r105,114r-74,0r-63,-69r-2,0r-64,69r-71,0","w":492},"\u00cb":{"d":"425,-388r0,72r-262,0r0,243r293,0r0,73r-381,0r0,-674r365,0r0,73r-277,0r0,213r262,0xm162,-721v-28,0,-48,-23,-48,-51v0,-27,21,-50,49,-50v28,0,48,22,48,50v0,28,-19,51,-49,51xm347,-721v-28,0,-48,-23,-48,-51v0,-27,21,-50,50,-50v28,0,48,22,48,50v0,28,-19,51,-50,51","w":492},"\u00c8":{"d":"424,-388r0,72r-261,0r0,243r292,0r0,73r-380,0r0,-674r365,0r0,73r-277,0r0,213r261,0xm119,-827r106,0r93,116r-71,0","w":492},"\u00cd":{"d":"75,-674r88,0r0,674r-88,0r0,-674xm160,-827r106,0r-128,117r-71,0","w":239},"\u00ce":{"d":"75,-674r88,0r0,674r-88,0r0,-674xm85,-824r67,0r105,114r-74,0r-63,-69r-2,0r-64,69r-71,0","w":239},"\u00cf":{"d":"75,-674r88,0r0,674r-88,0r0,-674xm27,-721v-28,0,-48,-23,-48,-51v0,-27,21,-50,49,-50v28,0,48,22,48,50v0,28,-19,51,-49,51xm212,-721v-28,0,-48,-23,-48,-51v0,-27,21,-50,50,-50v28,0,48,22,48,50v0,28,-19,51,-50,51","w":239},"\u00cc":{"d":"75,-674r88,0r0,674r-88,0r0,-674xm-25,-827r106,0r93,116r-71,0","w":239},"\u00d1":{"d":"158,0r-82,0r0,-674r96,0r215,341v49,79,89,150,120,219r3,-1v-8,-90,-10,-172,-10,-277r0,-282r82,0r0,674r-88,0r-214,-342v-47,-75,-92,-152,-125,-225r-3,1v5,85,6,166,6,278r0,288xm257,-715r-47,0v-1,-61,25,-102,68,-102v22,0,38,9,59,20v16,9,32,18,48,18v15,0,24,-7,27,-39r46,0v1,63,-21,97,-67,97v-21,0,-39,-8,-61,-19v-19,-10,-33,-19,-47,-19v-16,0,-23,17,-26,44","w":658},"\u00d3":{"d":"348,-686v185,0,304,141,304,342v0,231,-141,355,-313,355v-179,0,-303,-139,-303,-343v0,-214,132,-354,312,-354xm345,-615v-145,0,-217,134,-217,281v0,145,78,274,216,274v138,0,216,-127,216,-280v0,-135,-70,-275,-215,-275xm384,-829r106,0r-128,117r-71,0","w":689},"\u00d4":{"d":"348,-686v185,0,304,141,304,342v0,231,-141,355,-313,355v-179,0,-303,-139,-303,-343v0,-214,132,-354,312,-354xm345,-615v-145,0,-217,134,-217,281v0,145,78,274,216,274v138,0,216,-127,216,-280v0,-135,-70,-275,-215,-275xm309,-827r67,0r105,114r-74,0r-63,-69r-2,0r-64,69r-71,0","w":689},"\u00d6":{"d":"348,-686v185,0,304,141,304,342v0,231,-141,355,-313,355v-179,0,-303,-139,-303,-343v0,-214,132,-354,312,-354xm345,-615v-145,0,-217,134,-217,281v0,145,78,274,216,274v138,0,216,-127,216,-280v0,-135,-70,-275,-215,-275xm251,-721v-28,0,-48,-23,-48,-51v0,-27,21,-50,49,-50v28,0,48,22,48,50v0,28,-19,51,-49,51xm436,-721v-28,0,-48,-23,-48,-51v0,-27,21,-50,50,-50v28,0,48,22,48,50v0,28,-19,51,-50,51","w":689},"\u00d2":{"d":"348,-686v185,0,304,141,304,342v0,231,-141,355,-313,355v-179,0,-303,-139,-303,-343v0,-214,132,-354,312,-354xm345,-615v-145,0,-217,134,-217,281v0,145,78,274,216,274v138,0,216,-127,216,-280v0,-135,-70,-275,-215,-275xm199,-829r106,0r93,116r-71,0","w":689},"\u00d5":{"d":"348,-686v185,0,304,141,304,342v0,231,-141,355,-313,355v-179,0,-303,-139,-303,-343v0,-214,132,-354,312,-354xm345,-615v-145,0,-217,134,-217,281v0,145,78,274,216,274v138,0,216,-127,216,-280v0,-135,-70,-275,-215,-275xm267,-718r-47,0v-1,-60,25,-101,68,-101v22,0,38,9,59,20v16,9,32,18,48,18v15,0,24,-7,27,-39r46,0v1,63,-21,97,-67,97v-21,0,-39,-8,-61,-19v-19,-10,-32,-19,-47,-19v-16,0,-23,17,-26,43","w":689},"\u0160":{"d":"42,-33r23,-73v39,25,95,44,155,44v89,0,141,-47,141,-115v0,-62,-36,-99,-127,-133v-110,-40,-178,-98,-178,-192v0,-105,87,-183,218,-183v68,0,119,16,148,33r-24,71v-21,-13,-66,-32,-127,-32v-92,0,-127,55,-127,101v0,63,41,94,134,130v114,44,171,99,171,198v0,104,-76,195,-235,195v-65,0,-136,-20,-172,-44xm292,-713r-67,0r-105,-114r74,0r64,69r2,0r63,-69r71,0","w":493},"\u00da":{"d":"75,-674r88,0r0,400v0,150,67,214,157,214v99,0,164,-66,164,-214r0,-400r88,0r0,394v0,207,-109,291,-255,291v-138,0,-242,-78,-242,-288r0,-397xm367,-827r106,0r-128,117r-71,0","w":647},"\u00db":{"d":"75,-674r88,0r0,400v0,150,67,214,157,214v99,0,164,-66,164,-214r0,-400r88,0r0,394v0,207,-109,291,-255,291v-138,0,-242,-78,-242,-288r0,-397xm295,-824r67,0r105,114r-74,0r-63,-69r-2,0r-64,69r-71,0","w":647},"\u00dc":{"d":"75,-674r88,0r0,400v0,150,67,214,157,214v99,0,164,-66,164,-214r0,-400r88,0r0,394v0,207,-109,291,-255,291v-138,0,-242,-78,-242,-288r0,-397xm232,-721v-28,0,-48,-23,-48,-51v0,-27,21,-50,49,-50v28,0,48,22,48,50v0,28,-19,51,-49,51xm418,-721v-28,0,-48,-23,-48,-51v0,-27,21,-50,50,-50v28,0,48,22,48,50v0,28,-19,51,-50,51","w":647},"\u00d9":{"d":"75,-674r88,0r0,400v0,150,67,214,157,214v99,0,164,-66,164,-214r0,-400r88,0r0,394v0,207,-109,291,-255,291v-138,0,-242,-78,-242,-288r0,-397xm183,-827r106,0r93,116r-71,0","w":647},"\u00dd":{"d":"314,0r-88,0r0,-286r-214,-388r100,0r95,186v25,51,46,92,67,139r2,0v18,-44,42,-88,68,-139r97,-186r98,0r-225,387r0,287xm320,-822r106,0r-128,117r-71,0","w":541},"\u0178":{"d":"314,0r-88,0r0,-286r-214,-388r100,0r95,186v25,51,46,92,67,139r2,0v18,-44,42,-88,68,-139r97,-186r98,0r-225,387r0,287xm186,-714v-28,0,-48,-23,-48,-51v0,-27,21,-50,49,-50v28,0,48,22,48,50v0,28,-19,51,-49,51xm371,-714v-28,0,-48,-23,-48,-51v0,-27,21,-50,50,-50v28,0,48,22,48,50v0,28,-19,51,-50,51","w":541},"\u017d":{"d":"30,0r0,-51r373,-547r0,-3r-341,0r0,-73r455,0r0,53r-372,545r0,3r377,0r0,73r-492,0xm320,-710r-66,0r-105,-114r74,0r64,69r2,0r63,-69r71,0","w":553},"\u00e1":{"d":"413,-297r0,181v0,42,2,83,7,116r-79,0r-7,-61r-3,0v-27,38,-79,72,-148,72v-98,0,-148,-69,-148,-139v0,-117,104,-181,291,-180r0,-10v0,-39,-11,-112,-110,-111v-46,0,-93,13,-127,36r-20,-59v40,-25,99,-42,160,-42v148,0,184,101,184,197xm328,-163r0,-84v-96,-2,-205,15,-205,109v0,58,38,84,82,84v64,0,105,-40,119,-81v3,-10,4,-20,4,-28xm275,-693r97,0r-122,143r-62,0","w":482},"\u00e2":{"d":"413,-297r0,181v0,42,2,83,7,116r-79,0r-7,-61r-3,0v-27,38,-79,72,-148,72v-98,0,-148,-69,-148,-139v0,-117,104,-181,291,-180r0,-10v0,-39,-11,-112,-110,-111v-46,0,-93,13,-127,36r-20,-59v40,-25,99,-42,160,-42v148,0,184,101,184,197xm328,-163r0,-84v-96,-2,-205,15,-205,109v0,58,38,84,82,84v64,0,105,-40,119,-81v3,-10,4,-20,4,-28xm205,-693r61,0r96,143r-67,0r-58,-94r-2,0r-58,94r-66,0","w":482},"\u00e4":{"d":"413,-297r0,181v0,42,2,83,7,116r-79,0r-7,-61r-3,0v-27,38,-79,72,-148,72v-98,0,-148,-69,-148,-139v0,-117,104,-181,291,-180r0,-10v0,-39,-11,-112,-110,-111v-46,0,-93,13,-127,36r-20,-59v40,-25,99,-42,160,-42v148,0,184,101,184,197xm328,-163r0,-84v-96,-2,-205,15,-205,109v0,58,38,84,82,84v64,0,105,-40,119,-81v3,-10,4,-20,4,-28xm148,-570v-28,0,-49,-24,-49,-51v0,-28,22,-51,51,-51v27,0,48,22,48,51v0,27,-20,51,-50,51xm333,-570v-29,0,-49,-24,-49,-51v0,-28,22,-51,50,-51v28,0,49,22,49,51v0,27,-20,51,-50,51","w":482},"\u00e0":{"d":"413,-297r0,181v0,42,2,83,7,116r-79,0r-7,-61r-3,0v-27,38,-79,72,-148,72v-98,0,-148,-69,-148,-139v0,-117,104,-181,291,-180r0,-10v0,-39,-11,-112,-110,-111v-46,0,-93,13,-127,36r-20,-59v40,-25,99,-42,160,-42v148,0,184,101,184,197xm328,-163r0,-84v-96,-2,-205,15,-205,109v0,58,38,84,82,84v64,0,105,-40,119,-81v3,-10,4,-20,4,-28xm95,-693r96,0r88,143r-62,0","w":482},"\u00e5":{"d":"413,-297r0,181v0,42,2,83,7,116r-79,0r-7,-61r-3,0v-27,38,-79,72,-148,72v-98,0,-148,-69,-148,-139v0,-117,104,-181,291,-180r0,-10v0,-39,-11,-112,-110,-111v-46,0,-93,13,-127,36r-20,-59v40,-25,99,-42,160,-42v148,0,184,101,184,197xm328,-163r0,-84v-96,-2,-205,15,-205,109v0,58,38,84,82,84v64,0,104,-40,119,-81v3,-10,4,-20,4,-28xm240,-537v-59,0,-101,-40,-101,-91v0,-53,40,-94,102,-94v60,0,99,40,99,94v0,52,-43,91,-100,91xm240,-574v31,0,51,-25,51,-55v0,-31,-20,-56,-52,-56v-31,0,-49,26,-49,57v0,27,20,54,50,54","w":482},"\u00e3":{"d":"413,-297r0,181v0,42,2,83,7,116r-79,0r-7,-61r-3,0v-27,38,-79,72,-148,72v-98,0,-148,-69,-148,-139v0,-117,104,-181,291,-180r0,-10v0,-39,-11,-112,-110,-111v-46,0,-93,13,-127,36r-20,-59v40,-25,99,-42,160,-42v148,0,184,101,184,197xm328,-163r0,-84v-96,-2,-205,15,-205,109v0,58,38,84,82,84v64,0,105,-40,119,-81v3,-10,4,-20,4,-28xm163,-567r-48,0v-2,-65,25,-104,68,-104v22,0,39,10,62,22v16,9,30,17,42,17v16,0,26,-9,28,-42r47,0v1,66,-21,101,-68,101v-22,0,-41,-10,-62,-21v-20,-12,-31,-18,-43,-18v-16,0,-24,17,-26,45","w":482},"\u00e7":{"d":"403,-84r15,66v-20,10,-66,27,-126,28r-25,40v37,7,70,32,70,73v0,60,-50,83,-104,83v-23,0,-51,-6,-70,-17r15,-45v15,9,35,14,55,14v23,0,43,-8,43,-32v-1,-26,-31,-37,-78,-42r42,-77v-123,-15,-202,-110,-202,-244v0,-148,102,-257,260,-257v52,0,98,13,122,26r-20,67v-21,-11,-54,-23,-102,-23v-111,0,-171,82,-171,183v0,111,72,180,168,180v50,0,84,-12,108,-23","w":447},"\u00e9":{"d":"462,-226r-340,0v2,119,77,168,166,168v63,0,102,-11,134,-25r16,63v-31,14,-85,31,-162,31v-149,0,-238,-99,-238,-245v0,-146,86,-260,227,-260v159,0,200,138,200,227v0,18,-1,31,-3,41xm123,-289r257,0v1,-55,-23,-142,-122,-142v-90,0,-128,81,-135,142xm304,-693r96,0r-122,143r-62,0","w":501},"\u00ea":{"d":"462,-226r-340,0v2,119,77,168,166,168v63,0,102,-11,134,-25r16,63v-31,14,-85,31,-162,31v-149,0,-238,-99,-238,-245v0,-146,86,-260,227,-260v159,0,200,138,200,227v0,18,-1,31,-3,41xm123,-289r257,0v1,-55,-23,-142,-122,-142v-90,0,-128,81,-135,142xm231,-693r61,0r96,143r-67,0r-58,-94r-2,0r-58,94r-66,0","w":501},"\u00eb":{"d":"462,-226r-340,0v2,119,77,168,166,168v63,0,102,-11,134,-25r16,63v-31,14,-85,31,-162,31v-149,0,-238,-99,-238,-245v0,-146,86,-260,227,-260v159,0,200,138,200,227v0,18,-1,31,-3,41xm123,-289r257,0v1,-55,-23,-142,-122,-142v-90,0,-128,81,-135,142xm175,-570v-28,0,-49,-24,-49,-51v0,-28,22,-51,51,-51v27,0,48,22,48,51v0,27,-20,51,-50,51xm360,-570v-29,0,-49,-24,-49,-51v0,-28,22,-51,50,-51v28,0,49,22,49,51v0,27,-20,51,-50,51","w":501},"\u00e8":{"d":"462,-226r-340,0v2,119,77,168,166,168v63,0,102,-11,134,-25r16,63v-31,14,-85,31,-162,31v-149,0,-238,-99,-238,-245v0,-146,86,-260,227,-260v159,0,200,138,200,227v0,18,-1,31,-3,41xm123,-289r257,0v1,-55,-23,-142,-122,-142v-90,0,-128,81,-135,142xm135,-693r96,0r88,143r-62,0","w":501},"\u00ed":{"d":"161,0r-88,0r0,-484r88,0r0,484xm156,-693r96,0r-122,143r-62,0","w":234},"\u00ee":{"d":"161,0r-88,0r0,-484r88,0r0,484xm86,-693r61,0r96,143r-67,0r-58,-94r-2,0r-58,94r-66,0","w":234},"\u00ef":{"d":"161,0r-88,0r0,-484r88,0r0,484xm24,-570v-28,0,-49,-24,-49,-51v0,-28,22,-51,51,-51v27,0,48,22,48,51v0,27,-20,51,-50,51xm209,-570v-29,0,-49,-24,-49,-51v0,-28,22,-51,50,-51v28,0,49,22,49,51v0,27,-20,51,-50,51","w":234},"\u00ec":{"d":"161,0r-88,0r0,-484r88,0r0,484xm-27,-693r96,0r88,143r-62,0","w":234},"\u00f1":{"d":"73,0r0,-353v0,-51,-1,-91,-4,-131r78,0r5,80r2,0v24,-45,80,-90,160,-90v67,0,171,40,171,206r0,288r-88,0r0,-279v0,-78,-29,-143,-112,-143v-57,0,-102,41,-118,90v-4,11,-6,26,-6,41r0,291r-88,0xm203,-567r-48,0v-2,-65,25,-104,68,-104v22,0,39,10,62,22v16,9,29,17,42,17v15,0,25,-9,27,-42r47,0v1,66,-21,101,-68,101v-22,0,-41,-10,-61,-21v-20,-11,-31,-18,-43,-18v-16,0,-24,17,-26,45","w":555},"\u00f3":{"d":"278,-494v139,0,233,101,233,248v0,179,-125,257,-241,257v-130,0,-232,-96,-232,-249v0,-161,107,-256,240,-256xm276,-428v-103,0,-148,96,-148,187v0,106,60,186,146,186v84,0,147,-79,147,-188v0,-82,-41,-185,-145,-185xm309,-693r97,0r-122,143r-62,0","w":549},"\u00f4":{"d":"278,-494v139,0,233,101,233,248v0,179,-125,257,-241,257v-130,0,-232,-96,-232,-249v0,-161,107,-256,240,-256xm276,-428v-103,0,-148,96,-148,187v0,106,60,186,146,186v84,0,147,-79,147,-188v0,-82,-41,-185,-145,-185xm243,-693r61,0r96,143r-67,0r-59,-94r-2,0r-57,94r-66,0","w":549},"\u00f6":{"d":"278,-494v139,0,233,101,233,248v0,179,-125,257,-241,257v-130,0,-232,-96,-232,-249v0,-161,107,-256,240,-256xm276,-428v-103,0,-148,96,-148,187v0,106,60,186,146,186v84,0,147,-79,147,-188v0,-82,-41,-185,-145,-185xm181,-570v-28,0,-49,-24,-49,-51v0,-28,22,-51,51,-51v27,0,48,22,48,51v0,27,-20,51,-50,51xm366,-570v-29,0,-49,-24,-49,-51v0,-28,22,-51,50,-51v28,0,49,22,49,51v0,27,-20,51,-50,51","w":549},"\u00f2":{"d":"278,-494v139,0,233,101,233,248v0,179,-125,257,-241,257v-130,0,-232,-96,-232,-249v0,-161,107,-256,240,-256xm276,-428v-103,0,-148,96,-148,187v0,106,60,186,146,186v84,0,147,-79,147,-188v0,-82,-41,-185,-145,-185xm145,-693r96,0r88,143r-62,0","w":549},"\u00f5":{"d":"278,-494v139,0,233,101,233,248v0,179,-125,257,-241,257v-130,0,-232,-96,-232,-249v0,-161,107,-256,240,-256xm276,-428v-103,0,-148,96,-148,187v0,106,60,186,146,186v84,0,147,-79,147,-188v0,-82,-41,-185,-145,-185xm199,-567r-48,0v-2,-65,25,-104,68,-104v22,0,39,10,63,22v16,9,29,17,42,17v15,0,25,-9,27,-42r47,0v1,66,-21,101,-68,101v-22,0,-41,-10,-62,-21v-20,-12,-31,-18,-43,-18v-16,0,-24,17,-26,45","w":549},"\u0161":{"d":"40,-23r21,-66v27,16,73,34,117,34v63,0,93,-31,93,-72v0,-42,-25,-64,-89,-88v-88,-32,-129,-79,-129,-137v0,-78,64,-142,167,-142v49,0,92,13,118,30r-21,64v-19,-12,-54,-29,-99,-29v-52,0,-80,30,-80,66v0,40,28,58,91,83v83,31,127,73,127,145v0,86,-67,146,-180,146v-53,0,-102,-14,-136,-34xm235,-550r-63,0r-96,-143r67,0r59,95r2,0r59,-95r66,0","w":396},"\u00fa":{"d":"478,-484r0,351v0,51,1,95,4,133r-78,0r-5,-79r-2,0v-22,39,-74,90,-160,90v-76,0,-167,-43,-167,-212r0,-283r88,0r0,267v0,92,29,155,108,155v59,0,100,-41,116,-81v5,-12,8,-28,8,-45r0,-296r88,0xm321,-693r96,0r-122,143r-62,0","w":551},"\u00fb":{"d":"478,-484r0,351v0,51,1,95,4,133r-78,0r-5,-79r-2,0v-22,39,-74,90,-160,90v-76,0,-167,-43,-167,-212r0,-283r88,0r0,267v0,92,29,155,108,155v59,0,100,-41,116,-81v5,-12,8,-28,8,-45r0,-296r88,0xm244,-693r61,0r96,143r-67,0r-58,-94r-2,0r-58,94r-66,0","w":551},"\u00fc":{"d":"478,-484r0,351v0,51,1,95,4,133r-78,0r-5,-79r-2,0v-22,39,-74,90,-160,90v-76,0,-167,-43,-167,-212r0,-283r88,0r0,267v0,92,29,155,108,155v59,0,100,-41,116,-81v5,-12,8,-28,8,-45r0,-296r88,0xm185,-570v-28,0,-49,-24,-49,-51v0,-28,22,-51,51,-51v27,0,48,22,48,51v0,27,-20,51,-50,51xm370,-570v-29,0,-49,-24,-49,-51v0,-28,22,-51,50,-51v28,0,49,22,49,51v0,27,-20,51,-50,51","w":551},"\u00f9":{"d":"478,-484r0,351v0,51,1,95,4,133r-78,0r-5,-79r-2,0v-22,39,-74,90,-160,90v-76,0,-167,-43,-167,-212r0,-283r88,0r0,267v0,92,29,155,108,155v59,0,100,-41,116,-81v5,-12,8,-28,8,-45r0,-296r88,0xm140,-693r96,0r88,143r-62,0","w":551},"\u00fd":{"d":"9,-484r96,0r105,286v12,32,24,70,32,99r2,0v9,-29,19,-66,31,-101r96,-284r93,0r-132,345v-63,166,-106,250,-166,303v-44,37,-86,52,-108,56r-22,-73v22,-7,51,-21,77,-43v24,-19,53,-53,74,-98v4,-9,7,-16,7,-21v0,-5,-2,-12,-7,-23xm285,-693r97,0r-122,143r-62,0","w":471},"\u00ff":{"d":"9,-484r96,0r105,286v12,32,24,70,32,99r2,0v9,-29,19,-66,31,-101r96,-284r93,0r-132,345v-63,166,-106,250,-166,303v-44,37,-86,52,-108,56r-22,-73v22,-7,51,-21,77,-43v24,-19,53,-53,74,-98v4,-9,7,-16,7,-21v0,-5,-2,-12,-7,-23xm154,-570v-28,0,-49,-24,-49,-51v0,-28,22,-51,51,-51v27,0,48,22,48,51v0,27,-20,51,-50,51xm339,-570v-29,0,-49,-24,-49,-51v0,-28,22,-51,50,-51v28,0,49,22,49,51v0,27,-20,51,-50,51","w":471},"\u017e":{"d":"18,0r0,-51r218,-285r64,-76r0,-2r-262,0r0,-70r368,0r0,55r-216,281v-21,27,-40,52,-62,76r0,2r282,0r0,70r-392,0xm259,-550r-63,0r-96,-143r67,0r59,95r2,0r59,-95r66,0","w":428},"\u0110":{"d":"-1,-307r0,-70r82,0r0,-290v53,-9,116,-15,185,-15v124,0,214,29,272,84v61,54,96,134,96,245v0,111,-35,200,-97,263v-64,63,-168,97,-298,97v-63,0,-114,-3,-158,-7r0,-307r-82,0xm348,-377r0,70r-180,0r0,240v22,3,54,4,87,4v187,0,287,-103,287,-289v1,-162,-89,-261,-272,-261v-45,0,-79,4,-102,9r0,227r180,0","w":671},"\u014a":{"d":"158,0r-82,0r0,-674r96,0r215,341v49,79,89,150,120,219r3,-1v-8,-90,-10,-172,-10,-277r0,-282r82,0r0,636v0,142,-66,218,-193,237r-18,-68v80,-16,120,-54,127,-125r-218,-348v-47,-75,-92,-152,-125,-225r-3,1v5,85,6,166,6,278r0,288","w":658},"\u0126":{"d":"636,-479r-57,0r0,479r-88,0r0,-301r-325,0r0,301r-88,0r0,-479r-57,0r0,-58r57,0r0,-137r88,0r0,137r325,0r0,-137r88,0r0,137r57,0r0,58xm491,-377r0,-102r-325,0r0,102r325,0","w":657},"\u0166":{"d":"498,-600r-206,0r0,222r124,0r0,58r-124,0r0,320r-88,0r0,-320r-125,0r0,-58r125,0r0,-222r-205,0r0,-74r499,0r0,74","w":497},"\u021c":{"d":"63,115r-11,-69v160,-23,297,-110,297,-228v0,-73,-53,-133,-147,-131v-21,0,-60,6,-94,17r-12,-62v113,-25,201,-87,201,-166v0,-55,-46,-91,-111,-92v-53,0,-112,23,-137,36r-18,-59v32,-20,104,-47,172,-47v108,0,182,60,182,148v0,75,-55,133,-123,164r0,3v101,9,179,76,179,184v0,153,-148,275,-378,302","w":480},"\u0111":{"d":"568,-552r-78,0r0,427v0,43,2,92,4,125r-78,0r-4,-84r-3,0v-26,54,-84,95,-163,95v-117,0,-208,-99,-208,-246v-1,-161,100,-259,217,-259v75,0,124,35,146,73r2,0r0,-131r-197,0r0,-55r197,0r0,-103r87,0r0,103r78,0r0,55xm403,-203r0,-84v0,-11,-1,-26,-4,-37v-13,-55,-61,-101,-127,-101v-91,0,-145,80,-145,186v0,98,49,179,143,179v59,0,113,-40,129,-105v3,-12,4,-24,4,-38","w":564},"\u014b":{"d":"73,0r0,-353v0,-51,-1,-91,-4,-131r78,0r5,80r2,0v24,-45,80,-90,160,-90v67,0,171,40,171,206r0,229v0,154,-83,223,-190,238r-17,-70v80,-16,119,-67,119,-160r0,-228v0,-78,-29,-143,-112,-143v-57,0,-102,41,-118,90v-4,11,-6,26,-6,41r0,291r-88,0","w":555},"\u0127":{"d":"485,0r-88,0r0,-278v0,-78,-29,-143,-112,-143v-57,0,-101,40,-118,87v-5,13,-6,26,-6,42r0,292r-88,0r0,-552r-77,0r0,-55r77,0r0,-103r88,0r0,103r194,0r0,55r-194,0r0,145r2,0v14,-25,36,-48,63,-63v26,-15,57,-24,90,-24v65,0,169,40,169,206r0,288","w":555},"\u0138":{"d":"160,-484r0,222r2,0v12,-17,28,-38,42,-55r143,-167r105,0r-186,199r213,285r-108,0r-166,-232r-45,50r0,182r-87,0r0,-484r87,0","w":469},"\u0149":{"d":"73,0r0,-353v0,-51,-1,-91,-4,-131r78,0r5,80r2,0v24,-45,80,-90,160,-90v67,0,171,40,171,206r0,288r-88,0r0,-279v0,-78,-29,-143,-112,-143v-57,0,-102,41,-118,90v-4,11,-6,26,-6,41r0,291r-88,0xm56,-536r-38,-29v17,-19,37,-44,37,-82v0,-23,-14,-45,-31,-59r64,-17v16,10,35,37,35,72v0,67,-51,103,-67,115","w":555},"\u0167":{"d":"305,-417r-126,0r0,115r98,0r0,54r-98,0r0,96v0,58,19,90,66,90v24,0,38,-2,51,-6r4,67v-17,6,-44,12,-78,12v-41,0,-74,-14,-95,-37v-24,-27,-34,-70,-34,-127r0,-95r-66,0r0,-54r66,0r0,-115r-75,0r0,-67r75,0r0,-90r86,-26r0,116r126,0r0,67","w":331},"\u021d":{"d":"43,209r-8,-68v38,-3,275,-33,275,-188v0,-59,-40,-109,-129,-109v-27,0,-60,7,-88,15r-12,-62v107,-25,184,-65,184,-138v0,-53,-40,-84,-104,-84v-51,0,-99,25,-123,38r-19,-58v37,-24,98,-49,163,-49v101,0,169,54,169,137v0,66,-43,115,-106,141r0,2v92,11,155,69,155,157v0,130,-124,247,-357,266","w":427},"\u0132":{"d":"75,-674r88,0r0,674r-88,0r0,-674xm453,-231r0,-443r88,0r0,451v0,179,-88,234,-204,234v-33,0,-72,-7,-94,-16r13,-71v18,7,44,13,74,13v78,0,123,-35,123,-168","w":609},"\u0133":{"d":"161,0r-88,0r0,-484r88,0r0,484xm117,-675v32,0,54,24,54,55v0,30,-21,54,-56,54v-32,0,-53,-24,-53,-54v0,-30,22,-55,55,-55xm197,211r-9,-69v41,-3,75,-14,96,-37v24,-28,34,-66,34,-182r0,-407r88,0r0,441v0,94,-15,155,-58,199v-39,39,-103,55,-151,55xm362,-675v33,0,54,25,54,55v0,29,-20,54,-56,54v-32,0,-53,-25,-53,-54v0,-30,22,-55,55,-55","w":477},"\uf638":{"d":"145,-168r202,-374v-20,-32,-50,-51,-90,-51v-83,0,-135,105,-136,265v-1,63,8,117,24,160xm371,-482r-202,376v22,32,50,49,86,49v92,0,137,-105,137,-271v0,-58,-7,-110,-21,-154xm473,-649r-49,79v35,57,53,138,53,238v0,221,-82,343,-225,343v-48,0,-91,-16,-126,-50r-36,63r-44,-31r46,-74v-35,-55,-55,-138,-56,-242v-1,-220,94,-338,226,-338v51,0,94,16,128,49r39,-66","w":513},"\u20ac":{"d":"479,-94r17,64v-31,21,-84,41,-149,41v-81,0,-154,-31,-203,-89v-38,-42,-63,-100,-72,-172r-62,0r0,-50r57,0r0,-15v0,-15,1,-30,2,-44r-59,0r0,-50r66,0v12,-70,41,-128,82,-169v50,-53,116,-83,197,-83v60,0,106,17,134,32r-20,66v-26,-15,-67,-28,-112,-28v-54,0,-99,19,-133,54v-29,30,-49,75,-59,128r279,0r0,50r-288,0v-2,13,-2,27,-2,42r0,17r290,0r0,50r-283,0v8,58,27,101,55,131v37,40,87,58,141,58v53,0,99,-19,122,-33","w":513},"\u01fa":{"d":"312,-692v-57,0,-91,-34,-91,-77v0,-43,34,-79,92,-79v56,0,89,35,89,79v0,44,-35,77,-90,77xm311,-729v27,0,45,-16,45,-41v0,-23,-18,-42,-46,-42v-28,0,-43,20,-43,43v0,22,18,40,44,40xm366,-952r114,0r-143,86r-78,0xm425,-212r-240,0r-70,212r-90,0r229,-674r106,0r230,674r-93,0xm203,-280r204,0r-67,-194v-15,-44,-25,-84,-35,-123r-2,0v-10,39,-20,81,-34,122","w":612},"\u212e":{"d":"782,-316r-605,0v-3,0,-5,1,-5,4r0,183v0,8,4,15,9,21v57,61,139,99,229,99v96,0,182,-43,240,-111r55,0v-68,79,-176,131,-296,131v-206,0,-374,-150,-374,-336v0,-186,168,-336,374,-336v206,0,373,150,373,336r0,9xm646,-340r0,-184v0,-9,-4,-16,-10,-22v-58,-58,-138,-95,-226,-95v-90,0,-170,38,-228,98v-6,6,-10,14,-10,23r0,180v0,3,2,5,5,5r464,0v3,0,5,-2,5,-5","w":817},"\uf730":{"d":"264,11v-123,0,-224,-92,-224,-254v0,-157,100,-253,225,-253v124,0,225,92,225,253v0,158,-100,254,-226,254xm266,-56v87,0,139,-79,139,-187v0,-107,-52,-186,-140,-186v-88,0,-140,79,-140,186v0,108,52,187,141,187","w":530},"\uf731":{"d":"263,0r-84,0r0,-408r-2,0r-135,62r-16,-66r164,-73r73,0r0,485","w":362},"\uf732":{"d":"420,0r-396,0r0,-48r49,-34v150,-99,224,-167,224,-248v0,-65,-45,-98,-108,-98v-51,0,-101,24,-135,49r-24,-57v36,-27,101,-62,182,-62v101,0,173,57,173,156v0,93,-72,162,-177,236r-51,37r0,3v25,-3,56,-4,82,-4r181,0r0,70","w":448},"\uf733":{"d":"18,95r10,-65v25,8,67,16,109,16v99,0,169,-48,169,-121v0,-63,-60,-102,-152,-102v-23,0,-43,1,-55,2r-2,-65r19,-1v93,-7,163,-44,163,-106v0,-54,-40,-80,-105,-80v-51,0,-99,21,-123,34r-18,-58v31,-21,94,-45,160,-45v102,0,174,51,174,134v0,69,-50,119,-118,139r0,3v79,11,147,59,147,144v0,115,-116,191,-251,191v-52,0,-105,-10,-127,-20","w":433},"\uf734":{"d":"483,-50r-91,0r0,167r-82,0r0,-167r-292,0r0,-57r279,-385r95,0r0,375r91,0r0,67xm310,-117r0,-201v0,-32,0,-62,3,-94r-4,-1v-16,32,-35,65,-54,94r-150,199r1,3r204,0","w":502},"\uf735":{"d":"36,97r11,-63v23,7,64,13,102,13v86,0,164,-45,164,-129v0,-28,-11,-54,-31,-73v-39,-38,-118,-50,-227,-43r51,-287r287,0r-11,72r-217,0r-29,150v83,-2,168,11,220,61v30,29,46,70,46,113v0,122,-103,203,-252,203v-44,0,-89,-7,-114,-17","w":441},"\uf736":{"d":"432,-606r6,65v-180,11,-275,106,-297,219r3,1v25,-36,77,-73,146,-73v102,0,187,72,187,191v0,135,-104,214,-208,214v-134,0,-223,-99,-223,-247v0,-207,146,-357,386,-370xm270,-56v59,0,120,-47,120,-142v0,-82,-49,-134,-122,-134v-45,0,-82,23,-101,43v-24,25,-32,50,-32,83v0,81,52,150,135,150","w":520},"\uf737":{"d":"405,-485r0,56v-62,163,-181,386,-282,542r-82,-15v81,-119,221,-368,274,-508r0,-2r-297,0r0,-73r387,0","w":428},"\uf738":{"d":"344,-320r-1,3v76,27,129,80,129,151v0,108,-98,177,-218,177v-127,0,-213,-69,-213,-166v0,-72,51,-125,125,-158r0,-3v-56,-24,-101,-66,-101,-129v0,-96,86,-162,197,-162v113,0,187,67,187,151v0,58,-34,102,-105,136xm261,-547v-61,0,-111,36,-111,95v0,54,45,88,121,108v53,-16,96,-52,96,-108v0,-63,-52,-95,-106,-95xm256,-52v70,0,126,-42,126,-106v0,-63,-51,-105,-142,-129v-66,22,-111,68,-111,124v0,65,48,111,127,111","w":513},"\uf739":{"d":"82,114r-7,-65v172,-7,272,-91,300,-209r-2,0v-21,33,-76,67,-144,67v-101,0,-186,-71,-186,-191v0,-122,94,-214,216,-214v119,0,213,87,213,241v0,223,-160,364,-390,371xm253,-155v50,0,97,-30,116,-65v10,-13,16,-35,16,-60v0,-90,-59,-150,-130,-150v-60,0,-125,45,-125,139v0,93,57,136,123,136","w":520},"\uf642":{"d":"186,-603v90,0,149,70,149,194v0,137,-71,205,-155,205v-82,0,-151,-66,-152,-196v0,-130,70,-203,158,-203xm181,-550v-54,0,-84,65,-84,147v-1,82,30,146,85,146v58,0,84,-62,84,-148v0,-79,-23,-145,-85,-145xm261,12r-56,0r351,-620r56,0xm641,-392v90,0,149,70,149,194v0,137,-71,205,-155,205v-82,0,-151,-65,-152,-196v0,-130,70,-203,158,-203xm636,-339v-54,0,-84,65,-84,147v-1,83,30,146,85,146v58,0,84,-62,84,-148v0,-79,-23,-145,-85,-145","w":818},"\uf639":{"d":"263,-661v136,0,215,122,215,329v0,221,-83,343,-226,343v-127,0,-214,-119,-216,-334v0,-219,95,-338,227,-338xm257,-593v-76,0,-132,94,-132,271v0,169,52,265,132,265v89,0,132,-105,132,-271v0,-160,-40,-265,-132,-265","w":513},"\uf6dc":{"d":"151,0r0,-568r-2,0r-113,61r-17,-67r142,-76r75,0r0,650r-85,0","w":326},"\uf63a":{"d":"418,0r-415,0r0,-54r69,-67v166,-158,242,-242,242,-340v0,-66,-31,-127,-128,-127v-59,0,-108,30,-138,55r-28,-62v44,-37,109,-66,183,-66v140,0,199,96,199,189v0,120,-87,217,-224,349r-51,48r0,2r291,0r0,73","w":447},"\uf63b":{"d":"7,-33r24,-67v25,15,82,40,144,40v112,0,148,-71,147,-126v-1,-91,-83,-130,-168,-130r-49,0r0,-66r49,0v64,0,145,-33,145,-110v0,-52,-33,-98,-114,-98v-52,0,-102,23,-130,43r-24,-64v35,-25,101,-50,171,-50v128,0,186,76,186,155v0,68,-41,125,-120,154r0,2v80,15,144,75,145,166v0,104,-82,195,-237,195v-73,0,-137,-23,-169,-44","w":450},"\uf63c":{"d":"396,0r-83,0r0,-178r-302,0r0,-57r290,-415r95,0r0,404r91,0r0,68r-91,0r0,178xm100,-246r213,0r0,-217v0,-34,1,-68,3,-102r-3,0v-20,38,-36,66,-54,96r-159,221r0,2","w":503},"\uf63d":{"d":"406,-650r0,74r-248,0r-25,167v15,-2,29,-3,53,-3v51,0,100,10,140,35v51,28,93,85,93,166v0,127,-101,222,-242,222v-71,0,-130,-20,-162,-40r22,-67v27,16,80,36,140,36v82,0,154,-54,153,-141v0,-84,-57,-143,-186,-143v-38,0,-67,3,-91,6r42,-312r311,0","w":460},"\uf63e":{"d":"418,-660r0,72v-18,-1,-41,1,-66,5v-139,22,-211,122,-226,230r2,0v31,-42,86,-76,158,-76v115,0,196,84,196,210v0,120,-81,230,-217,230v-138,0,-229,-108,-229,-277v0,-128,45,-229,110,-293v54,-53,126,-86,208,-96v26,-4,48,-5,64,-5xm267,-57v75,0,126,-63,126,-156v0,-93,-53,-149,-134,-149v-53,0,-103,32,-127,80v-5,10,-9,22,-9,38v1,107,51,187,144,187","w":515},"\uf63f":{"d":"1,-650r410,0r0,58r-283,592r-91,0r282,-575r0,-2r-318,0r0,-73","w":412},"\uf640":{"d":"166,-339r-1,-3v-73,-34,-104,-90,-104,-146v0,-103,87,-173,202,-173v126,0,190,78,190,160v0,55,-28,115,-108,152r0,3v81,32,131,90,131,168v0,114,-97,189,-221,189v-136,0,-218,-80,-218,-175v0,-82,49,-141,129,-175xm257,-53v79,0,130,-49,130,-116v0,-78,-55,-117,-143,-142v-76,22,-117,73,-117,135v-3,65,47,123,130,123xm258,-598v-73,0,-113,48,-113,104v-1,65,49,100,124,120v56,-19,99,-59,99,-118v0,-52,-31,-106,-110,-106","w":513},"\uf641":{"d":"96,10r0,-72v19,2,41,0,71,-3v51,-7,99,-27,136,-63v43,-39,74,-96,86,-172r-3,0v-36,44,-88,69,-154,69v-116,0,-191,-88,-191,-199v0,-123,89,-231,222,-231v133,0,215,107,215,275v0,142,-48,242,-112,304v-50,49,-119,79,-189,87v-32,5,-60,6,-81,5xm255,-594v-74,0,-127,66,-127,159v0,81,49,138,125,138v59,0,105,-29,128,-68v5,-9,8,-18,8,-33v0,-111,-41,-196,-134,-196","w":517},"\ue008":{"d":"145,-168r202,-374v-20,-32,-50,-51,-90,-51v-83,0,-135,105,-136,265v-1,63,8,117,24,160xm371,-482r-202,376v22,32,50,49,86,49v92,0,137,-105,137,-271v0,-58,-7,-110,-21,-154xm473,-649r-49,79v35,57,53,138,53,238v0,221,-82,343,-225,343v-48,0,-91,-16,-126,-50r-36,63r-44,-31r46,-74v-35,-55,-55,-138,-56,-242v-1,-220,94,-338,226,-338v51,0,94,16,128,49r39,-66","w":513},"\uf643":{"d":"264,11v-123,0,-224,-92,-224,-254v0,-157,100,-253,225,-253v124,0,225,92,225,253v0,158,-100,254,-226,254xm266,-56v87,0,139,-79,139,-187v0,-107,-52,-186,-140,-186v-88,0,-140,79,-140,186v0,108,52,187,141,187","w":530},"\uf644":{"d":"365,0r-84,0r0,-411r-2,0r-186,83r-15,-65r214,-92r73,0r0,485","w":530},"\uf645":{"d":"462,0r-396,0r0,-48r49,-34v150,-99,224,-167,224,-248v0,-65,-45,-98,-108,-98v-51,0,-101,24,-135,49r-24,-57v36,-27,101,-62,182,-62v101,0,173,57,173,156v0,93,-72,162,-177,236r-51,37r0,3v25,-3,56,-4,82,-4r181,0r0,70","w":530},"\uf646":{"d":"62,95r10,-65v25,8,67,16,109,16v99,0,169,-48,169,-121v0,-63,-60,-102,-152,-102v-23,0,-43,1,-55,2r-2,-65r19,-1v93,-7,163,-44,163,-106v0,-54,-40,-80,-105,-80v-51,0,-99,21,-123,34r-18,-58v31,-21,94,-45,160,-45v102,0,174,51,174,134v0,69,-50,119,-118,139r0,3v79,11,147,59,147,144v0,115,-116,191,-251,191v-52,0,-105,-10,-127,-20","w":530},"\uf647":{"d":"497,-50r-91,0r0,167r-82,0r0,-167r-292,0r0,-57r279,-385r95,0r0,375r91,0r0,67xm324,-117r0,-201v0,-32,0,-62,3,-94r-4,-1v-16,32,-35,65,-54,94r-150,199r1,3r204,0","w":530},"\uf648":{"d":"78,97r11,-63v23,7,64,13,102,13v86,0,164,-45,164,-129v0,-28,-11,-54,-31,-73v-39,-38,-118,-50,-227,-43r51,-287r287,0r-11,72r-217,0r-29,150v83,-2,168,11,220,61v30,29,46,70,46,113v0,122,-103,203,-252,203v-44,0,-89,-7,-114,-17","w":530},"\uf649":{"d":"441,-606r6,65v-180,11,-274,106,-296,219r3,1v25,-36,76,-73,146,-73v101,0,186,72,186,191v0,135,-104,214,-208,214v-133,0,-222,-99,-222,-247v0,-207,146,-357,385,-370xm279,-56v59,0,120,-47,120,-142v0,-82,-49,-134,-121,-134v-46,0,-82,23,-101,43v-24,25,-32,50,-32,83v0,81,52,150,134,150","w":530},"\uf64a":{"d":"454,-485r0,56v-62,163,-181,386,-282,542r-82,-15v81,-119,221,-368,274,-508r0,-2r-297,0r0,-73r387,0","w":530},"\uf64b":{"d":"351,-320r-1,3v76,27,129,80,129,151v0,108,-98,177,-218,177v-127,0,-213,-69,-213,-166v0,-72,51,-125,125,-158r0,-3v-56,-24,-101,-66,-101,-129v0,-96,86,-162,197,-162v113,0,187,67,187,151v0,58,-34,102,-105,136xm268,-547v-61,0,-111,36,-111,95v0,54,45,88,121,108v53,-16,96,-52,96,-108v0,-63,-52,-95,-106,-95xm263,-52v70,0,126,-42,126,-106v0,-63,-51,-105,-142,-129v-66,22,-111,68,-111,124v0,65,48,111,127,111","w":530},"\uf64c":{"d":"89,114r-7,-65v172,-7,272,-91,300,-209r-2,0v-21,33,-76,67,-144,67v-101,0,-186,-71,-186,-191v0,-122,94,-214,216,-214v119,0,213,87,213,241v0,223,-160,364,-390,371xm260,-155v50,0,97,-30,116,-65v10,-13,16,-35,16,-60v0,-90,-59,-150,-130,-150v-60,0,-125,45,-125,139v0,93,57,136,123,136","w":530},"\uf653":{"d":"294,81r-57,0r0,-80v-53,-1,-113,-17,-147,-40r24,-60v28,20,85,36,133,36v58,0,107,-27,107,-72v0,-39,-30,-60,-101,-84v-102,-34,-152,-70,-152,-137v0,-67,58,-116,143,-126r0,-86r57,0r0,83v54,2,98,17,123,31r-23,60v-24,-14,-69,-30,-116,-30v-55,0,-97,25,-97,62v0,35,23,54,109,82v101,33,147,76,147,141v0,63,-54,124,-150,138r0,82","w":530},"\uf654":{"d":"403,-129r14,59v-17,9,-56,22,-100,24r0,72r-55,0r0,-72v-108,-13,-181,-84,-181,-198v0,-108,72,-189,181,-205r0,-68r55,0r0,66v40,1,78,11,98,20r-16,60v-20,-11,-53,-18,-94,-18v-84,0,-141,57,-141,141v0,92,62,139,137,139v47,0,81,-10,102,-20","w":530},"\uf64e":{"d":"466,-83r12,61v-23,15,-76,33,-137,33v-66,0,-131,-22,-179,-69v-30,-30,-52,-73,-61,-120r-63,0r0,-49r55,0v0,-11,-1,-18,-1,-24v0,-10,1,-22,2,-35r-56,0r0,-48r64,0v11,-46,33,-87,63,-117v51,-51,120,-75,189,-75v59,0,97,15,123,28r-20,62v-23,-12,-56,-24,-104,-24v-45,0,-88,14,-123,48v-20,20,-36,47,-41,78r248,0r0,48r-258,0v-1,11,-2,22,-2,29v0,8,0,18,1,30r259,0r0,49r-249,0v7,29,21,55,39,72v36,35,76,49,126,49v49,0,90,-13,113,-26","w":530},"\uf64f":{"d":"128,-282r0,-58r99,0r6,-53v12,-99,57,-215,191,-214v30,0,55,7,69,15r-17,64v-15,-6,-32,-10,-52,-10v-68,0,-98,65,-106,139r-7,59r121,0r0,58r-128,0r-22,182v-15,130,-56,217,-174,218v-33,0,-61,-7,-77,-17r16,-62v17,8,35,11,56,11v61,0,85,-55,97,-157r20,-175r-92,0","w":530},"\uf651":{"d":"478,0r-415,0r0,-50v66,-28,107,-74,107,-128v0,-15,-2,-30,-4,-44r-97,0r0,-55r86,0v-4,-21,-8,-42,-8,-62v0,-115,77,-194,192,-194v50,0,87,12,109,25r-19,64v-18,-10,-49,-20,-90,-20v-73,0,-109,49,-109,126v0,21,3,42,7,61r149,0r0,55r-139,0v2,11,3,22,3,32v-1,53,-27,93,-63,117r0,2r291,0r0,71","w":530},"\uf652":{"d":"305,0r-83,0r0,-115r-152,0r0,-49r152,0r0,-60r-152,0r0,-49r127,0r-149,-242r93,0r86,154v16,30,28,54,39,78r2,0v11,-25,27,-52,42,-80r91,-152r91,0r-160,242r127,0r0,49r-154,0r0,60r154,0r0,49r-154,0r0,115","w":530},"\uf650":{"d":"205,-226r104,0r19,-145r-104,0xm174,3r-60,0r23,-170r-83,0r0,-59r92,0r19,-145r-87,0r0,-59r95,0r22,-165r59,0r-22,165r105,0r22,-165r59,0r-22,165r82,0r0,59r-91,0r-18,145r86,0r0,59r-95,0r-22,170r-61,0r23,-170r-104,0","w":530},"\u2070":{"d":"165,-437v-87,0,-142,-75,-142,-200v0,-124,57,-201,147,-201v92,0,143,76,143,197v0,123,-50,204,-148,204xm168,-488v49,0,75,-56,75,-151v0,-93,-25,-148,-75,-148v-45,0,-75,55,-75,148v0,96,29,151,75,151","w":336},"\u2074":{"d":"272,-443r-67,0r0,-102r-189,0r0,-41r177,-246r79,0r0,237r55,0r0,50r-55,0r0,102xm205,-595r0,-115v0,-22,2,-43,3,-63r-2,0v-12,23,-22,41,-34,59r-86,118r1,1r118,0","w":347},"\u2075":{"d":"268,-830r0,55r-155,0r-13,84v8,-1,18,-1,31,-1v33,0,66,5,93,21v30,17,55,51,55,101v0,77,-63,133,-155,133v-44,0,-85,-12,-105,-23r14,-50v17,9,51,21,89,21v45,0,88,-28,88,-76v0,-46,-32,-79,-113,-79v-22,0,-42,3,-57,4r26,-190r202,0","w":308},"\u2076":{"d":"267,-837r0,53v-10,-1,-25,-1,-40,1v-80,11,-125,62,-136,122r2,0v19,-21,52,-41,94,-41v72,0,122,50,122,126v0,77,-57,139,-138,139v-93,0,-148,-70,-148,-168v0,-74,27,-135,67,-173v35,-33,81,-51,138,-57v15,-1,29,-2,39,-2xm171,-488v42,0,70,-36,70,-84v0,-50,-29,-82,-76,-82v-31,0,-58,19,-71,45v-3,6,-5,13,-5,22v0,54,28,99,82,99","w":332},"\u2077":{"d":"19,-831r263,0r0,43r-172,345r-70,0r171,-332r0,-1r-192,0r0,-55","w":294},"\u2078":{"d":"168,-837v81,0,121,47,121,97v0,33,-18,68,-63,88r0,2v45,17,78,50,78,98v0,68,-59,114,-142,114v-90,0,-138,-51,-138,-105v0,-48,29,-80,77,-100r0,-3v-43,-19,-63,-52,-63,-86v0,-63,56,-105,130,-105xm164,-485v44,0,72,-26,72,-62v0,-43,-32,-64,-79,-76v-43,12,-66,38,-66,72v0,35,27,66,73,66xm164,-791v-41,0,-63,26,-63,56v0,34,27,54,70,65v31,-10,55,-31,55,-63v0,-28,-18,-58,-62,-58","w":328},"\u2079":{"d":"58,-438r0,-53v11,1,26,1,42,-1v31,-3,61,-14,84,-33v26,-21,44,-52,51,-92r-2,0v-20,23,-50,38,-89,38v-71,0,-121,-50,-121,-120v0,-74,58,-138,141,-138v89,0,139,69,139,165v0,83,-28,143,-68,180v-33,31,-80,48,-130,52v-18,2,-36,2,-47,2xm160,-787v-40,0,-70,36,-70,85v0,42,27,75,71,75v33,0,58,-16,71,-37v3,-4,4,-11,4,-19v0,-57,-22,-104,-76,-104","w":327},"\uf6e8":{"d":"64,-437v-25,0,-43,-20,-43,-45v0,-27,19,-45,44,-45v26,0,44,18,44,45v0,25,-18,45,-45,45","w":131},"\uf6e2":{"d":"48,-376r-48,5v16,-44,32,-106,39,-155r74,-6v-17,56,-43,120,-65,156","w":131},"\uf6e4":{"d":"179,-391r-45,0r0,-59v-38,-1,-76,-12,-99,-27r16,-50v24,15,57,27,94,27v42,0,69,-21,69,-51v0,-30,-21,-46,-69,-64v-66,-24,-105,-51,-105,-106v0,-51,36,-90,97,-100r0,-59r45,0r0,56v37,1,65,11,83,21r-16,49v-13,-7,-41,-21,-82,-21v-46,0,-61,24,-61,46v0,27,19,40,76,61v67,25,98,57,98,111v0,49,-35,94,-101,104r0,62","w":317},"\uf6e0":{"d":"206,-435r-46,0r0,-60v-40,-5,-68,-20,-90,-44v-21,-23,-34,-58,-34,-99v0,-76,47,-136,124,-149r0,-58r46,0r0,57v25,0,48,7,64,14r-13,50v-13,-7,-32,-14,-61,-14v-57,0,-93,41,-93,97v0,62,41,96,91,96v32,0,53,-7,68,-13r10,47v-13,7,-37,15,-66,17r0,59","w":315},"\uf6e6":{"d":"18,-650r155,0r0,48r-155,0r0,-48","w":191},"\u207d":{"d":"117,-868r51,0v-40,57,-72,136,-72,243v0,106,33,182,72,241r-51,0v-36,-49,-77,-126,-77,-241v0,-117,41,-195,77,-243","w":180},"\u207e":{"d":"64,-384r-51,0v39,-59,72,-136,72,-242v0,-106,-32,-184,-72,-242r51,0v36,48,77,125,77,242v0,115,-41,192,-77,242","w":180},"\u2080":{"d":"165,152v-87,0,-142,-75,-142,-199v0,-124,57,-201,147,-201v92,0,143,76,143,197v0,122,-50,203,-148,203xm168,101v49,0,75,-56,75,-151v0,-93,-25,-147,-75,-147v-45,0,-75,54,-75,147v0,97,29,151,75,151","w":336},"\u2081":{"d":"177,147r-70,0r0,-329r-2,0r-72,35r-11,-52r94,-44r61,0r0,390","w":244},"\u2082":{"d":"12,147r0,-37r63,-58v83,-77,126,-123,126,-174v0,-38,-24,-70,-76,-70v-35,0,-65,17,-84,31r-21,-45v27,-23,72,-42,123,-42v94,0,132,59,132,112v0,76,-57,131,-133,198r-30,28r0,2r170,0r0,55r-270,0","w":311},"\u2083":{"d":"45,-169r-17,-48v23,-15,66,-31,115,-31v86,0,122,46,122,94v0,41,-29,74,-77,90r0,2v54,8,93,46,93,97v0,62,-56,117,-158,117v-48,0,-92,-13,-115,-28r18,-50v16,11,56,26,93,26v62,0,89,-36,88,-67v0,-51,-53,-71,-106,-70r-27,0r0,-46r28,0v37,0,91,-17,91,-63v0,-25,-18,-50,-63,-50v-36,0,-69,16,-85,27","w":305},"\u2084":{"d":"272,147r-67,0r0,-102r-189,0r0,-41r177,-247r79,0r0,238r55,0r0,50r-55,0r0,102xm205,-5r0,-116v0,-22,2,-43,3,-63r-2,0v-12,23,-22,41,-34,59r-86,119r1,1r118,0","w":347},"\u2085":{"d":"268,-241r0,55r-155,0r-13,85v8,-1,18,-1,31,-1v33,0,66,5,93,21v30,17,55,51,55,100v0,78,-63,134,-155,134v-44,0,-85,-12,-105,-24r14,-49v17,9,51,21,89,21v45,0,88,-28,88,-76v0,-46,-32,-79,-113,-79v-22,0,-42,2,-57,4r26,-191r202,0","w":308},"\u2086":{"d":"267,-247r0,53v-10,-1,-25,-1,-40,1v-80,11,-125,62,-136,122r2,0v19,-21,52,-41,94,-41v72,0,122,50,122,125v0,77,-57,139,-138,139v-93,0,-148,-70,-148,-167v0,-74,27,-135,67,-173v35,-33,81,-52,138,-57v15,-1,29,-2,39,-2xm171,101v42,0,70,-36,70,-84v0,-49,-29,-81,-76,-81v-31,0,-58,19,-71,45v-3,6,-5,12,-5,21v0,54,28,99,82,99","w":332},"\u2087":{"d":"19,-241r263,0r0,43r-172,345r-70,0r171,-332r0,-1r-192,0r0,-55","w":294},"\u2088":{"d":"168,-248v81,0,121,47,121,97v0,33,-18,68,-63,88r0,2v45,17,78,50,78,98v0,69,-59,115,-142,115v-90,0,-138,-51,-138,-106v0,-48,29,-80,77,-100r0,-3v-43,-19,-63,-52,-63,-86v0,-63,56,-105,130,-105xm164,105v44,0,72,-27,72,-62v0,-44,-32,-64,-79,-77v-43,12,-66,39,-66,72v0,35,27,67,73,67xm164,-202v-41,0,-63,26,-63,56v0,34,27,54,70,65v31,-10,55,-31,55,-63v0,-28,-18,-58,-62,-58","w":328},"\u2089":{"d":"58,151r0,-53v11,1,26,1,42,-1v31,-3,61,-14,84,-33v26,-21,44,-52,51,-92r-2,0v-20,23,-50,38,-89,38v-71,0,-121,-50,-121,-120v0,-74,58,-138,141,-138v89,0,139,69,139,165v0,83,-28,143,-68,180v-33,31,-80,48,-130,52v-18,2,-36,3,-47,2xm160,-198v-40,0,-70,36,-70,85v0,42,27,75,71,75v33,0,58,-16,71,-37v3,-4,4,-11,4,-19v0,-57,-22,-104,-76,-104","w":327},"\uf6e7":{"d":"64,153v-25,0,-43,-20,-43,-45v0,-27,19,-45,44,-45v26,0,44,18,44,45v0,25,-18,45,-45,45","w":131},"\uf6e1":{"d":"48,213r-48,5v16,-44,32,-106,39,-155r74,-6v-17,56,-43,120,-65,156","w":131},"\uf6e3":{"d":"179,198r-45,0r0,-59v-38,-1,-76,-12,-99,-27r16,-50v24,15,57,27,94,27v42,0,69,-21,69,-51v0,-30,-21,-46,-69,-64v-66,-24,-105,-51,-105,-106v0,-51,36,-90,97,-100r0,-59r45,0r0,56v37,1,65,11,83,21r-16,49v-13,-7,-41,-21,-82,-21v-46,0,-61,24,-61,46v0,27,19,40,76,61v67,25,98,57,98,111v0,49,-35,94,-101,104r0,62","w":317},"\uf6df":{"d":"206,155r-46,0r0,-60v-40,-5,-68,-20,-90,-44v-21,-23,-34,-58,-34,-99v0,-76,47,-137,124,-150r0,-58r46,0r0,57v25,0,48,7,64,14r-13,50v-13,-7,-32,-14,-61,-14v-57,0,-93,41,-93,97v0,63,41,97,91,97v32,0,53,-7,68,-13r10,47v-13,6,-37,15,-66,17r0,59","w":315},"\uf6e5":{"d":"18,-61r155,0r0,48r-155,0r0,-48","w":191},"\u208d":{"d":"117,-278r51,0v-40,57,-72,136,-72,243v0,106,33,182,72,241r-51,0v-36,-49,-77,-126,-77,-241v0,-117,41,-195,77,-243","w":180},"\u208e":{"d":"64,206r-51,0v39,-59,72,-136,72,-242v0,-106,-32,-184,-72,-242r51,0v36,48,77,125,77,242v0,115,-41,192,-77,242","w":180},"\uf661":{"d":"165,-261v-87,0,-142,-75,-142,-199v0,-124,57,-201,147,-201v92,0,143,76,143,197v0,122,-50,203,-148,203xm168,-312v49,0,75,-56,75,-150v0,-93,-25,-148,-75,-148v-45,0,-75,54,-75,148v0,96,29,150,75,150","w":336},"\uf662":{"d":"177,-266r-70,0r0,-329r-2,0r-72,35r-11,-52r94,-44r61,0r0,390","w":244},"\uf663":{"d":"12,-266r0,-37r63,-58v83,-77,126,-123,126,-174v0,-39,-24,-70,-76,-70v-35,0,-65,17,-84,31r-21,-46v27,-22,72,-41,123,-41v94,0,132,59,132,112v0,76,-57,131,-133,198r-30,28r0,2r170,0r0,55r-270,0","w":311},"\uf664":{"d":"45,-582r-17,-48v23,-15,66,-31,115,-31v86,0,122,46,122,94v0,41,-29,74,-77,90r0,2v54,8,93,46,93,97v0,62,-56,117,-158,117v-48,0,-92,-13,-115,-28r18,-50v16,11,56,26,93,26v62,0,89,-36,88,-67v0,-51,-53,-71,-106,-70r-27,0r0,-46r28,0v37,0,91,-17,91,-63v0,-25,-18,-50,-63,-50v-36,0,-69,16,-85,27","w":305},"\uf665":{"d":"272,-266r-67,0r0,-102r-189,0r0,-41r177,-247r79,0r0,238r55,0r0,50r-55,0r0,102xm205,-418r0,-116v0,-22,2,-43,3,-63r-2,0v-12,23,-22,41,-34,59r-86,119r1,1r118,0","w":347},"\uf666":{"d":"268,-654r0,55r-155,0r-13,85v8,-1,18,-1,31,-1v33,0,66,5,93,21v30,17,55,51,55,100v0,77,-63,134,-155,134v-44,0,-85,-13,-105,-24r14,-50v17,10,51,22,89,22v45,0,88,-28,88,-76v0,-47,-32,-79,-113,-79v-22,0,-42,2,-57,4r26,-191r202,0","w":308},"\uf667":{"d":"267,-660r0,53v-10,-1,-25,-1,-40,1v-80,11,-125,62,-136,122r2,0v19,-21,52,-41,94,-41v72,0,122,50,122,125v0,77,-57,139,-138,139v-93,0,-148,-70,-148,-167v0,-74,27,-135,67,-173v35,-33,81,-51,138,-57v15,-1,29,-2,39,-2xm171,-312v42,0,70,-36,70,-84v0,-49,-29,-81,-76,-81v-31,0,-58,19,-71,45v-3,6,-5,12,-5,21v0,54,28,99,82,99","w":332},"\uf668":{"d":"19,-654r263,0r0,43r-172,345r-70,0r171,-332r0,-1r-192,0r0,-55","w":294},"\uf669":{"d":"168,-661v81,0,121,47,121,97v0,34,-18,69,-63,89r0,2v45,17,78,50,78,98v0,68,-59,114,-142,114v-90,0,-138,-51,-138,-105v0,-48,29,-81,77,-100r0,-3v-43,-19,-63,-52,-63,-86v0,-64,56,-106,130,-106xm164,-308v44,0,72,-27,72,-62v0,-44,-32,-64,-79,-76v-43,12,-66,38,-66,72v0,34,27,66,73,66xm164,-615v-41,0,-63,26,-63,56v0,35,27,55,70,66v31,-10,55,-31,55,-64v0,-28,-18,-58,-62,-58","w":328},"\uf66a":{"d":"58,-262r0,-53v11,1,26,1,42,-1v31,-3,61,-14,84,-33v26,-21,44,-52,51,-92r-2,0v-20,23,-50,38,-89,38v-71,0,-121,-50,-121,-120v0,-74,58,-138,141,-138v89,0,139,69,139,165v0,83,-28,143,-68,180v-33,31,-80,48,-130,52v-18,2,-36,3,-47,2xm160,-611v-40,0,-70,36,-70,85v0,42,27,75,71,75v33,0,58,-16,71,-37v3,-4,4,-11,4,-19v0,-57,-22,-104,-76,-104","w":327},"\uf66c":{"d":"64,-260v-25,0,-43,-20,-43,-45v0,-27,19,-45,44,-45v26,0,44,18,44,45v0,25,-18,45,-45,45","w":131},"\uf66b":{"d":"48,-200r-48,5v16,-44,32,-106,39,-155r74,-6v-17,56,-43,120,-65,156","w":131},"\uf62f":{"d":"179,-215r-45,0r0,-59v-38,-1,-76,-12,-99,-27r16,-50v24,15,57,27,94,27v42,0,69,-21,69,-51v0,-30,-21,-46,-69,-64v-66,-24,-105,-51,-105,-106v0,-51,36,-90,97,-100r0,-59r45,0r0,56v37,1,65,11,83,21r-16,49v-13,-7,-41,-21,-82,-21v-46,0,-61,24,-61,46v0,27,19,40,76,61v67,25,98,57,98,111v0,49,-35,94,-101,104r0,62","w":317},"\uf62e":{"d":"206,-258r-46,0r0,-60v-40,-5,-68,-20,-90,-44v-21,-23,-34,-58,-34,-99v0,-76,47,-137,124,-150r0,-58r46,0r0,57v25,0,48,7,64,14r-13,50v-13,-7,-32,-14,-61,-14v-57,0,-93,41,-93,97v0,63,41,97,91,97v32,0,53,-7,68,-13r10,47v-13,7,-37,15,-66,17r0,59","w":315},"\uf630":{"d":"18,-474r155,0r0,48r-155,0r0,-48","w":191},"\uf631":{"d":"117,-691r51,0v-40,57,-72,136,-72,243v0,106,33,182,72,241r-51,0v-36,-49,-77,-126,-77,-241v0,-117,41,-195,77,-243","w":180},"\uf632":{"d":"64,-207r-51,0v39,-59,72,-136,72,-242v0,-106,-32,-184,-72,-242r51,0v36,48,77,125,77,242v0,115,-41,192,-77,242","w":180},"\uf655":{"d":"165,5v-87,0,-142,-75,-142,-199v0,-124,57,-201,147,-201v92,0,143,76,143,197v0,122,-50,203,-148,203xm168,-46v49,0,75,-56,75,-150v0,-93,-25,-148,-75,-148v-45,0,-75,54,-75,148v0,96,29,150,75,150","w":336},"\uf656":{"d":"177,0r-70,0r0,-329r-2,0r-72,35r-11,-52r94,-44r61,0r0,390","w":244},"\uf657":{"d":"12,0r0,-37r63,-58v83,-77,126,-123,126,-174v0,-39,-24,-70,-76,-70v-35,0,-65,17,-84,31r-21,-46v27,-22,72,-41,123,-41v94,0,132,59,132,112v0,76,-57,131,-133,198r-30,28r0,2r170,0r0,55r-270,0","w":311},"\uf658":{"d":"45,-316r-17,-48v23,-15,66,-31,115,-31v86,0,122,46,122,94v0,41,-29,74,-77,90r0,2v54,8,93,46,93,97v0,62,-56,117,-158,117v-48,0,-92,-13,-115,-28r18,-50v16,11,56,26,93,26v62,0,89,-36,88,-67v0,-51,-53,-71,-106,-70r-27,0r0,-46r28,0v37,0,91,-17,91,-63v0,-25,-18,-50,-63,-50v-36,0,-69,16,-85,27","w":305},"\uf659":{"d":"272,0r-67,0r0,-102r-189,0r0,-41r177,-247r79,0r0,238r55,0r0,50r-55,0r0,102xm205,-152r0,-116v0,-22,2,-43,3,-63r-2,0v-12,23,-22,41,-34,59r-86,119r1,1r118,0","w":347},"\uf65a":{"d":"268,-388r0,55r-155,0r-13,85v8,-1,18,-1,31,-1v33,0,66,5,93,21v30,17,55,51,55,100v0,77,-63,134,-155,134v-44,0,-85,-13,-105,-24r14,-50v17,10,51,22,89,22v45,0,88,-28,88,-76v0,-46,-32,-79,-113,-79v-22,0,-42,3,-57,4r26,-191r202,0","w":308},"\uf65b":{"d":"267,-394r0,53v-10,-1,-25,-1,-40,1v-80,11,-125,62,-136,122r2,0v19,-21,52,-41,94,-41v72,0,122,50,122,125v0,77,-57,139,-138,139v-93,0,-148,-70,-148,-167v0,-74,27,-135,67,-173v35,-33,81,-51,138,-57v15,-1,29,-2,39,-2xm171,-46v42,0,70,-36,70,-84v0,-49,-29,-81,-76,-81v-31,0,-58,19,-71,45v-3,6,-5,12,-5,21v0,54,28,99,82,99","w":332},"\uf65c":{"d":"19,-388r263,0r0,43r-172,345r-70,0r171,-332r0,-1r-192,0r0,-55","w":294},"\uf65d":{"d":"168,-395v81,0,121,47,121,97v0,33,-18,68,-63,88r0,2v45,17,78,50,78,98v0,69,-59,115,-142,115v-90,0,-138,-51,-138,-106v0,-48,29,-80,77,-100r0,-3v-43,-19,-63,-52,-63,-86v0,-63,56,-105,130,-105xm164,-42v44,0,72,-27,72,-62v0,-44,-32,-64,-79,-77v-43,12,-66,39,-66,72v0,35,27,67,73,67xm164,-349v-41,0,-63,26,-63,56v0,34,27,54,70,65v31,-10,55,-31,55,-63v0,-28,-18,-58,-62,-58","w":328},"\uf65e":{"d":"58,4r0,-53v11,1,26,1,42,-1v31,-3,61,-14,84,-33v26,-21,44,-52,51,-92r-2,0v-20,23,-50,38,-89,38v-71,0,-121,-50,-121,-120v0,-74,58,-138,141,-138v89,0,139,69,139,165v0,83,-28,143,-68,180v-33,31,-80,48,-130,52v-18,2,-36,3,-47,2xm160,-345v-40,0,-70,36,-70,85v0,42,27,75,71,75v33,0,58,-16,71,-37v3,-4,4,-11,4,-19v0,-57,-22,-104,-76,-104","w":327},"\uf660":{"d":"64,6v-25,0,-43,-20,-43,-45v0,-27,19,-45,44,-45v26,0,44,18,44,45v0,25,-18,45,-45,45","w":131},"\uf65f":{"d":"48,66r-48,5v16,-44,32,-106,39,-155r74,-6v-17,56,-43,120,-65,156","w":131},"\uf62a":{"d":"179,51r-45,0r0,-59v-38,-1,-76,-12,-99,-27r16,-50v24,15,57,27,94,27v42,0,69,-21,69,-51v0,-30,-21,-46,-69,-64v-66,-24,-105,-51,-105,-106v0,-51,36,-90,97,-100r0,-59r45,0r0,56v37,1,65,11,83,21r-16,49v-13,-7,-41,-21,-82,-21v-46,0,-61,24,-61,46v0,27,19,40,76,61v67,25,98,57,98,111v0,49,-35,94,-101,104r0,62","w":317},"\uf629":{"d":"206,8r-46,0r0,-60v-40,-5,-68,-20,-90,-44v-21,-23,-34,-58,-34,-99v0,-76,47,-137,124,-150r0,-58r46,0r0,57v25,0,48,7,64,14r-13,50v-13,-7,-32,-14,-61,-14v-57,0,-93,41,-93,97v0,63,41,97,91,97v32,0,53,-7,68,-13r10,47v-13,7,-37,15,-66,17r0,59","w":315},"\uf62b":{"d":"18,-208r155,0r0,48r-155,0r0,-48","w":191},"\uf62c":{"d":"117,-425r51,0v-40,57,-72,136,-72,243v0,106,33,182,72,241r-51,0v-36,-49,-77,-126,-77,-241v0,-117,41,-195,77,-243","w":180},"\uf62d":{"d":"64,59r-51,0v39,-59,72,-136,72,-242v0,-106,-32,-184,-72,-242r51,0v36,48,77,125,77,242v0,115,-41,192,-77,242","w":180},"\uf633":{"d":"448,-348r21,-112v-10,-4,-27,-8,-50,-8v-88,0,-159,83,-159,180v0,44,22,76,66,76v58,0,111,-74,122,-136xm508,-71r16,43v-55,29,-111,40,-178,40v-164,0,-303,-120,-303,-313v0,-206,143,-385,365,-385v174,0,290,123,290,290v0,150,-84,238,-177,238v-40,0,-77,-26,-75,-88r-3,0v-35,59,-81,88,-141,88v-58,0,-108,-47,-108,-126v0,-124,98,-237,237,-237v42,0,81,9,107,21r-34,181v-15,76,-3,111,30,112v51,2,108,-67,108,-182v0,-146,-87,-251,-242,-251v-163,0,-300,130,-300,333v0,167,109,271,257,271v57,0,110,-13,151,-35","w":737},"\uf6bc":{"d":"30,-359r940,0r0,60r-940,0r0,-60","w":1000},"\uf6bb":{"d":"30,-359r440,0r0,60r-440,0r0,-60","w":500},"\uf6b4":{"d":"163,0r-96,0r14,-477r68,0xm116,-683v35,0,58,26,58,63v0,34,-23,61,-59,61v-35,0,-59,-27,-59,-61v0,-37,25,-63,60,-63","w":230},"\uf6b6":{"d":"232,-511r-133,184r134,184r-72,0r-132,-184r132,-184r71,0xm396,-511r-133,184r133,184r-71,0r-132,-184r132,-184r71,0","w":419},"\uf6b7":{"d":"157,-327r-133,-184r70,0r133,184r-133,184r-70,0xm320,-327r-134,-184r71,0r133,184r-133,184r-70,0","w":419},"\uf6b8":{"d":"232,-511r-133,184r133,184r-71,0r-132,-184r132,-184r71,0","w":255},"\uf6b9":{"d":"157,-327r-133,-184r70,0r133,184r-133,184r-70,0","w":255},"\uf6ba":{"d":"30,-377r247,0r0,64r-247,0r0,-64","w":307},"\uf6b5":{"d":"238,-683v35,0,58,26,58,63v0,35,-23,62,-59,62v-35,0,-59,-27,-59,-62v0,-37,24,-63,60,-63xm197,-481r77,0r3,26v6,54,-13,114,-62,174v-45,53,-70,92,-70,137v0,51,32,86,95,86v36,0,75,-12,102,-31r23,63v-34,23,-90,40,-143,40v-115,0,-167,-71,-167,-147v0,-68,38,-117,87,-174v44,-53,60,-97,56,-148","w":406},"\uf6b2":{"d":"28,-302r0,-51v70,0,80,-39,81,-74v0,-28,-4,-56,-8,-84v-4,-28,-8,-56,-8,-83v0,-92,61,-131,146,-131r20,0r0,55r-17,0v-59,1,-80,32,-80,86v0,23,4,47,7,71v4,25,8,49,8,76v1,64,-28,96,-73,108r0,2v45,11,73,45,73,109v0,27,-4,52,-8,77v-3,24,-7,48,-7,72v0,56,24,86,80,87r17,0r0,55r-21,0v-82,0,-145,-36,-145,-137v0,-27,4,-55,9,-82v3,-28,7,-55,7,-81v0,-32,-10,-75,-81,-75","w":284},"\uf6b3":{"d":"256,-353r0,51v-70,0,-80,43,-81,75v0,26,4,53,8,81v4,27,8,55,8,82v0,101,-63,137,-145,137r-21,0r0,-55r17,0v56,-1,80,-31,80,-87v0,-24,-4,-48,-7,-72v-4,-25,-8,-50,-8,-77v-1,-64,28,-98,73,-109r0,-2v-45,-12,-73,-44,-73,-108v0,-27,4,-51,8,-76v3,-24,7,-48,7,-71v0,-54,-21,-85,-80,-86r-17,0r0,-55r20,0v85,0,146,39,146,131v0,27,-4,55,-8,83v-4,28,-8,56,-8,84v0,35,10,74,81,74","w":284},"\uf6b0":{"d":"264,73r-183,0r0,-798r183,0r0,55r-114,0r0,688r114,0r0,55","w":284},"\uf6b1":{"d":"20,-725r183,0r0,798r-183,0r0,-55r114,0r0,-688r-114,0r0,-55","w":284},"\uf6ae":{"d":"195,-734r68,0v-73,99,-125,228,-125,410v0,178,55,305,125,405r-68,0v-63,-83,-131,-211,-131,-406v1,-196,68,-325,131,-409","w":284},"\uf6af":{"d":"88,81r-68,0v70,-99,125,-228,125,-408v0,-180,-54,-307,-125,-407r68,0v63,82,131,211,131,407v-1,196,-68,324,-131,408","w":284},"\uf6bd":{"d":"102,-275v-34,0,-58,-27,-58,-62v0,-37,25,-63,60,-63v35,0,59,26,59,63v0,35,-24,62,-61,62","w":207},"\u2264":{"d":"530,-99r-464,-193r0,-59r464,-192r0,66r-382,155r0,2r382,154r0,67xm530,0r-462,0r0,-58r462,0r0,58","w":596},"\u2265":{"d":"530,-292r-464,193r0,-67r382,-154r0,-2r-382,-155r0,-66r464,192r0,59xm528,0r-462,0r0,-58r462,0r0,58","w":596},"\u2248":{"d":"533,-416r36,41v-31,40,-89,78,-151,78v-59,0,-96,-22,-129,-37v-30,-12,-64,-34,-114,-34v-46,0,-90,30,-117,59r-35,-42v32,-38,90,-77,153,-77v58,0,95,23,127,37v30,12,64,34,114,34v46,0,91,-33,116,-59xm538,-218r36,40v-32,41,-91,79,-153,79v-57,0,-95,-23,-127,-36v-30,-12,-64,-34,-115,-34v-45,0,-90,30,-117,59r-35,-43v32,-38,91,-76,153,-76v58,0,95,23,128,36v30,12,64,34,113,34v47,0,91,-30,117,-59","w":596},"\u2260":{"d":"556,-140r-310,0r-76,122r-65,0r79,-122r-144,0r0,-60r182,0r89,-138r-271,0r0,-60r309,0r76,-122r65,0r-79,122r145,0r0,60r-183,0r-88,138r271,0r0,60","w":596},"\u221e":{"d":"541,-117v-74,0,-129,-58,-177,-105v-51,50,-104,105,-186,105v-84,0,-143,-61,-143,-146v0,-80,64,-148,151,-148v75,0,130,58,178,106v51,-51,104,-106,186,-106v84,0,143,61,143,148v0,78,-64,146,-152,146xm543,-176v49,0,87,-40,87,-87v0,-51,-36,-89,-85,-89v-57,0,-103,50,-141,89v39,35,80,87,139,87xm184,-176v56,0,102,-48,140,-87v-39,-36,-80,-89,-138,-89v-50,0,-88,41,-88,89v0,50,36,87,86,87","w":728},"\u25ca":{"d":"477,-324r-182,355r-69,0r-181,-355r181,-356r69,0xm401,-323r-130,-267v-4,-6,-8,-15,-10,-23r-2,0v-3,8,-7,17,-11,23r-128,264r131,267v4,7,8,15,10,23r2,0v3,-8,7,-16,10,-23","w":522},"\u222b":{"d":"306,-788r-12,56v-8,-2,-19,-4,-30,-4v-17,0,-35,7,-46,22v-20,25,-29,68,-29,157v0,146,12,320,12,471v0,98,-18,156,-42,188v-22,32,-57,48,-96,48v-22,0,-44,-5,-53,-10r11,-57v9,3,21,6,36,6v16,0,32,-7,44,-21v17,-21,31,-58,31,-154v0,-152,-12,-330,-12,-476v0,-101,16,-158,52,-196v24,-26,55,-37,89,-37v18,0,35,3,45,7","w":316},"\u2202":{"d":"86,-614r-28,-59v33,-24,88,-54,173,-54v139,0,264,125,264,354v0,255,-129,384,-270,384v-136,0,-199,-104,-199,-210v0,-136,95,-244,219,-244v84,0,142,48,164,87r1,0v1,-10,1,-23,1,-33v0,-176,-94,-265,-188,-265v-66,0,-111,21,-137,40xm233,-61v89,0,153,-102,167,-216v-18,-49,-71,-96,-141,-96v-80,0,-145,74,-145,172v0,87,48,140,119,140","w":375},"\u220f":{"d":"605,-577r-93,0r0,667r-83,0r0,-667r-244,0r0,667r-83,0r0,-667r-93,0r0,-73r596,0r0,73","w":615},"\u221a":{"d":"578,-827r-230,922r-63,0r-160,-427r-74,31r-19,-47r138,-57r123,345v8,22,15,46,19,64r1,0v3,-17,8,-42,14,-64r185,-767r66,0","w":562},"\u2211":{"d":"514,90r-505,0r0,-53r251,-315r-238,-314r0,-58r461,0r0,72r-349,0r0,4r222,293r-234,294r0,4r392,0r0,73","w":507},"\u2206":{"d":"544,0r-518,0r0,-49r211,-607r98,0r209,606r0,50xm452,-72r-120,-348v-16,-48,-36,-114,-48,-158r-3,0v-10,35,-28,97,-43,145r-124,361r338,0","w":569},"\u2126":{"d":"528,-72r0,3r147,0r0,69r-253,0r0,-55v80,-55,149,-162,149,-298v0,-123,-73,-262,-216,-262v-142,0,-221,131,-221,264v0,126,70,246,150,296r0,55r-254,0r0,-69r146,0r0,-3v-67,-56,-132,-157,-133,-286v0,-193,135,-328,314,-328v187,0,304,141,304,319v0,139,-66,238,-133,295","w":705},"\u03c0":{"d":"520,-416r-67,0r0,272v0,79,6,119,13,144r-84,0v-9,-15,-16,-58,-16,-135r0,-281r-158,0v-4,128,-33,336,-68,416r-83,0v36,-95,64,-287,67,-416v-39,0,-73,3,-98,9r-12,-52v22,-15,61,-25,139,-25r376,0","w":555},"\u01fb":{"d":"297,-834r97,0r-142,106r-62,0xm413,-297r0,181v0,42,2,83,7,116r-79,0r-8,-61r-3,0v-26,38,-78,72,-147,72v-98,0,-148,-69,-148,-139v0,-117,104,-181,291,-180r0,-10v0,-39,-11,-112,-110,-111v-45,0,-92,13,-126,36r-20,-59v40,-25,98,-42,159,-42v148,0,184,101,184,197xm328,-163r-1,-84v-95,-2,-204,15,-204,109v0,58,38,84,83,84v63,0,104,-40,118,-81v3,-9,4,-19,4,-28xm241,-520v-60,0,-101,-40,-101,-91v0,-53,39,-94,102,-94v59,0,99,40,99,94v0,52,-44,91,-100,91xm240,-557v31,0,52,-25,52,-55v0,-31,-20,-56,-53,-56v-30,0,-48,27,-48,57v0,27,20,54,49,54","w":482},"\u0102":{"d":"424,-212r-239,0r-70,212r-90,0r230,-674r104,0r230,674r-93,0xm203,-280r204,0r-67,-194v-15,-44,-25,-84,-35,-123r-2,0v-10,39,-20,81,-34,122xm181,-817r52,0v5,23,23,49,72,49v49,0,68,-23,73,-49r51,0v-2,59,-39,106,-125,106v-85,0,-121,-46,-123,-106","w":612},"\u0100":{"d":"424,-212r-239,0r-70,212r-90,0r230,-674r104,0r230,674r-93,0xm203,-280r204,0r-67,-194v-15,-44,-25,-84,-35,-123r-2,0v-10,39,-20,81,-34,122xm185,-788r240,0r0,55r-240,0r0,-55","w":612},"\u0104":{"d":"359,-674r231,674r-37,2v-16,16,-53,57,-53,93v0,33,22,52,51,52v17,0,33,-4,45,-10r14,45v-21,16,-56,24,-80,24v-56,0,-94,-30,-94,-87v0,-49,36,-96,59,-123r-71,-208r-239,0r-69,212r-91,0r230,-674r104,0xm203,-280r204,0r-67,-194v-15,-44,-25,-84,-35,-123r-2,0v-10,39,-20,81,-34,122","w":612},"\u0106":{"d":"529,-91r17,70v-31,16,-96,32,-178,32v-190,0,-332,-120,-332,-342v0,-212,143,-354,352,-354v83,0,137,18,160,30r-22,71v-32,-16,-79,-28,-135,-28v-158,0,-263,101,-263,278v0,166,95,271,258,271v54,0,108,-11,143,-28xm400,-829r106,0r-128,117r-71,0","w":580},"\u010c":{"d":"529,-91r17,70v-31,16,-96,32,-178,32v-190,0,-332,-120,-332,-342v0,-212,143,-354,352,-354v83,0,137,18,160,30r-22,71v-32,-16,-79,-28,-135,-28v-158,0,-263,101,-263,278v0,166,95,271,258,271v54,0,108,-11,143,-28xm387,-713r-67,0r-105,-114r74,0r64,69r2,0r63,-69r71,0","w":580},"\u0108":{"d":"529,-91r17,70v-31,16,-96,32,-178,32v-190,0,-332,-120,-332,-342v0,-212,143,-354,352,-354v83,0,137,18,160,30r-22,71v-32,-16,-79,-28,-135,-28v-158,0,-263,101,-263,278v0,166,95,271,258,271v54,0,108,-11,143,-28xm314,-828r67,0r105,114r-74,0r-63,-69r-2,0r-64,69r-71,0","w":580},"\u010a":{"d":"529,-91r17,70v-31,16,-96,32,-178,32v-190,0,-332,-120,-332,-342v0,-212,143,-354,352,-354v83,0,137,18,160,30r-22,71v-32,-16,-79,-28,-135,-28v-158,0,-263,101,-263,278v0,166,95,271,258,271v54,0,108,-11,143,-28xm348,-719v-28,0,-49,-24,-49,-51v0,-26,22,-50,50,-50v27,0,48,24,48,50v0,27,-21,51,-49,51","w":580},"\u010e":{"d":"76,-2r0,-662v53,-9,116,-15,185,-15v125,0,214,30,273,84v61,55,96,133,96,242v0,110,-35,200,-97,262v-64,63,-168,97,-299,97v-63,0,-114,-3,-158,-8xm163,-601r0,533v22,3,54,4,88,4v187,0,287,-104,287,-286v1,-159,-89,-260,-273,-260v-45,0,-79,4,-102,9xm342,-712r-67,0r-105,-114r74,0r64,69r2,0r63,-69r71,0","w":666},"\u0114":{"d":"424,-388r0,72r-261,0r0,243r292,0r0,73r-380,0r0,-674r365,0r0,73r-277,0r0,213r261,0xm130,-825r52,0v5,23,23,49,72,49v49,0,68,-23,73,-49r51,0v-2,59,-39,106,-125,106v-85,0,-121,-46,-123,-106","w":492},"\u011a":{"d":"424,-388r0,72r-261,0r0,243r292,0r0,73r-380,0r0,-674r365,0r0,73r-277,0r0,213r261,0xm291,-710r-67,0r-105,-114r74,0r64,69r2,0r63,-69r71,0","w":492},"\u0116":{"d":"424,-388r0,72r-261,0r0,243r292,0r0,73r-380,0r0,-674r365,0r0,73r-277,0r0,213r261,0xm250,-721v-28,0,-49,-24,-49,-51v0,-26,22,-50,50,-50v27,0,48,24,48,50v0,27,-21,51,-49,51","w":492},"\u0112":{"d":"424,-388r0,72r-261,0r0,243r292,0r0,73r-380,0r0,-674r365,0r0,73r-277,0r0,213r261,0xm139,-788r240,0r0,55r-240,0r0,-55","w":492},"\u0118":{"d":"446,138r14,47v-23,14,-51,21,-81,21v-56,0,-92,-29,-92,-81v0,-54,45,-101,81,-125r-293,0r0,-674r365,0r0,73r-277,0r0,213r261,0r0,72r-261,0r0,243r292,0r0,73v-5,0,-10,1,-16,1v-41,26,-82,68,-82,105v0,26,19,40,45,40v15,0,29,-2,44,-8","w":492},"\u011e":{"d":"590,-354r0,324v-39,15,-117,37,-208,37v-102,0,-186,-26,-252,-89v-58,-56,-94,-146,-94,-251v0,-201,139,-348,365,-348v78,0,140,17,169,31r-22,71v-36,-17,-81,-29,-149,-29v-164,0,-271,102,-271,271v0,171,102,272,260,272v57,0,96,-8,116,-18r0,-201r-136,0r0,-70r222,0xm231,-827r52,0v5,23,23,49,72,49v48,0,67,-23,72,-49r51,0v-2,59,-39,106,-125,106v-84,0,-120,-46,-122,-106","w":646},"\u011c":{"d":"590,-354r0,324v-39,15,-117,37,-208,37v-102,0,-186,-26,-252,-89v-58,-56,-94,-146,-94,-251v0,-201,139,-348,365,-348v78,0,140,17,169,31r-22,71v-36,-17,-81,-29,-149,-29v-164,0,-271,102,-271,271v0,171,102,272,260,272v57,0,96,-8,116,-18r0,-201r-136,0r0,-70r222,0xm326,-827r67,0r105,114r-74,0r-63,-69r-2,0r-64,69r-71,0","w":646},"\u0122":{"d":"590,-354r0,324v-39,15,-117,37,-208,37v-102,0,-186,-26,-252,-89v-58,-56,-94,-146,-94,-251v0,-201,139,-348,365,-348v78,0,140,17,169,31r-22,71v-36,-17,-81,-29,-149,-29v-164,0,-271,102,-271,271v0,171,102,272,260,272v57,0,96,-8,116,-18r0,-201r-136,0r0,-70r222,0xm298,222r-17,-41v39,-6,75,-26,75,-65v0,-24,-16,-46,-34,-61r65,-14v20,13,40,41,40,74v0,73,-67,103,-129,107","w":646},"\u0120":{"d":"590,-354r0,324v-39,15,-117,37,-208,37v-102,0,-186,-26,-252,-89v-58,-56,-94,-146,-94,-251v0,-201,139,-348,365,-348v78,0,140,17,169,31r-22,71v-36,-17,-81,-29,-149,-29v-164,0,-271,102,-271,271v0,171,102,272,260,272v57,0,96,-8,116,-18r0,-201r-136,0r0,-70r222,0xm361,-719v-28,0,-49,-24,-49,-51v0,-26,22,-50,50,-50v27,0,48,24,48,50v0,27,-21,51,-49,51","w":646},"\ue000":{"d":"590,-354r0,324v-39,15,-117,37,-208,37v-102,0,-186,-26,-252,-89v-58,-56,-94,-146,-94,-251v0,-201,139,-348,365,-348v78,0,140,17,169,31r-22,71v-36,-17,-81,-29,-149,-29v-164,0,-271,102,-271,271v0,171,102,272,260,272v57,0,96,-8,116,-18r0,-201r-136,0r0,-70r222,0xm291,-715r-47,0v-1,-61,25,-102,68,-102v22,0,38,9,60,20v16,9,32,18,48,18v15,0,24,-7,27,-39r46,0v1,63,-21,97,-67,97v-21,0,-39,-8,-62,-19v-19,-10,-32,-19,-47,-19v-16,0,-23,17,-26,44","w":646},"\u0124":{"d":"75,-674r88,0r0,282r326,0r0,-282r88,0r0,674r-88,0r0,-316r-326,0r0,316r-88,0r0,-674xm292,-824r67,0r105,114r-74,0r-63,-69r-2,0r-64,69r-71,0","w":652},"\u012c":{"d":"75,-674r88,0r0,674r-88,0r0,-674xm-4,-823r52,0v5,23,23,49,72,49v48,0,67,-23,72,-49r51,0v-2,59,-39,106,-125,106v-84,0,-120,-46,-122,-106","w":239},"\u0130":{"d":"75,-674r88,0r0,674r-88,0r0,-674xm120,-721v-28,0,-49,-24,-49,-51v0,-26,22,-50,50,-50v27,0,48,24,48,50v0,27,-21,51,-49,51","w":239},"\u012a":{"d":"75,-674r88,0r0,674r-88,0r0,-674xm0,-788r240,0r0,55r-240,0r0,-55","w":239},"\u012e":{"d":"163,-674r0,674r-30,0v-15,21,-41,62,-41,98v0,34,22,52,51,52v19,0,34,-4,45,-9r14,46v-21,15,-56,23,-81,23v-55,0,-93,-30,-93,-87v0,-49,30,-96,47,-123r0,-674r88,0","w":239},"\u0128":{"d":"75,-674r88,0r0,674r-88,0r0,-674xm43,-715r-47,0v-1,-61,25,-102,68,-102v22,0,38,9,59,20v16,9,32,18,48,18v15,0,24,-7,27,-39r46,0v1,63,-21,97,-67,97v-21,0,-39,-8,-61,-19v-19,-10,-32,-19,-47,-19v-16,0,-23,17,-26,44","w":239},"\u0134":{"d":"213,-230r0,-444r88,0r0,451v0,179,-88,234,-204,234v-33,0,-72,-7,-93,-16r12,-71v18,7,44,13,74,13v78,0,123,-35,123,-167xm219,-824r67,0r105,114r-74,0r-63,-69r-2,0r-64,69r-71,0","w":370},"\u0136":{"d":"76,0r0,-674r87,0r0,325r3,0v18,-26,36,-50,53,-72r206,-253r108,0r-244,286r263,388r-103,0r-221,-331r-65,74r0,257r-87,0xm215,220r-17,-41v39,-6,75,-26,75,-65v0,-24,-16,-46,-34,-61r65,-14v20,13,40,41,40,74v0,73,-67,103,-129,107","w":542},"\u0139":{"d":"75,0r0,-674r88,0r0,601r288,0r0,73r-376,0xm179,-827r106,0r-128,117r-71,0","w":472},"\u013d":{"d":"75,0r0,-674r88,0r0,601r288,0r0,73r-376,0xm260,-504r-17,-41v39,-6,75,-26,75,-65v0,-24,-16,-46,-34,-61r65,-14v20,13,40,41,40,74v0,73,-67,103,-129,107","w":472},"\u013b":{"d":"75,0r0,-674r88,0r0,601r288,0r0,73r-376,0xm187,222r-17,-41v39,-6,75,-26,75,-65v0,-24,-16,-46,-34,-61r65,-14v20,13,40,41,40,74v0,73,-67,103,-129,107","w":472},"\u013f":{"d":"75,0r0,-674r88,0r0,601r288,0r0,73r-376,0xm340,-321v-28,0,-49,-24,-49,-51v0,-26,22,-50,50,-50v27,0,48,24,48,50v0,27,-21,51,-49,51","w":472},"\ue001":{"d":"660,0r-16,-296v-5,-94,-11,-208,-11,-291r-2,0v-24,78,-51,163,-85,256r-119,327r-66,0r-110,-321v-32,-96,-58,-182,-77,-262r-2,0v-2,84,-7,196,-13,298r-18,289r-83,0r47,-674r111,0r115,326v28,83,50,157,68,227r2,0v18,-68,42,-142,72,-227r120,-326r111,0r42,674r-86,0xm367,-824r67,0r105,114r-74,0r-63,-69r-2,0r-64,69r-71,0","w":804},"\u0143":{"d":"158,0r-82,0r0,-674r96,0r215,341v49,79,89,150,120,219r3,-1v-8,-90,-10,-172,-10,-277r0,-282r82,0r0,674r-88,0r-214,-342v-47,-75,-92,-152,-125,-225r-3,1v5,85,6,166,6,278r0,288xm370,-827r107,0r-128,117r-71,0","w":658},"\u0147":{"d":"158,0r-82,0r0,-674r96,0r215,341v49,79,89,150,120,219r3,-1v-8,-90,-10,-172,-10,-277r0,-282r82,0r0,674r-88,0r-214,-342v-47,-75,-92,-152,-125,-225r-3,1v5,85,6,166,6,278r0,288xm364,-705r-66,0r-105,-114r74,0r64,69r2,0r63,-69r71,0","w":658},"\ue002":{"d":"158,0r-82,0r0,-674r96,0r215,341v49,79,89,150,120,219r3,-1v-8,-90,-10,-172,-10,-277r0,-282r82,0r0,674r-88,0r-214,-342v-47,-75,-92,-152,-125,-225r-3,1v5,85,6,166,6,278r0,288xm295,-824r66,0r105,114r-74,0r-63,-69r-2,0r-64,69r-71,0","w":658},"\u0145":{"d":"158,0r-82,0r0,-674r96,0r215,341v49,79,89,150,120,219r3,-1v-8,-90,-10,-172,-10,-277r0,-282r82,0r0,674r-88,0r-214,-342v-47,-75,-92,-152,-125,-225r-3,1v5,85,6,166,6,278r0,288xm270,221r-17,-41v39,-6,75,-26,75,-65v0,-24,-16,-46,-34,-61r65,-14v20,13,40,41,40,74v0,73,-67,103,-129,107","w":658},"\u014e":{"d":"348,-686v185,0,304,141,304,342v0,231,-141,355,-313,355v-179,0,-303,-139,-303,-343v0,-214,132,-354,312,-354xm345,-615v-145,0,-217,134,-217,281v0,145,78,274,216,274v138,0,216,-127,216,-280v0,-135,-70,-275,-215,-275xm220,-830r52,0v5,23,23,49,72,49v48,0,67,-23,72,-49r51,0v-2,59,-39,106,-125,106v-84,0,-120,-46,-122,-106","w":689},"\u0150":{"d":"348,-686v185,0,304,141,304,342v0,231,-141,355,-313,355v-179,0,-303,-139,-303,-343v0,-214,132,-354,312,-354xm345,-615v-145,0,-217,134,-217,281v0,145,78,274,216,274v138,0,216,-127,216,-280v0,-135,-70,-275,-215,-275xm319,-830r95,0r-111,112r-64,0xm466,-830r95,0r-111,112r-64,0","w":689},"\u014c":{"d":"348,-686v185,0,304,141,304,342v0,231,-141,355,-313,355v-179,0,-303,-139,-303,-343v0,-214,132,-354,312,-354xm345,-615v-145,0,-217,134,-217,281v0,145,78,274,216,274v138,0,216,-127,216,-280v0,-135,-70,-275,-215,-275xm225,-794r240,0r0,55r-240,0r0,-55","w":689},"\u01fe":{"d":"112,43r-49,-40r62,-87v-56,-61,-89,-149,-89,-250v0,-213,134,-352,311,-352v62,0,120,18,168,54r59,-81r53,36r-62,86v56,61,87,149,87,248v0,235,-145,354,-307,354v-63,0,-122,-19,-170,-54xm176,